{
    "class_name": "Functional",
    "config": {
        "name": "model_9",
        "trainable": true,
        "layers": [
            {
                "class_name": "InputLayer",
                "config": {
                    "batch_input_shape": [
                        null,
                        10,
                        10,
                        3
                    ],
                    "dtype": "float32",
                    "sparse": false,
                    "ragged": false,
                    "name": "input_10",
                    "idx": 0,
                    "size": 300,
                    "input_shape": [
                        null,
                        3,
                        10,
                        10
                    ],
                    "output_shape": [
                        null,
                        3,
                        10,
                        10
                    ],
                    "prev_layer_idx": [
                        -1
                    ]
                },
                "name": "input_10",
                "inbound_nodes": []
            },
            {
                "class_name": "Conv2D",
                "config": {
                    "name": "conv2d_11",
                    "trainable": true,
                    "dtype": "float32",
                    "filters": 3,
                    "kernel_size": [
                        3,
                        3
                    ],
                    "strides": [
                        1,
                        1
                    ],
                    "padding": "same",
                    "data_format": "channels_last",
                    "dilation_rate": [
                        1,
                        1
                    ],
                    "groups": 1,
                    "activation": "linear",
                    "use_bias": true,
                    "kernel_initializer": {
                        "class_name": "GlorotUniform",
                        "config": {
                            "seed": null
                        }
                    },
                    "bias_initializer": {
                        "class_name": "HeNormal",
                        "config": {
                            "seed": null
                        }
                    },
                    "kernel_regularizer": null,
                    "bias_regularizer": null,
                    "activity_regularizer": null,
                    "kernel_constraint": null,
                    "bias_constraint": null,
                    "idx": 1,
                    "size": 300,
                    "input_shape": [
                        null,
                        3,
                        10,
                        10
                    ],
                    "output_shape": [
                        null,
                        3,
                        10,
                        10
                    ],
                    "prev_layer_idx": [
                        0
                    ]
                },
                "name": "conv2d_11",
                "inbound_nodes": [
                    [
                        [
                            "input_10",
                            0,
                            0,
                            {}
                        ]
                    ]
                ],
                "weights": [
                    [
                        [
                            [
                                0.3104270398616791,
                                -0.23632773756980896,
                                -0.30455392599105835
                            ],
                            [
                                0.0858239233493805,
                                -0.0002848207950592041,
                                0.10010504722595215
                            ],
                            [
                                -0.2722627520561218,
                                0.009977102279663086,
                                -0.27688926458358765
                            ]
                        ],
                        [
                            [
                                -0.09418877959251404,
                                -0.020748615264892578,
                                -0.08475098013877869
                            ],
                            [
                                -0.05383005738258362,
                                -0.21549773216247559,
                                0.2401217520236969
                            ],
                            [
                                -0.09757575392723083,
                                0.21103766560554504,
                                0.028948307037353516
                            ]
                        ],
                        [
                            [
                                -0.23046430945396423,
                                -0.17671029269695282,
                                0.015099436044692993
                            ],
                            [
                                0.2890428602695465,
                                -0.2575088441371918,
                                0.015579789876937866
                            ],
                            [
                                -0.008671373128890991,
                                -0.03682279586791992,
                                -0.29702553153038025
                            ]
                        ]
                    ],
                    [
                        [
                            [
                                -0.282402366399765,
                                0.2854042947292328,
                                0.2467670738697052
                            ],
                            [
                                -0.29845279455184937,
                                0.30456963181495667,
                                0.00727352499961853
                            ],
                            [
                                0.30509862303733826,
                                -0.07928308844566345,
                                -0.1401182860136032
                            ]
                        ],
                        [
                            [
                                -0.17131972312927246,
                                -0.31672829389572144,
                                -0.10339999198913574
                            ],
                            [
                                -0.1140047013759613,
                                -0.17433810234069824,
                                0.11935949325561523
                            ],
                            [
                                -0.23406848311424255,
                                0.30812397599220276,
                                -0.30148887634277344
                            ]
                        ],
                        [
                            [
                                0.2678307592868805,
                                0.11838999390602112,
                                -0.2953106760978699
                            ],
                            [
                                -0.1545463502407074,
                                0.01221814751625061,
                                0.23730674386024475
                            ],
                            [
                                0.18557682633399963,
                                0.21494916081428528,
                                -0.10627827048301697
                            ]
                        ]
                    ],
                    [
                        [
                            [
                                0.07365742325782776,
                                0.03704151511192322,
                                0.1093144416809082
                            ],
                            [
                                -0.011999517679214478,
                                -0.19193951785564423,
                                0.254060834646225
                            ],
                            [
                                -0.03634953498840332,
                                0.006345838308334351,
                                -0.2718760371208191
                            ]
                        ],
                        [
                            [
                                -0.04592975974082947,
                                0.20988735556602478,
                                0.13423141837120056
                            ],
                            [
                                0.2816754877567291,
                                0.13160309195518494,
                                -0.047065407037734985
                            ],
                            [
                                0.2753926217556,
                                -0.18913905322551727,
                                -0.29213017225265503
                            ]
                        ],
                        [
                            [
                                0.21000108122825623,
                                -0.13993000984191895,
                                -0.32096418738365173
                            ],
                            [
                                -0.12601153552532196,
                                0.05879679322242737,
                                0.047623783349990845
                            ],
                            [
                                -0.21784989535808563,
                                0.16609764099121094,
                                0.33088329434394836
                            ]
                        ]
                    ]
                ],
                "biases": [
                    -0.31745579838752747,
                    -0.6213183999061584,
                    1.321755290031433
                ]
            },
            {
                "class_name": "Conv2D",
                "config": {
                    "name": "conv2d_12",
                    "trainable": true,
                    "dtype": "float32",
                    "filters": 3,
                    "kernel_size": [
                        3,
                        3
                    ],
                    "strides": [
                        1,
                        1
                    ],
                    "padding": "same",
                    "data_format": "channels_last",
                    "dilation_rate": [
                        1,
                        1
                    ],
                    "groups": 1,
                    "activation": "linear",
                    "use_bias": true,
                    "kernel_initializer": {
                        "class_name": "GlorotUniform",
                        "config": {
                            "seed": null
                        }
                    },
                    "bias_initializer": {
                        "class_name": "HeNormal",
                        "config": {
                            "seed": null
                        }
                    },
                    "kernel_regularizer": null,
                    "bias_regularizer": null,
                    "activity_regularizer": null,
                    "kernel_constraint": null,
                    "bias_constraint": null,
                    "idx": 2,
                    "size": 300,
                    "input_shape": [
                        null,
                        3,
                        10,
                        10
                    ],
                    "output_shape": [
                        null,
                        3,
                        10,
                        10
                    ],
                    "prev_layer_idx": [
                        0
                    ]
                },
                "name": "conv2d_12",
                "inbound_nodes": [
                    [
                        [
                            "input_10",
                            0,
                            0,
                            {}
                        ]
                    ]
                ],
                "weights": [
                    [
                        [
                            [
                                -0.2810457646846771,
                                -0.3099820017814636,
                                0.28843721747398376
                            ],
                            [
                                0.19681194424629211,
                                0.1160484254360199,
                                -0.30428266525268555
                            ],
                            [
                                0.03574243187904358,
                                0.1590566635131836,
                                0.08885717391967773
                            ]
                        ],
                        [
                            [
                                -0.18160390853881836,
                                0.19411805272102356,
                                -0.3147951066493988
                            ],
                            [
                                0.0353027880191803,
                                -0.19441978633403778,
                                -0.24895533919334412
                            ],
                            [
                                -0.020269542932510376,
                                0.25498631596565247,
                                0.3101447522640228
                            ]
                        ],
                        [
                            [
                                -0.011821597814559937,
                                -0.26422375440597534,
                                0.0046885013580322266
                            ],
                            [
                                -0.011278152465820312,
                                -0.11009979248046875,
                                0.16577982902526855
                            ],
                            [
                                0.26969394087791443,
                                0.24868586659431458,
                                0.08639225363731384
                            ]
                        ]
                    ],
                    [
                        [
                            [
                                0.28609123826026917,
                                0.012817472219467163,
                                -0.312572181224823
                            ],
                            [
                                0.02659931778907776,
                                0.2290349304676056,
                                -0.13119499385356903
                            ],
                            [
                                0.16505590081214905,
                                -0.14476990699768066,
                                -0.3085882067680359
                            ]
                        ],
                        [
                            [
                                0.24639597535133362,
                                -0.13592474162578583,
                                0.3232128918170929
                            ],
                            [
                                -0.01831713318824768,
                                -0.18478235602378845,
                                0.03669390082359314
                            ],
                            [
                                -0.12119786441326141,
                                0.0993950366973877,
                                -0.1530882567167282
                            ]
                        ],
                        [
                            [
                                -0.15257160365581512,
                                0.263254314661026,
                                0.14592885971069336
                            ],
                            [
                                0.08365169167518616,
                                0.04060092568397522,
                                -0.2795580327510834
                            ],
                            [
                                0.19664564728736877,
                                0.008738905191421509,
                                0.10854697227478027
                            ]
                        ]
                    ],
                    [
                        [
                            [
                                0.18507537245750427,
                                0.31975653767585754,
                                -0.14243626594543457
                            ],
                            [
                                0.06734910607337952,
                                0.18162253499031067,
                                0.11324253678321838
                            ],
                            [
                                -0.22537851333618164,
                                0.3277336061000824,
                                -0.13057422637939453
                            ]
                        ],
                        [
                            [
                                0.16952958703041077,
                                -0.08927592635154724,
                                0.2657969892024994
                            ],
                            [
                                -0.06363677978515625,
                                -0.21119078993797302,
                                0.24112430214881897
                            ],
                            [
                                0.008258968591690063,
                                -0.11566472053527832,
                                -0.15818572044372559
                            ]
                        ],
                        [
                            [
                                0.10629430413246155,
                                0.10835647583007812,
                                0.31060436367988586
                            ],
                            [
                                -0.24500498175621033,
                                -0.14301078021526337,
                                -0.00785970687866211
                            ],
                            [
                                0.24270805716514587,
                                -0.29629582166671753,
                                -0.24020807445049286
                            ]
                        ]
                    ]
                ],
                "biases": [
                    0.31724148988723755,
                    0.7891951203346252,
                    -0.5104329586029053
                ]
            },
            {
                "class_name": "Multiply",
                "config": {
                    "name": "multiply",
                    "trainable": true,
                    "dtype": "float32",
                    "idx": 3,
                    "size": 300,
                    "input_shape": [
                        [
                            null,
                            3,
                            10,
                            10
                        ],
                        [
                            null,
                            3,
                            10,
                            10
                        ]
                    ],
                    "output_shape": [
                        null,
                        3,
                        10,
                        10
                    ],
                    "prev_layer_idx": [
                        1,
                        2
                    ]
                },
                "name": "multiply",
                "inbound_nodes": [
                    [
                        [
                            "conv2d_11",
                            0,
                            0,
                            {}
                        ],
                        [
                            "conv2d_12",
                            0,
                            0,
                            {}
                        ]
                    ]
                ]
            }
        ],
        "input_layers": [
            [
                "input_10",
                0,
                0
            ]
        ],
        "output_layers": [
            [
                "multiply",
                0,
                0
            ]
        ],
        "data_format": "channels_last"
    },
    "keras_version": "2.12.0",
    "backend": "tensorflow"
}