{
    "class_name": "Functional",
    "config": {
        "name": "model_10",
        "trainable": true,
        "layers": [
            {
                "class_name": "InputLayer",
                "config": {
                    "batch_input_shape": [
                        null,
                        10,
                        10,
                        3
                    ],
                    "dtype": "float32",
                    "sparse": false,
                    "ragged": false,
                    "name": "input_11",
                    "idx": 0,
                    "size": 300,
                    "input_shape": [
                        null,
                        3,
                        10,
                        10
                    ],
                    "output_shape": [
                        null,
                        3,
                        10,
                        10
                    ],
                    "prev_layer_idx": [
                        -1
                    ]
                },
                "name": "input_11",
                "inbound_nodes": []
            },
            {
                "class_name": "Conv2D",
                "config": {
                    "name": "conv2d_13",
                    "trainable": true,
                    "dtype": "float32",
                    "filters": 3,
                    "kernel_size": [
                        3,
                        3
                    ],
                    "strides": [
                        1,
                        1
                    ],
                    "padding": "same",
                    "data_format": "channels_last",
                    "dilation_rate": [
                        1,
                        1
                    ],
                    "groups": 1,
                    "activation": "linear",
                    "use_bias": true,
                    "kernel_initializer": {
                        "class_name": "GlorotUniform",
                        "config": {
                            "seed": null
                        }
                    },
                    "bias_initializer": {
                        "class_name": "HeNormal",
                        "config": {
                            "seed": null
                        }
                    },
                    "kernel_regularizer": null,
                    "bias_regularizer": null,
                    "activity_regularizer": null,
                    "kernel_constraint": null,
                    "bias_constraint": null,
                    "idx": 1,
                    "size": 300,
                    "input_shape": [
                        null,
                        3,
                        10,
                        10
                    ],
                    "output_shape": [
                        null,
                        3,
                        10,
                        10
                    ],
                    "prev_layer_idx": [
                        0
                    ]
                },
                "name": "conv2d_13",
                "inbound_nodes": [
                    [
                        [
                            "input_11",
                            0,
                            0,
                            {}
                        ]
                    ]
                ],
                "weights": [
                    [
                        [
                            [
                                0.11445426940917969,
                                0.21365657448768616,
                                0.16940930485725403
                            ],
                            [
                                -0.05977621674537659,
                                -0.14500825107097626,
                                -0.2530211806297302
                            ],
                            [
                                0.13607454299926758,
                                -0.041495561599731445,
                                -0.14625334739685059
                            ]
                        ],
                        [
                            [
                                0.18926557898521423,
                                0.14130902290344238,
                                0.10805210471153259
                            ],
                            [
                                0.24959245324134827,
                                -0.12236365675926208,
                                -0.14343564212322235
                            ],
                            [
                                0.06512156128883362,
                                -0.17162387073040009,
                                -0.08151817321777344
                            ]
                        ],
                        [
                            [
                                0.3229117691516876,
                                0.051569849252700806,
                                0.14713191986083984
                            ],
                            [
                                -0.2772921919822693,
                                -0.025445222854614258,
                                0.3000616133213043
                            ],
                            [
                                -0.2942468523979187,
                                -0.24548205733299255,
                                0.04661455750465393
                            ]
                        ]
                    ],
                    [
                        [
                            [
                                -0.12646159529685974,
                                0.06257596611976624,
                                -0.04363694787025452
                            ],
                            [
                                -0.013526290655136108,
                                -0.030634790658950806,
                                0.22872194647789001
                            ],
                            [
                                -0.04525551199913025,
                                -0.13622498512268066,
                                -0.256044864654541
                            ]
                        ],
                        [
                            [
                                -0.3062531352043152,
                                -0.11063146591186523,
                                -0.03588461875915527
                            ],
                            [
                                -0.02743816375732422,
                                0.2939675748348236,
                                -0.005818694829940796
                            ],
                            [
                                -0.2783828675746918,
                                0.1018122136592865,
                                -0.04025879502296448
                            ]
                        ],
                        [
                            [
                                0.20483878254890442,
                                -0.23989176750183105,
                                0.12681975960731506
                            ],
                            [
                                0.32268866896629333,
                                -0.10534875094890594,
                                -0.27250736951828003
                            ],
                            [
                                -0.02425837516784668,
                                -0.2893098294734955,
                                -0.06184259057044983
                            ]
                        ]
                    ],
                    [
                        [
                            [
                                0.2319428026676178,
                                0.28076037764549255,
                                0.3136042058467865
                            ],
                            [
                                0.04155883193016052,
                                -0.11425408720970154,
                                0.07440504431724548
                            ],
                            [
                                -0.029980093240737915,
                                0.06949791312217712,
                                0.3077448904514313
                            ]
                        ],
                        [
                            [
                                0.19418743252754211,
                                -0.12128886580467224,
                                0.2963029444217682
                            ],
                            [
                                0.16792908310890198,
                                -0.10858583450317383,
                                -0.18751709163188934
                            ],
                            [
                                -0.04473504424095154,
                                0.2862119972705841,
                                0.16037455201148987
                            ]
                        ],
                        [
                            [
                                0.14483442902565002,
                                0.20131495594978333,
                                0.22033312916755676
                            ],
                            [
                                -0.1485278606414795,
                                0.17141559720039368,
                                -0.23040175437927246
                            ],
                            [
                                0.21352919936180115,
                                0.3100312650203705,
                                0.14850082993507385
                            ]
                        ]
                    ]
                ],
                "biases": [
                    0.2845192849636078,
                    -0.21507522463798523,
                    -0.5401644110679626
                ]
            },
            {
                "class_name": "Conv2D",
                "config": {
                    "name": "conv2d_14",
                    "trainable": true,
                    "dtype": "float32",
                    "filters": 3,
                    "kernel_size": [
                        3,
                        3
                    ],
                    "strides": [
                        1,
                        1
                    ],
                    "padding": "same",
                    "data_format": "channels_last",
                    "dilation_rate": [
                        1,
                        1
                    ],
                    "groups": 1,
                    "activation": "linear",
                    "use_bias": true,
                    "kernel_initializer": {
                        "class_name": "GlorotUniform",
                        "config": {
                            "seed": null
                        }
                    },
                    "bias_initializer": {
                        "class_name": "HeNormal",
                        "config": {
                            "seed": null
                        }
                    },
                    "kernel_regularizer": null,
                    "bias_regularizer": null,
                    "activity_regularizer": null,
                    "kernel_constraint": null,
                    "bias_constraint": null,
                    "idx": 2,
                    "size": 300,
                    "input_shape": [
                        null,
                        3,
                        10,
                        10
                    ],
                    "output_shape": [
                        null,
                        3,
                        10,
                        10
                    ],
                    "prev_layer_idx": [
                        0
                    ]
                },
                "name": "conv2d_14",
                "inbound_nodes": [
                    [
                        [
                            "input_11",
                            0,
                            0,
                            {}
                        ]
                    ]
                ],
                "weights": [
                    [
                        [
                            [
                                -0.23678717017173767,
                                0.2186308205127716,
                                -0.2307697981595993
                            ],
                            [
                                0.10620126128196716,
                                -0.307309091091156,
                                -0.0421389639377594
                            ],
                            [
                                0.0435481071472168,
                                -0.1373802125453949,
                                0.16448068618774414
                            ]
                        ],
                        [
                            [
                                -0.1972486972808838,
                                -0.10064888000488281,
                                -0.049193233251571655
                            ],
                            [
                                0.26595839858055115,
                                0.12708821892738342,
                                0.30998334288597107
                            ],
                            [
                                -0.028448104858398438,
                                -0.1884710043668747,
                                -0.07350382208824158
                            ]
                        ],
                        [
                            [
                                0.19460979104042053,
                                -0.19269275665283203,
                                0.17595377564430237
                            ],
                            [
                                -0.21198980510234833,
                                0.28972747921943665,
                                -0.3150976598262787
                            ],
                            [
                                0.010445117950439453,
                                0.013592571020126343,
                                -0.024376869201660156
                            ]
                        ]
                    ],
                    [
                        [
                            [
                                0.24014464020729065,
                                -0.06427335739135742,
                                -0.0736287534236908
                            ],
                            [
                                -0.24162325263023376,
                                0.10199236869812012,
                                -0.19372543692588806
                            ],
                            [
                                -0.07689189910888672,
                                0.06465211510658264,
                                0.023215532302856445
                            ]
                        ],
                        [
                            [
                                0.3261730968952179,
                                -0.009498447179794312,
                                0.26189497113227844
                            ],
                            [
                                -0.1899643838405609,
                                -0.13320231437683105,
                                -0.16256365180015564
                            ],
                            [
                                -0.23819494247436523,
                                -0.2623763978481293,
                                -0.042246490716934204
                            ]
                        ],
                        [
                            [
                                -0.21275608241558075,
                                0.0037755072116851807,
                                0.270681232213974
                            ],
                            [
                                0.11082139611244202,
                                0.2432359755039215,
                                -0.004220634698867798
                            ],
                            [
                                0.11914420127868652,
                                0.044080108404159546,
                                -0.23040024936199188
                            ]
                        ]
                    ],
                    [
                        [
                            [
                                0.07300630211830139,
                                0.2650092542171478,
                                0.008817821741104126
                            ],
                            [
                                -0.06371268630027771,
                                -0.1608792245388031,
                                -0.0641111433506012
                            ],
                            [
                                -0.05474671721458435,
                                -0.09384116530418396,
                                -0.01013365387916565
                            ]
                        ],
                        [
                            [
                                -0.12780515849590302,
                                0.1764269769191742,
                                -0.23654413223266602
                            ],
                            [
                                0.17161455750465393,
                                -0.06064191460609436,
                                -0.0267428457736969
                            ],
                            [
                                -0.02565288543701172,
                                -0.07996353507041931,
                                0.0693749487400055
                            ]
                        ],
                        [
                            [
                                -0.010344505310058594,
                                -0.1878243386745453,
                                0.3126431405544281
                            ],
                            [
                                0.22402700781822205,
                                -0.21986708045005798,
                                0.08114519715309143
                            ],
                            [
                                0.1253952980041504,
                                -0.011641979217529297,
                                0.045319557189941406
                            ]
                        ]
                    ]
                ],
                "biases": [
                    1.0351709127426147,
                    1.133396863937378,
                    0.2249307930469513
                ]
            },
            {
                "class_name": "Subtract",
                "config": {
                    "name": "subtract",
                    "trainable": true,
                    "dtype": "float32",
                    "idx": 3,
                    "size": 300,
                    "input_shape": [
                        [
                            null,
                            3,
                            10,
                            10
                        ],
                        [
                            null,
                            3,
                            10,
                            10
                        ]
                    ],
                    "output_shape": [
                        null,
                        3,
                        10,
                        10
                    ],
                    "prev_layer_idx": [
                        1,
                        2
                    ]
                },
                "name": "subtract",
                "inbound_nodes": [
                    [
                        [
                            "conv2d_13",
                            0,
                            0,
                            {}
                        ],
                        [
                            "conv2d_14",
                            0,
                            0,
                            {}
                        ]
                    ]
                ]
            }
        ],
        "input_layers": [
            [
                "input_11",
                0,
                0
            ]
        ],
        "output_layers": [
            [
                "subtract",
                0,
                0
            ]
        ],
        "data_format": "channels_last"
    },
    "keras_version": "2.12.0",
    "backend": "tensorflow"
}