{
    "class_name": "Functional",
    "config": {
        "name": "model_8",
        "trainable": true,
        "layers": [
            {
                "class_name": "InputLayer",
                "config": {
                    "batch_input_shape": [
                        null,
                        10,
                        10,
                        3
                    ],
                    "dtype": "float32",
                    "sparse": false,
                    "ragged": false,
                    "name": "input_9",
                    "idx": 0,
                    "size": 300,
                    "input_shape": [
                        null,
                        3,
                        10,
                        10
                    ],
                    "output_shape": [
                        null,
                        3,
                        10,
                        10
                    ],
                    "prev_layer_idx": [
                        -1
                    ]
                },
                "name": "input_9",
                "inbound_nodes": []
            },
            {
                "class_name": "Conv2D",
                "config": {
                    "name": "conv2d_9",
                    "trainable": true,
                    "dtype": "float32",
                    "filters": 3,
                    "kernel_size": [
                        3,
                        3
                    ],
                    "strides": [
                        1,
                        1
                    ],
                    "padding": "same",
                    "data_format": "channels_last",
                    "dilation_rate": [
                        1,
                        1
                    ],
                    "groups": 1,
                    "activation": "linear",
                    "use_bias": true,
                    "kernel_initializer": {
                        "class_name": "GlorotUniform",
                        "config": {
                            "seed": null
                        }
                    },
                    "bias_initializer": {
                        "class_name": "HeNormal",
                        "config": {
                            "seed": null
                        }
                    },
                    "kernel_regularizer": null,
                    "bias_regularizer": null,
                    "activity_regularizer": null,
                    "kernel_constraint": null,
                    "bias_constraint": null,
                    "idx": 1,
                    "size": 300,
                    "input_shape": [
                        null,
                        3,
                        10,
                        10
                    ],
                    "output_shape": [
                        null,
                        3,
                        10,
                        10
                    ],
                    "prev_layer_idx": [
                        0
                    ]
                },
                "name": "conv2d_9",
                "inbound_nodes": [
                    [
                        [
                            "input_9",
                            0,
                            0,
                            {}
                        ]
                    ]
                ],
                "weights": [
                    [
                        [
                            [
                                0.025945276021957397,
                                0.058813244104385376,
                                0.12001052498817444
                            ],
                            [
                                -0.06638583540916443,
                                -0.1973082274198532,
                                -0.10748514533042908
                            ],
                            [
                                0.14447322487831116,
                                -0.08220386505126953,
                                -0.24471783638000488
                            ]
                        ],
                        [
                            [
                                -0.07094216346740723,
                                0.3054538667201996,
                                -0.25138306617736816
                            ],
                            [
                                -0.0008133947849273682,
                                0.06597939133644104,
                                -0.07786092162132263
                            ],
                            [
                                -0.13045534491539001,
                                -0.12447850406169891,
                                0.12205934524536133
                            ]
                        ],
                        [
                            [
                                -0.1153823584318161,
                                -0.12298917770385742,
                                -0.05318465828895569
                            ],
                            [
                                0.008856058120727539,
                                0.18145480751991272,
                                0.06383514404296875
                            ],
                            [
                                0.010003656148910522,
                                -0.17369429767131805,
                                0.16205859184265137
                            ]
                        ]
                    ],
                    [
                        [
                            [
                                0.10439682006835938,
                                -0.029899507761001587,
                                0.09147191047668457
                            ],
                            [
                                0.04629477858543396,
                                -0.28762906789779663,
                                0.2894674241542816
                            ],
                            [
                                -0.22965630888938904,
                                -0.3279050290584564,
                                0.07210507988929749
                            ]
                        ],
                        [
                            [
                                -0.12844085693359375,
                                0.26604321599006653,
                                -0.2596406936645508
                            ],
                            [
                                0.2984870374202728,
                                -0.27740734815597534,
                                -0.060970693826675415
                            ],
                            [
                                0.13000407814979553,
                                0.13762116432189941,
                                -0.22342157363891602
                            ]
                        ],
                        [
                            [
                                -0.11642894148826599,
                                -0.1907891482114792,
                                -0.12261709570884705
                            ],
                            [
                                -0.14335212111473083,
                                0.19993433356285095,
                                -0.1553661823272705
                            ],
                            [
                                -0.13861918449401855,
                                -0.2521626353263855,
                                0.12340974807739258
                            ]
                        ]
                    ],
                    [
                        [
                            [
                                0.12155690789222717,
                                0.2848648130893707,
                                -0.20034560561180115
                            ],
                            [
                                0.15910816192626953,
                                -0.15410558879375458,
                                0.2159014642238617
                            ],
                            [
                                -0.03231582045555115,
                                -0.19896571338176727,
                                -0.17801587283611298
                            ]
                        ],
                        [
                            [
                                0.11941933631896973,
                                0.004624128341674805,
                                0.25726422667503357
                            ],
                            [
                                0.3134888708591461,
                                0.13678821921348572,
                                0.11518359184265137
                            ],
                            [
                                0.08053112030029297,
                                0.05809307098388672,
                                -0.32805341482162476
                            ]
                        ],
                        [
                            [
                                -0.16361650824546814,
                                -0.2385176122188568,
                                -0.31549644470214844
                            ],
                            [
                                -0.1522933691740036,
                                0.28937920928001404,
                                -0.04816555976867676
                            ],
                            [
                                0.10686889290809631,
                                -0.2582646310329437,
                                -0.2800684869289398
                            ]
                        ]
                    ]
                ],
                "biases": [
                    -0.17634248733520508,
                    -0.8336731791496277,
                    -0.31705498695373535
                ]
            },
            {
                "class_name": "Conv2D",
                "config": {
                    "name": "conv2d_10",
                    "trainable": true,
                    "dtype": "float32",
                    "filters": 3,
                    "kernel_size": [
                        3,
                        3
                    ],
                    "strides": [
                        1,
                        1
                    ],
                    "padding": "same",
                    "data_format": "channels_last",
                    "dilation_rate": [
                        1,
                        1
                    ],
                    "groups": 1,
                    "activation": "linear",
                    "use_bias": true,
                    "kernel_initializer": {
                        "class_name": "GlorotUniform",
                        "config": {
                            "seed": null
                        }
                    },
                    "bias_initializer": {
                        "class_name": "HeNormal",
                        "config": {
                            "seed": null
                        }
                    },
                    "kernel_regularizer": null,
                    "bias_regularizer": null,
                    "activity_regularizer": null,
                    "kernel_constraint": null,
                    "bias_constraint": null,
                    "idx": 2,
                    "size": 300,
                    "input_shape": [
                        null,
                        3,
                        10,
                        10
                    ],
                    "output_shape": [
                        null,
                        3,
                        10,
                        10
                    ],
                    "prev_layer_idx": [
                        0
                    ]
                },
                "name": "conv2d_10",
                "inbound_nodes": [
                    [
                        [
                            "input_9",
                            0,
                            0,
                            {}
                        ]
                    ]
                ],
                "weights": [
                    [
                        [
                            [
                                0.32524624466896057,
                                -0.15748462080955505,
                                -0.2910498082637787
                            ],
                            [
                                0.21284374594688416,
                                -0.22840365767478943,
                                -0.12149953842163086
                            ],
                            [
                                0.04657140374183655,
                                0.0014386177062988281,
                                0.06189402937889099
                            ]
                        ],
                        [
                            [
                                0.0358523428440094,
                                -0.0015002787113189697,
                                0.12498417496681213
                            ],
                            [
                                0.20646151900291443,
                                0.021306991577148438,
                                0.0702207088470459
                            ],
                            [
                                -0.2940676212310791,
                                0.21120980381965637,
                                0.07684627175331116
                            ]
                        ],
                        [
                            [
                                -0.3109374940395355,
                                -0.1271096169948578,
                                0.27827945351600647
                            ],
                            [
                                -0.18490886688232422,
                                -0.18629901111125946,
                                0.26484277844429016
                            ],
                            [
                                0.22950109839439392,
                                -0.14606468379497528,
                                -0.2408769130706787
                            ]
                        ]
                    ],
                    [
                        [
                            [
                                0.13705000281333923,
                                -0.10263077914714813,
                                0.22358539700508118
                            ],
                            [
                                0.10299864411354065,
                                0.212731271982193,
                                0.2434021532535553
                            ],
                            [
                                0.1925840675830841,
                                -0.3325006365776062,
                                -0.05048641562461853
                            ]
                        ],
                        [
                            [
                                -0.11111029982566833,
                                0.20128074288368225,
                                0.018604040145874023
                            ],
                            [
                                -0.2944568991661072,
                                0.08547377586364746,
                                0.08005285263061523
                            ],
                            [
                                0.10527077317237854,
                                0.0022864341735839844,
                                0.22491005063056946
                            ]
                        ],
                        [
                            [
                                -0.20341619849205017,
                                0.09357675909996033,
                                0.1610046923160553
                            ],
                            [
                                0.09285154938697815,
                                -0.0808718204498291,
                                0.08338436484336853
                            ],
                            [
                                0.09894919395446777,
                                -0.1905624121427536,
                                0.0033020079135894775
                            ]
                        ]
                    ],
                    [
                        [
                            [
                                -0.3263467252254486,
                                -0.2363877296447754,
                                0.12370404601097107
                            ],
                            [
                                -0.18499016761779785,
                                -0.22076337039470673,
                                0.21113887429237366
                            ],
                            [
                                -0.1993560791015625,
                                -0.197617769241333,
                                0.17262735962867737
                            ]
                        ],
                        [
                            [
                                -0.25815248489379883,
                                0.024523109197616577,
                                0.2630749046802521
                            ],
                            [
                                0.04259905219078064,
                                -0.016739696264266968,
                                0.24137786030769348
                            ],
                            [
                                -0.08148321509361267,
                                -0.05847105383872986,
                                0.12892746925354004
                            ]
                        ],
                        [
                            [
                                0.3080044090747833,
                                -0.06748738884925842,
                                -0.009708970785140991
                            ],
                            [
                                -0.2577027678489685,
                                -0.047728389501571655,
                                -0.2608858048915863
                            ],
                            [
                                -0.043236106634140015,
                                0.31820037961006165,
                                -0.3278953433036804
                            ]
                        ]
                    ]
                ],
                "biases": [
                    -1.1967158317565918,
                    -1.2043428421020508,
                    -0.6833617687225342
                ]
            },
            {
                "class_name": "Add",
                "config": {
                    "name": "add",
                    "trainable": true,
                    "dtype": "float32",
                    "idx": 3,
                    "size": 300,
                    "input_shape": [
                        [
                            null,
                            3,
                            10,
                            10
                        ],
                        [
                            null,
                            3,
                            10,
                            10
                        ]
                    ],
                    "output_shape": [
                        null,
                        3,
                        10,
                        10
                    ],
                    "prev_layer_idx": [
                        1,
                        2
                    ]
                },
                "name": "add",
                "inbound_nodes": [
                    [
                        [
                            "conv2d_9",
                            0,
                            0,
                            {}
                        ],
                        [
                            "conv2d_10",
                            0,
                            0,
                            {}
                        ]
                    ]
                ]
            }
        ],
        "input_layers": [
            [
                "input_9",
                0,
                0
            ]
        ],
        "output_layers": [
            [
                "add",
                0,
                0
            ]
        ],
        "data_format": "channels_last"
    },
    "keras_version": "2.12.0",
    "backend": "tensorflow"
}