{
    "class_name": "Functional",
    "config": {
        "name": "model_7",
        "trainable": true,
        "layers": [
            {
                "class_name": "InputLayer",
                "config": {
                    "batch_input_shape": [
                        null,
                        10,
                        10,
                        3
                    ],
                    "dtype": "float32",
                    "sparse": false,
                    "ragged": false,
                    "name": "input_8",
                    "idx": 0,
                    "size": 300,
                    "input_shape": [
                        null,
                        3,
                        10,
                        10
                    ],
                    "output_shape": [
                        null,
                        3,
                        10,
                        10
                    ],
                    "prev_layer_idx": [
                        -1
                    ]
                },
                "name": "input_8",
                "inbound_nodes": []
            },
            {
                "class_name": "Conv2D",
                "config": {
                    "name": "conv2d_7",
                    "trainable": true,
                    "dtype": "float32",
                    "filters": 3,
                    "kernel_size": [
                        3,
                        3
                    ],
                    "strides": [
                        1,
                        1
                    ],
                    "padding": "same",
                    "data_format": "channels_last",
                    "dilation_rate": [
                        1,
                        1
                    ],
                    "groups": 1,
                    "activation": "linear",
                    "use_bias": true,
                    "kernel_initializer": {
                        "class_name": "GlorotUniform",
                        "config": {
                            "seed": null
                        }
                    },
                    "bias_initializer": {
                        "class_name": "HeNormal",
                        "config": {
                            "seed": null
                        }
                    },
                    "kernel_regularizer": null,
                    "bias_regularizer": null,
                    "activity_regularizer": null,
                    "kernel_constraint": null,
                    "bias_constraint": null,
                    "idx": 1,
                    "size": 300,
                    "input_shape": [
                        null,
                        3,
                        10,
                        10
                    ],
                    "output_shape": [
                        null,
                        3,
                        10,
                        10
                    ],
                    "prev_layer_idx": [
                        0
                    ]
                },
                "name": "conv2d_7",
                "inbound_nodes": [
                    [
                        [
                            "input_8",
                            0,
                            0,
                            {}
                        ]
                    ]
                ],
                "weights": [
                    [
                        [
                            [
                                0.10654211044311523,
                                0.032475948333740234,
                                -0.11329881846904755
                            ],
                            [
                                0.05210113525390625,
                                -0.30713844299316406,
                                0.25091370940208435
                            ],
                            [
                                -0.23868195712566376,
                                -0.24868249893188477,
                                0.27988865971565247
                            ]
                        ],
                        [
                            [
                                -0.18755888938903809,
                                0.2539677917957306,
                                -0.05168271064758301
                            ],
                            [
                                -0.2148805558681488,
                                0.14826750755310059,
                                -0.14865541458129883
                            ],
                            [
                                0.30751481652259827,
                                0.3020031750202179,
                                -0.06262531876564026
                            ]
                        ],
                        [
                            [
                                -0.17180967330932617,
                                0.30003347992897034,
                                -0.06295371055603027
                            ],
                            [
                                -0.08926169574260712,
                                0.08177781105041504,
                                -0.04618540406227112
                            ],
                            [
                                -0.06130298972129822,
                                0.13651618361473083,
                                -0.27657613158226013
                            ]
                        ]
                    ],
                    [
                        [
                            [
                                -0.003731250762939453,
                                -0.16820979118347168,
                                -0.040447235107421875
                            ],
                            [
                                -0.2604649066925049,
                                0.07376900315284729,
                                -0.1066485345363617
                            ],
                            [
                                0.2416192591190338,
                                -0.033792734146118164,
                                -0.22102944552898407
                            ]
                        ],
                        [
                            [
                                -0.1258126199245453,
                                0.034948498010635376,
                                -0.11674730479717255
                            ],
                            [
                                -0.14412355422973633,
                                0.06134486198425293,
                                -0.022176265716552734
                            ],
                            [
                                0.07707342505455017,
                                -0.07778334617614746,
                                -0.14180271327495575
                            ]
                        ],
                        [
                            [
                                -0.14395546913146973,
                                -0.30843085050582886,
                                -0.3222882151603699
                            ],
                            [
                                0.2109338343143463,
                                -0.17706863582134247,
                                -0.07425299286842346
                            ],
                            [
                                0.027166038751602173,
                                0.19101622700691223,
                                -0.3144312798976898
                            ]
                        ]
                    ],
                    [
                        [
                            [
                                -0.32990241050720215,
                                -0.26840919256210327,
                                0.14550623297691345
                            ],
                            [
                                -0.2444673478603363,
                                0.32880958914756775,
                                0.004800230264663696
                            ],
                            [
                                0.08949270844459534,
                                0.2866024076938629,
                                -0.31068405508995056
                            ]
                        ],
                        [
                            [
                                0.20536234974861145,
                                0.04357409477233887,
                                0.012421935796737671
                            ],
                            [
                                0.07006826996803284,
                                -0.30852922797203064,
                                0.13640832901000977
                            ],
                            [
                                0.13283905386924744,
                                -0.2460564821958542,
                                -0.08145570755004883
                            ]
                        ],
                        [
                            [
                                -0.30248698592185974,
                                -0.0929170548915863,
                                -0.19172684848308563
                            ],
                            [
                                0.1147526204586029,
                                -0.14435546100139618,
                                -0.1997997760772705
                            ],
                            [
                                -0.27080750465393066,
                                -0.14279429614543915,
                                -0.2034577578306198
                            ]
                        ]
                    ]
                ],
                "biases": [
                    -0.3879603445529938,
                    0.10641797631978989,
                    -0.31726232171058655
                ]
            },
            {
                "class_name": "Conv2D",
                "config": {
                    "name": "conv2d_8",
                    "trainable": true,
                    "dtype": "float32",
                    "filters": 3,
                    "kernel_size": [
                        3,
                        3
                    ],
                    "strides": [
                        1,
                        1
                    ],
                    "padding": "same",
                    "data_format": "channels_last",
                    "dilation_rate": [
                        1,
                        1
                    ],
                    "groups": 1,
                    "activation": "linear",
                    "use_bias": true,
                    "kernel_initializer": {
                        "class_name": "GlorotUniform",
                        "config": {
                            "seed": null
                        }
                    },
                    "bias_initializer": {
                        "class_name": "HeNormal",
                        "config": {
                            "seed": null
                        }
                    },
                    "kernel_regularizer": null,
                    "bias_regularizer": null,
                    "activity_regularizer": null,
                    "kernel_constraint": null,
                    "bias_constraint": null,
                    "idx": 2,
                    "size": 300,
                    "input_shape": [
                        null,
                        3,
                        10,
                        10
                    ],
                    "output_shape": [
                        null,
                        3,
                        10,
                        10
                    ],
                    "prev_layer_idx": [
                        0
                    ]
                },
                "name": "conv2d_8",
                "inbound_nodes": [
                    [
                        [
                            "input_8",
                            0,
                            0,
                            {}
                        ]
                    ]
                ],
                "weights": [
                    [
                        [
                            [
                                0.09221592545509338,
                                -0.2723075747489929,
                                -0.21242594718933105
                            ],
                            [
                                -0.21367964148521423,
                                -0.06472024321556091,
                                0.30926308035850525
                            ],
                            [
                                0.2983534634113312,
                                0.31259647011756897,
                                0.15714415907859802
                            ]
                        ],
                        [
                            [
                                -0.2525925636291504,
                                0.018879562616348267,
                                -0.2969088554382324
                            ],
                            [
                                -0.13474702835083008,
                                -0.24807557463645935,
                                -0.013913780450820923
                            ],
                            [
                                -0.1572256088256836,
                                -0.23426446318626404,
                                0.11846303939819336
                            ]
                        ],
                        [
                            [
                                0.10437712073326111,
                                0.16597899794578552,
                                0.06416550278663635
                            ],
                            [
                                0.17457827925682068,
                                -0.04629907011985779,
                                -0.02674117684364319
                            ],
                            [
                                -0.2353319376707077,
                                0.19109633564949036,
                                -0.004228264093399048
                            ]
                        ]
                    ],
                    [
                        [
                            [
                                -0.10880033671855927,
                                0.05461478233337402,
                                0.11586657166481018
                            ],
                            [
                                -0.30570101737976074,
                                0.02784237265586853,
                                0.12900766730308533
                            ],
                            [
                                -0.027870744466781616,
                                0.1315065324306488,
                                -0.2239759862422943
                            ]
                        ],
                        [
                            [
                                0.04654082655906677,
                                0.07879829406738281,
                                0.05357518792152405
                            ],
                            [
                                0.025052934885025024,
                                0.07191959023475647,
                                -0.03243827819824219
                            ],
                            [
                                -0.02494916319847107,
                                0.25907406210899353,
                                -0.05790558457374573
                            ]
                        ],
                        [
                            [
                                0.169876366853714,
                                -0.3221636712551117,
                                0.0321442186832428
                            ],
                            [
                                0.31120213866233826,
                                -0.24879328906536102,
                                0.159938246011734
                            ],
                            [
                                -0.21857285499572754,
                                -0.07526183128356934,
                                0.11527743935585022
                            ]
                        ]
                    ],
                    [
                        [
                            [
                                -0.31865590810775757,
                                0.08063435554504395,
                                -0.13863953948020935
                            ],
                            [
                                -0.20573663711547852,
                                0.022243261337280273,
                                0.2238377034664154
                            ],
                            [
                                -0.29065388441085815,
                                -0.12382054328918457,
                                0.12125524878501892
                            ]
                        ],
                        [
                            [
                                -0.049615949392318726,
                                0.08587995171546936,
                                0.30742624402046204
                            ],
                            [
                                0.060512542724609375,
                                -0.03905567526817322,
                                -0.05392298102378845
                            ],
                            [
                                0.041428178548812866,
                                0.26412704586982727,
                                0.04410800337791443
                            ]
                        ],
                        [
                            [
                                0.1722818911075592,
                                -0.3198223114013672,
                                -0.30940183997154236
                            ],
                            [
                                0.19578036665916443,
                                0.19296184182167053,
                                0.07086005806922913
                            ],
                            [
                                0.06242457032203674,
                                -0.19661299884319305,
                                0.27076998353004456
                            ]
                        ]
                    ]
                ],
                "biases": [
                    -0.1314450204372406,
                    0.30957481265068054,
                    -0.1551373451948166
                ]
            },
            {
                "class_name": "Average",
                "config": {
                    "name": "average",
                    "trainable": true,
                    "dtype": "float32",
                    "idx": 3,
                    "size": 300,
                    "input_shape": [
                        [
                            null,
                            3,
                            10,
                            10
                        ],
                        [
                            null,
                            3,
                            10,
                            10
                        ]
                    ],
                    "output_shape": [
                        null,
                        3,
                        10,
                        10
                    ],
                    "prev_layer_idx": [
                        1,
                        2
                    ]
                },
                "name": "average",
                "inbound_nodes": [
                    [
                        [
                            "conv2d_7",
                            0,
                            0,
                            {}
                        ],
                        [
                            "conv2d_8",
                            0,
                            0,
                            {}
                        ]
                    ]
                ]
            }
        ],
        "input_layers": [
            [
                "input_8",
                0,
                0
            ]
        ],
        "output_layers": [
            [
                "average",
                0,
                0
            ]
        ],
        "data_format": "channels_last"
    },
    "keras_version": "2.12.0",
    "backend": "tensorflow"
}