{
    "class_name": "Functional",
    "config": {
        "name": "model",
        "trainable": true,
        "layers": [
            {
                "class_name": "InputLayer",
                "config": {
                    "batch_input_shape": [
                        null,
                        10,
                        10,
                        3
                    ],
                    "dtype": "float32",
                    "sparse": false,
                    "ragged": false,
                    "name": "input_1",
                    "idx": 0,
                    "size": 300,
                    "input_shape": [
                        null,
                        3,
                        10,
                        10
                    ],
                    "output_shape": [
                        null,
                        3,
                        10,
                        10
                    ],
                    "prev_layer_idx": [
                        -1
                    ]
                },
                "name": "input_1",
                "inbound_nodes": []
            },
            {
                "class_name": "Conv2D",
                "config": {
                    "name": "conv2d",
                    "trainable": true,
                    "dtype": "float32",
                    "filters": 3,
                    "kernel_size": [
                        3,
                        3
                    ],
                    "strides": [
                        1,
                        1
                    ],
                    "padding": "same",
                    "data_format": "channels_last",
                    "dilation_rate": [
                        1,
                        1
                    ],
                    "groups": 1,
                    "activation": "linear",
                    "use_bias": true,
                    "kernel_initializer": {
                        "class_name": "GlorotUniform",
                        "config": {
                            "seed": null
                        }
                    },
                    "bias_initializer": {
                        "class_name": "HeNormal",
                        "config": {
                            "seed": null
                        }
                    },
                    "kernel_regularizer": null,
                    "bias_regularizer": null,
                    "activity_regularizer": null,
                    "kernel_constraint": null,
                    "bias_constraint": null,
                    "idx": 1,
                    "size": 300,
                    "input_shape": [
                        null,
                        3,
                        10,
                        10
                    ],
                    "output_shape": [
                        null,
                        3,
                        10,
                        10
                    ],
                    "prev_layer_idx": [
                        0
                    ]
                },
                "name": "conv2d",
                "inbound_nodes": [
                    [
                        [
                            "input_1",
                            0,
                            0,
                            {}
                        ]
                    ]
                ],
                "weights": [
                    [
                        [
                            [
                                0.2112976610660553,
                                0.13951358199119568,
                                0.21859940886497498
                            ],
                            [
                                0.053670018911361694,
                                0.23476210236549377,
                                -0.09796485304832458
                            ],
                            [
                                -0.30377984046936035,
                                -0.20085367560386658,
                                -0.21561098098754883
                            ]
                        ],
                        [
                            [
                                -0.05104336142539978,
                                -0.012526124715805054,
                                0.08399567008018494
                            ],
                            [
                                -0.15642580389976501,
                                -0.028951644897460938,
                                -0.009430408477783203
                            ],
                            [
                                0.08553537726402283,
                                -0.11646811664104462,
                                0.1877937614917755
                            ]
                        ],
                        [
                            [
                                -0.18515627086162567,
                                -0.1543896198272705,
                                -0.33294472098350525
                            ],
                            [
                                -0.27741169929504395,
                                0.2655957043170929,
                                0.1750040352344513
                            ],
                            [
                                0.0938936173915863,
                                -0.284357488155365,
                                -0.06420287489891052
                            ]
                        ]
                    ],
                    [
                        [
                            [
                                -0.25430887937545776,
                                0.037104278802871704,
                                -0.20653073489665985
                            ],
                            [
                                0.18318209052085876,
                                0.2053898274898529,
                                -0.26187705993652344
                            ],
                            [
                                0.11626109480857849,
                                -0.32929834723472595,
                                -0.09985780715942383
                            ]
                        ],
                        [
                            [
                                0.021637052297592163,
                                0.2904762327671051,
                                -0.1593131273984909
                            ],
                            [
                                0.2124897539615631,
                                -0.22845301032066345,
                                0.17748770117759705
                            ],
                            [
                                -0.06192779541015625,
                                0.07149520516395569,
                                -0.21466867625713348
                            ]
                        ],
                        [
                            [
                                -0.2810901999473572,
                                -0.3292626738548279,
                                -0.05137720704078674
                            ],
                            [
                                -0.24268031120300293,
                                -0.3119531571865082,
                                0.11733642220497131
                            ],
                            [
                                0.09652552008628845,
                                0.2349303662776947,
                                -0.24856965243816376
                            ]
                        ]
                    ],
                    [
                        [
                            [
                                -0.30363553762435913,
                                -0.2596282362937927,
                                0.3104487359523773
                            ],
                            [
                                0.12437692284584045,
                                0.17322930693626404,
                                0.09969878196716309
                            ],
                            [
                                0.1312408447265625,
                                -0.15243291854858398,
                                0.31348589062690735
                            ]
                        ],
                        [
                            [
                                0.02214193344116211,
                                0.32460060715675354,
                                0.331361323595047
                            ],
                            [
                                -0.22175464034080505,
                                -0.09216150641441345,
                                -0.07229790091514587
                            ],
                            [
                                0.2926534116268158,
                                0.027678102254867554,
                                0.09636783599853516
                            ]
                        ],
                        [
                            [
                                -0.04942169785499573,
                                0.014985889196395874,
                                -0.29052338004112244
                            ],
                            [
                                0.29571154713630676,
                                -0.28717827796936035,
                                0.1811303198337555
                            ],
                            [
                                -0.16498145461082458,
                                0.01239362359046936,
                                0.2977335751056671
                            ]
                        ]
                    ]
                ],
                "biases": [
                    -0.07112407684326172,
                    -0.36946961283683777,
                    -0.13071900606155396
                ]
            }
        ],
        "input_layers": [
            [
                "input_1",
                0,
                0
            ]
        ],
        "output_layers": [
            [
                "conv2d",
                0,
                0
            ]
        ],
        "data_format": "channels_last"
    },
    "keras_version": "2.12.0",
    "backend": "tensorflow"
}