// DEEL Mission Certification - Sprint ACAS Xu team
//  Neural Network File Format compatible with https://github.com/sisl/NNet
// Network written to file by ecriture_ReluNN_statetau_vers_nnet_normalise()
6,5,5,128,
5,128,128,64,32,16,5,
0,
499.0,-3.1416,-3.1416,50.0,0.0,
185318.0,3.1416,3.1416,1200.0,1200.0,
0,0,0,0,0,0,
1,1,1,1,1,1,
1.48494092e-06,2.01403855e-02,-1.80693204e-02,-4.08008332e-04,-7.44007528e-05,
-1.27479414e-06,1.34825366e-02,-3.22368451e-02,-1.65653307e-04,1.86714157e-04,
-5.15629045e-07,1.25861423e-01,-7.08629900e-02,-1.56714459e-05,-1.05591690e-04,
2.89969906e-07,7.54423603e-02,1.58969435e-02,-2.14326965e-04,1.97566164e-04,
2.11688273e-06,1.15958345e-01,-9.91045419e-02,2.46236311e-05,-2.74680058e-04,
-3.65343135e-06,-1.08697054e-04,-6.87778579e-04,-2.45179450e-07,-2.47862918e-07,
2.45086531e-08,9.62268856e-02,6.09423627e-03,6.92502247e-05,-2.87595050e-05,
2.32858647e-06,-3.92617636e-02,-7.45175738e-02,-7.30601471e-05,-2.08931246e-05,
-2.96477242e-06,-1.67064243e-03,-6.72809116e-03,-3.32554689e-05,3.35156918e-05,
-2.71781558e-06,7.45505389e-02,1.69657797e-03,-1.33289332e-04,6.31014630e-05,
-1.89666170e-06,1.43638863e-02,3.10477381e-02,2.34423999e-05,-1.36300859e-05,
2.66773267e-06,-3.16002024e-03,6.16662128e-03,1.87521031e-06,-1.20841355e-06,
1.25716025e-06,-3.42884270e-03,-1.64472038e-03,4.57024263e-04,-4.69234039e-04,
-6.04587612e-07,-4.33942342e-02,4.51077492e-02,-1.66134782e-04,-1.72412353e-06,
-5.74490119e-07,7.55457141e-02,9.73349294e-02,6.71247166e-05,-7.95535867e-05,
2.83200898e-06,1.64895322e-02,-5.42480672e-02,-3.47784654e-04,-3.21553548e-04,
3.57971178e-08,6.96861749e-02,-6.70749949e-02,-7.12374371e-05,3.87125711e-05,
9.74703232e-08,9.25301018e-02,-4.65017781e-02,-3.55372902e-05,6.18957542e-05,
7.91467573e-08,6.45528728e-02,-6.78443902e-02,-4.75749730e-05,1.14472451e-05,
-2.44835804e-06,4.13533975e-02,-5.25224050e-02,3.19196868e-07,-8.34877603e-05,
3.65946385e-07,-2.72164354e-02,1.93884237e-02,2.72330875e-04,-1.03326434e-04,
-4.34136336e-06,-2.45520473e-04,-2.86377282e-04,2.26428267e-06,1.53851744e-06,
-9.17991236e-07,-2.20245077e-02,-5.40214478e-02,-7.67776370e-05,-1.56040937e-04,
-7.78381820e-08,-8.40904647e-02,8.82467864e-02,-1.04522122e-04,1.12022820e-04,
7.59887706e-07,-1.03245740e-02,-2.24582047e-02,4.08631369e-05,-5.91326381e-05,
9.44700999e-07,7.00631459e-03,9.66322024e-04,1.80731105e-04,-3.40344757e-04,
-1.73021429e-06,-5.68549167e-02,5.07213595e-02,-5.44506247e-05,3.46507318e-05,
2.55091228e-07,-6.46340713e-02,-7.32514399e-02,3.42344538e-04,-5.16384374e-05,
2.08991972e-07,-1.19112481e-01,-2.29703681e-02,1.38706280e-04,-2.08378412e-05,
1.07338082e-07,-1.15404902e-01,2.29692653e-02,1.48716984e-04,-2.01386337e-04,
-1.85250590e-06,-9.13649407e-02,6.56818270e-03,-2.42715313e-05,7.47025696e-05,
-2.31384696e-06,2.70055088e-02,9.70322093e-03,-6.08080885e-05,-2.59705586e-05,
9.19491277e-07,-1.26497530e-01,6.83430688e-02,-5.51231270e-05,-2.23860095e-04,
2.76142064e-08,5.57785335e-02,-5.82376188e-02,-3.20561088e-06,-1.43079987e-05,
1.52739519e-06,-7.47384172e-03,-8.45140018e-03,-2.97371071e-04,2.60901103e-04,
6.51640246e-07,7.23046997e-03,-3.17377975e-04,6.01553318e-06,-1.30732134e-04,
-5.25818238e-08,-4.30931896e-02,4.44576305e-02,1.44499702e-05,-1.38039654e-05,
9.77677716e-07,-1.00055871e-01,1.01988497e-01,2.55678892e-04,-5.59891760e-05,
-6.17189731e-07,8.50622940e-02,1.12354938e-02,1.18830282e-04,-5.86092348e-05,
-1.07521772e-06,7.09946369e-02,-2.38974740e-02,-2.32589634e-05,1.03334791e-04,
-2.18822362e-07,-9.64965209e-03,2.10736077e-02,-3.54197466e-04,9.71818529e-05,
5.30113472e-08,-5.49473109e-02,6.21837893e-02,-5.03684451e-05,4.07378158e-05,
6.77198795e-07,-6.00063206e-02,1.17683438e-01,-4.60594277e-05,4.06713262e-04,
1.97819718e-06,8.61083350e-02,2.12770804e-02,-2.06150153e-04,1.29483864e-04,
-2.79335573e-06,-5.06815712e-04,-7.89158389e-03,-3.39978545e-05,1.49034228e-05,
1.84937396e-07,4.82234981e-03,-5.94558798e-02,2.62356080e-05,-1.60695501e-04,
2.91254717e-07,5.81012193e-02,-8.35873276e-02,8.07048251e-05,-1.68379384e-04,
-1.56414777e-08,-8.08943800e-02,-1.57701833e-02,8.88382287e-05,-1.38596942e-04,
1.80861666e-06,-1.28020284e-02,-3.43706908e-02,-2.97021244e-04,2.43755033e-04,
2.42333392e-06,-1.53676412e-01,2.22319055e-02,-1.84265864e-05,-6.82986590e-05,
-1.52720475e-07,-1.20716348e-01,1.44030655e-03,3.34018234e-06,1.73124423e-05,
-2.30132982e-06,-9.94405675e-02,2.06109296e-03,-1.62022138e-07,5.31036407e-05,
7.92436240e-08,-5.43509325e-02,6.46640624e-02,-3.36883865e-05,7.29031706e-06,
3.54184587e-07,1.37436935e-02,-6.28615702e-03,1.05512777e-04,-5.13976067e-05,
1.37915323e-06,1.38818717e-01,8.25023083e-03,1.56761615e-04,-1.83879013e-04,
3.18328706e-07,9.46792253e-02,7.79285955e-02,3.24589662e-04,-1.20665183e-04,
1.14814528e-06,7.36636172e-02,1.02977383e-01,-2.00521531e-04,-3.02591507e-07,
7.12766096e-07,-1.43386478e-02,6.14637705e-02,8.18160047e-05,-1.82916522e-04,
-1.00418019e-06,-2.81769546e-02,-8.02778137e-04,3.54381722e-04,8.43673510e-05,
-2.58943738e-06,-1.03724457e-02,-1.27765362e-02,1.34479015e-04,-7.04621896e-05,
-1.71161769e-07,1.12099297e-01,-7.78473354e-02,-2.86812173e-05,-6.68508125e-05,
2.24826074e-07,1.43457505e-01,-1.35690469e-01,2.04673588e-05,9.40187213e-05,
1.12907319e-06,-5.46926403e-02,4.41668122e-02,-1.63380167e-04,-4.99616315e-05,
-2.26477977e-06,7.10174314e-03,-2.92341184e-02,5.28384862e-04,-4.58481610e-04,
-1.60145505e-06,3.64627610e-02,3.83732340e-02,-5.80599969e-05,-1.01894916e-04,
-2.97254236e-07,5.02049699e-02,-6.48793124e-02,-1.00880868e-04,5.61184498e-05,
1.75599436e-06,1.57756057e-03,-1.21048256e-03,-3.14234780e-05,9.12889776e-05,
-2.74104280e-07,-3.02116656e-02,1.14235055e-01,1.94336629e-04,-6.32904408e-05,
7.57543030e-07,-7.04801114e-02,-3.88419072e-02,-7.06444130e-06,-1.04734289e-04,
3.64643595e-06,-1.18670628e-04,2.07270966e-04,-1.49655692e-06,-1.92524846e-06,
1.86967672e-07,-5.62651265e-02,-9.62812614e-02,2.74928303e-05,5.58762314e-05,
-1.10675140e-06,-4.87988365e-02,-5.50433401e-03,-1.30328458e-04,-2.51776345e-06,
-1.30093566e-06,-4.05592197e-03,-5.60733219e-02,1.61026055e-04,1.40805406e-04,
1.61300057e-07,9.04044191e-02,-8.00009934e-02,3.74571623e-05,4.14315052e-05,
1.74902878e-06,6.19430731e-02,-1.36911059e-01,8.69764776e-05,1.23163275e-04,
-1.72248463e-07,-8.01793409e-04,-3.22717642e-04,3.03458494e-04,5.13311359e-06,
-1.43860307e-06,3.41180574e-02,1.33406933e-01,2.16329020e-04,-2.80247057e-04,
4.14644388e-07,8.50721693e-02,-2.81264540e-02,-1.01675994e-04,4.01963387e-05,
-2.24671704e-06,7.52012089e-03,-2.13587001e-03,3.08984725e-04,2.62235850e-05,
5.96038436e-08,-4.30599732e-02,4.71982992e-02,-1.08650545e-05,-4.39692948e-06,
2.10057893e-06,5.90886631e-02,-3.23900924e-02,-3.61804211e-05,1.22690176e-04,
-1.31490994e-06,-7.39039254e-02,6.69498273e-02,1.47449867e-04,-1.50106276e-04,
-9.47330928e-07,7.60799095e-02,-5.91960202e-02,1.19632534e-04,3.15618987e-04,
1.08451096e-06,3.20771661e-02,6.05900775e-02,9.16024330e-05,1.60721093e-04,
1.44319468e-07,-2.28540251e-02,-3.25512560e-02,-7.38521714e-06,5.76363007e-05,
2.47103700e-07,-7.71145100e-02,-1.19270998e-02,-1.80208204e-04,-1.51735023e-04,
-1.80876476e-08,5.09687113e-02,-6.00053815e-02,-1.42684436e-04,1.60301042e-04,
-9.29536010e-08,8.60892520e-03,-6.22276151e-03,1.77741958e-05,2.30216881e-04,
-3.06678373e-07,-2.84809993e-02,9.96599963e-02,-1.09482921e-05,-1.76970987e-05,
1.06616563e-06,-8.36253014e-02,1.94893680e-01,4.70750390e-05,-2.85584852e-04,
7.01265566e-07,-1.48453625e-02,-4.51657108e-02,-2.29041550e-04,1.36443398e-05,
-1.57345633e-06,-5.62507404e-02,5.52035136e-02,-7.52215800e-05,8.04810350e-05,
-2.42072100e-06,-9.38811195e-02,-2.21024571e-02,2.19618186e-04,-7.93944175e-05,
-1.42004110e-06,3.61121668e-02,2.20682303e-02,2.27984527e-04,-1.00471514e-04,
-1.95801914e-06,2.45920291e-02,-5.38852996e-02,-6.76907210e-05,2.56850648e-05,
3.37022971e-06,-2.25765256e-02,1.28026308e-02,5.18666920e-05,-4.23874489e-05,
-3.46366329e-06,8.48469520e-04,-1.04538498e-03,1.05269709e-06,-6.18051660e-07,
-1.35200198e-07,-8.52901182e-02,2.65235049e-02,-5.00801627e-05,3.42656610e-05,
2.72431216e-07,1.46118834e-01,8.20964466e-03,1.94436804e-04,-1.61892238e-04,
6.74739670e-07,-4.53289472e-02,-1.30067823e-01,-2.54276541e-05,-2.88571976e-05,
6.53416350e-07,3.05564399e-02,-1.20021535e-02,-1.77031448e-05,-4.23196983e-05,
-3.45593369e-08,7.10418884e-02,-6.54245405e-02,-1.01361463e-04,5.16930401e-06,
-1.20277959e-06,1.63104489e-02,-6.17920196e-03,2.03449480e-04,2.42868712e-04,
2.39057764e-06,1.69774734e-02,-4.91500568e-03,9.17912744e-06,-6.16951386e-04,
4.58219193e-07,-4.19462755e-02,-3.39863445e-04,3.21071018e-04,1.04973664e-04,
1.22914746e-07,7.88084024e-02,8.20178961e-02,-2.45372187e-04,3.60655754e-05,
1.53080468e-06,1.01265262e-02,-5.56851357e-02,1.11879318e-04,-5.69158668e-05,
-7.46732414e-07,-6.89920870e-02,-4.03778637e-02,-4.48575033e-05,1.27493503e-04,
2.53934640e-06,-4.73901227e-02,-2.62672880e-02,-2.96868371e-04,2.11738845e-04,
-3.22620577e-06,-5.87207021e-06,6.31626937e-04,1.27788825e-06,8.48198154e-07,
-1.78658307e-07,7.05197928e-02,-5.25739728e-02,2.69972293e-04,-2.21551753e-05,
-5.95859195e-08,-1.25710156e-02,-5.92426077e-02,1.85373775e-04,-1.25890076e-04,
2.58680301e-07,5.48128514e-02,6.21857269e-03,3.00089173e-04,-9.38990029e-05,
-2.16228129e-07,1.65506646e-02,3.55033162e-02,2.51842504e-04,6.54297819e-05,
5.94201046e-07,-1.18457496e-02,-8.84416265e-02,1.30438092e-04,-5.06855610e-05,
-7.33759577e-07,-3.89012799e-02,4.89837302e-02,-7.11870064e-05,1.08104621e-04,
1.62056434e-08,-1.61084821e-02,1.22855170e-01,-3.17951311e-04,2.94891571e-04,
1.28050897e-06,-7.66082803e-02,-1.21407799e-02,2.26882515e-04,-5.38107132e-05,
1.19762398e-06,1.63989624e-02,5.44987867e-02,2.28227144e-04,-2.38734211e-04,
-4.34018058e-07,-7.59919188e-02,-2.79710865e-02,-1.22066801e-04,1.51875454e-04,
-6.36846559e-07,7.77409780e-03,2.86878160e-02,-4.81000569e-04,3.26369752e-04,
-1.63817594e-07,-1.68969511e-01,-7.21790221e-02,2.79732813e-04,-3.39667549e-04,
-8.49225657e-07,-3.41327494e-02,-4.26175866e-02,-3.41119552e-05,-5.65225817e-05,
-1.37149282e-06,8.11133914e-02,-8.01039013e-02,1.86350164e-05,-8.26627885e-05,
9.97815194e-07,3.83350680e-02,8.23402802e-02,3.45174256e-05,-1.85116728e-04,
-2.28548236e-06,-1.09543100e-02,-2.62146791e-02,2.46487856e-04,-7.68207759e-05,
6.22135836e-07,-1.26407341e-03,-1.04781327e-01,-8.06226355e-06,-6.78580594e-07,
3.72023829e-07,-1.23769123e-01,-5.59311025e-03,1.19245208e-04,-1.62849917e-05,
1.68506992e-01,
1.11195827e-01,
1.54582212e-01,
1.09446053e-01,
5.92109757e-02,
9.80734061e-03,
-5.56735117e-02,
5.81587681e-02,
2.22558200e-01,
2.93403556e-01,
1.50052486e-01,
-9.37490301e-03,
-3.13666893e-02,
1.92959111e-01,
-1.45022370e-01,
1.69707257e-01,
1.83396596e-01,
1.33049918e-01,
2.04668675e-01,
8.29386133e-02,
-4.07830603e-02,
2.22744472e-02,
2.38072725e-01,
1.59091232e-01,
1.35563399e-01,
1.28427849e-01,
2.71353390e-01,
-1.04929048e-01,
6.68697338e-03,
-1.68981562e-03,
2.24636540e-01,
1.66860609e-01,
8.35120803e-02,
1.94375128e-01,
-7.25888665e-03,
1.66031358e-01,
1.48548800e-01,
-3.01559773e-01,
8.13934322e-02,
1.33277149e-01,
1.11648763e-01,
1.53176020e-01,
-3.02624822e-01,
-1.33237674e-02,
1.69897062e-01,
1.75143825e-01,
2.13314419e-01,
6.42892566e-02,
5.71377156e-02,
-3.43523140e-01,
1.24721739e-02,
1.93256187e-01,
1.77056204e-01,
5.86872723e-02,
-3.92298824e-02,
-1.86825766e-01,
1.59132082e-01,
1.91185533e-01,
-4.36037583e-02,
9.07351394e-02,
2.15996199e-01,
-4.22405004e-01,
1.48448545e-01,
1.08647269e-01,
2.10752032e-01,
1.61114572e-01,
-4.54471127e-02,
-6.60330020e-02,
9.36235943e-02,
-2.94426753e-02,
-1.16864670e-03,
2.15731406e-01,
-2.66777714e-02,
-2.14465190e-01,
-2.89412736e-01,
-1.12039715e-02,
1.81667474e-01,
2.58962196e-01,
-5.44181601e-02,
1.44867408e-01,
-1.27572401e-01,
1.64280827e-01,
-1.04129398e-01,
-1.84270015e-01,
9.09453317e-02,
1.71463285e-01,
1.06709729e-01,
2.97786892e-03,
1.47835415e-02,
-3.97005346e-03,
1.33784305e-01,
2.08421775e-01,
7.59615171e-02,
1.05115287e-01,
2.17495536e-01,
-8.58759520e-02,
4.31282452e-02,
1.03455604e-01,
3.70180772e-02,
-8.53754970e-02,
1.06259635e-01,
2.22358050e-01,
-4.11605806e-02,
1.34701284e-01,
-1.85498466e-01,
2.59793983e-01,
-2.73662023e-02,
1.10546516e-01,
-1.27966794e-01,
1.20133088e-02,
-2.03389911e-01,
5.01124870e-02,
-5.27883460e-02,
-1.32966238e-02,
-2.23658131e-02,
2.03619638e-01,
2.50523451e-02,
-1.00368317e-01,
-1.86505077e-03,
1.02566351e-01,
-1.27055971e-01,
-1.24425195e-01,
1.49467553e-01,
2.66923709e-01,
5.49401280e-02,
1.37970331e-01,
3.69546849e-03,
-8.65834427e-02,
-1.20272882e-01,-1.08650707e-01,2.67991163e-02,-1.34957865e-01,5.97635610e-03,-4.54768467e+00,-1.18601508e-01,4.96264733e-02,-1.89765751e-01,2.32743025e-02,-3.27001587e-02,1.20098285e-01,-1.55136585e-01,5.62131740e-02,1.32176325e-01,-1.82724059e-01,1.12730913e-01,1.98580816e-01,-3.35766822e-02,-8.37942302e-01,1.08845904e-01,-1.21920288e+00,2.22427681e-01,-2.20727790e-02,1.59386888e-01,8.53689089e-02,-4.84668314e-02,2.15612903e-01,1.33006975e-01,-2.87580471e-02,-1.18567571e-02,2.28620414e-02,3.38489674e-02,-1.64377958e-01,-3.59794497e-03,1.38073593e-01,4.02222238e-02,2.28021249e-01,-1.86174750e-01,-1.15581885e-01,3.00578028e-01,1.27383724e-01,-2.08485916e-01,-3.73428054e-02,-2.26888448e-01,2.04586267e-01,-3.57917607e-01,-5.00160009e-02,4.66139847e-03,-3.67733717e-01,-6.21554404e-02,-1.36049330e-01,1.26362935e-01,-1.28878700e-02,-1.51554421e-01,4.32725966e-01,1.51194468e-01,-1.39430193e-02,-4.18449081e-02,-9.83071178e-02,2.34264538e-01,-1.39137298e-01,-5.75087033e-03,-1.11991927e-01,-6.23710342e-02,5.60116284e-02,2.84779165e-02,1.60499327e-02,-4.99734692e-02,-2.94483732e-02,3.46449018e-01,1.25580922e-01,2.92941600e-01,-1.06603161e-01,9.66239870e-02,1.78545147e-01,-3.20682883e-01,4.19547707e-02,-2.61268407e-01,1.11292072e-01,1.01979934e-02,2.20712349e-01,5.61876222e-02,2.26291120e-01,6.70471564e-02,3.39220986e-02,2.07124442e-01,1.85898900e-01,-7.31088454e-03,-8.91763940e-02,-6.05579540e-02,-1.06946267e-01,2.56954044e-01,8.24095607e-02,-4.52160269e-01,-2.78094839e-02,-3.75539549e-02,7.16685429e-02,1.50837377e-01,-4.77846712e-01,-1.52050098e-03,4.52026054e-02,-7.46192098e-01,-1.98325649e-01,2.21410334e-01,-7.08921850e-02,1.23734318e-01,-6.12804629e-02,-3.04961242e-02,-1.93068469e+00,2.62504250e-01,-1.46742716e-01,-1.77543908e-01,-1.82103040e-03,-2.80547533e-02,-3.89019586e-02,1.86036136e-02,-9.42713022e-02,-7.87310302e-03,1.71020165e-01,-1.08488977e-01,6.50211200e-02,6.26185238e-02,1.39750302e-01,-7.67059177e-02,-2.14693412e-01,-1.51205584e-01,1.05904415e-01,
3.26671526e-02,-6.79090098e-02,-1.82318524e-01,-1.48189897e-02,-2.77011901e-01,-2.02856636e+00,-4.71703336e-03,9.40816998e-02,-2.31991690e-02,1.88053116e-01,-1.44148543e-01,1.25871852e-01,1.44774124e-01,-7.45670795e-02,-1.64844021e-02,3.32767040e-01,2.01344714e-01,-6.23417795e-02,8.28104168e-02,2.23549873e-01,2.08815247e-01,2.25170463e-01,1.69741907e-04,-8.24955478e-03,-6.68495372e-02,-1.73978552e-01,1.73017666e-01,8.48481953e-02,-1.64560303e-02,1.19829532e-02,-3.77285220e-02,-5.08725382e-02,7.85515457e-02,1.36318654e-01,8.45777616e-03,-9.65755284e-02,5.41941449e-02,9.52264071e-02,1.05038203e-01,1.32608898e-02,-2.54439674e-02,1.18593097e-01,6.30804524e-02,8.50736722e-02,-4.25940827e-02,-3.03514563e-02,-3.51678669e-01,-4.71429527e-02,1.16121292e-01,-7.80856311e-02,-1.06757671e-01,-1.25296071e-01,2.78290856e-04,6.72369823e-02,-1.72873914e-01,3.32824200e-01,-6.27423301e-02,-1.49580166e-01,-1.49546787e-01,-4.34191406e-01,-1.92184210e-01,-1.07692277e+00,-1.30325062e-02,-2.16143429e-01,5.62061071e-02,9.11974460e-02,6.59484193e-02,1.11665070e-01,-5.68340793e-02,6.02409095e-02,-1.04917802e-01,-9.20161605e-03,2.71750726e-02,-1.02578950e+00,-3.21582735e-01,8.72353315e-02,8.82054567e-02,1.68311313e-01,7.09922658e-03,1.48513317e-02,-2.14820892e-01,1.26864240e-01,1.01903342e-02,2.33761624e-01,2.04651460e-01,-8.81854147e-02,2.55216509e-01,8.84321984e-03,7.01334029e-02,-1.46044657e-01,1.18747279e-01,-1.21536211e-03,-2.80041676e-02,1.19948231e-01,-8.34102929e-02,2.09732100e-01,4.61844981e-01,-1.55202642e-01,1.71831548e-01,3.68532866e-01,-4.98621017e-02,9.64995772e-02,-4.91871834e-02,-1.67363659e-01,1.01037748e-01,5.28693162e-02,-2.93064713e-01,1.31728651e-04,8.99263285e-03,-6.41314387e-01,-1.79615766e-01,-3.06842625e-01,9.65822637e-02,1.51343107e-01,-9.21630263e-01,-1.12787569e-02,8.41858014e-02,-3.44389603e-02,2.58525521e-01,7.71211926e-03,-2.35583767e-01,1.89155772e-01,1.31630749e-01,-2.46514663e-01,1.52928792e-02,-1.28069624e-01,1.57197997e-01,3.45951617e-02,
1.74398676e-01,-5.30720539e-02,2.29798436e-01,-2.45370325e-02,-2.04875499e-01,-9.27321136e-01,-9.98182714e-01,7.60431215e-02,-1.03255846e-01,2.42284928e-02,1.40953502e-02,4.22855280e-02,5.07038347e-02,-1.03752717e-01,-3.12027186e-01,4.24513184e-02,-8.29515681e-02,-1.25223562e-01,1.11007445e-01,1.66983921e-02,-1.02169923e-01,2.61606395e-01,8.00797716e-02,-2.11666271e-01,-1.05993718e-01,5.14449514e-02,-9.10714194e-02,1.98335215e-01,1.33480532e-02,-3.46095338e-02,7.23687261e-02,2.88971160e-02,6.20139949e-03,1.96906459e-02,1.40335917e-01,1.03600346e-01,-7.70559581e-03,-4.11092728e-01,4.83973548e-02,2.36143451e-02,1.42122090e-01,7.39907995e-02,-9.09281150e-03,-8.65772441e-02,6.86713979e-02,-6.99146837e-02,1.36660740e-01,1.15211740e-01,1.02395870e-01,1.42990232e-01,-1.78188533e-01,-3.93770039e-02,1.90147161e-02,8.26970786e-02,-3.22905719e-01,-6.69132248e-02,4.14991118e-02,-1.68751419e-01,1.73680097e-01,-8.24693069e-02,-1.34341836e-01,-5.23390293e-01,7.24291755e-03,-3.58781889e-02,-1.85460076e-02,7.94886891e-03,-5.77955805e-02,-4.40910131e-01,1.07923597e-01,8.95495862e-02,6.59852251e-02,8.69567096e-02,4.23101522e-03,-1.00500906e+00,-3.40718567e-01,4.66946103e-02,-1.34050593e-01,1.29745021e-01,1.07000433e-01,3.28026377e-02,4.45912965e-02,-5.75278141e-02,-1.15921078e-02,-6.77719265e-02,-1.05462350e-01,3.64119411e-02,9.34275538e-02,-4.05115932e-02,-9.58231315e-02,2.54686058e-01,5.12116589e-02,1.07790276e-01,-3.30981165e-02,-2.81438529e-01,1.44971665e-02,3.29561979e-01,-4.94600415e-01,9.25139338e-02,-2.21669585e-01,-5.29180646e-01,1.10530324e-01,1.43904835e-01,-5.13358880e-03,-5.94978686e-03,1.75996006e-01,-1.42330192e-02,4.66921963e-02,-1.81169007e-02,-4.40335497e-02,8.50083306e-02,3.09177369e-01,-5.21655492e-02,1.05009481e-01,-8.78882483e-02,6.34726286e-02,5.64432070e-02,2.40864027e-02,1.24686293e-01,-4.95956928e-01,5.86850457e-02,-1.60857126e-01,-1.46220773e-01,-1.67112425e-01,-7.98357129e-02,6.02305979e-02,-3.94780450e-02,-3.54021117e-02,-3.26661803e-02,
4.56030481e-02,3.01212687e-02,-1.49934545e-01,8.79739895e-02,-1.16244569e-01,2.04826546e+00,1.81143478e-01,-1.10696703e-02,1.01862594e-01,-1.61497355e-01,-1.50958851e-01,1.62895337e-01,-1.39831081e-02,-4.40244563e-02,2.01495245e-01,-1.40268594e-01,7.83638060e-02,9.39735323e-02,2.66773030e-02,-2.47569993e-01,8.80832551e-04,-2.78385341e-01,2.34423438e-03,-1.59452111e-02,1.76009908e-01,-1.48384228e-01,2.58500222e-02,4.10073139e-02,-3.90962511e-03,1.70076624e-01,-1.55095188e-02,-8.09297040e-02,3.77760887e-01,-4.35592746e-03,1.46847904e-01,2.48138547e-01,-1.46757260e-01,-3.82159531e-01,-1.79396719e-01,5.56250811e-02,-3.38379741e-02,-7.16676265e-02,-2.79180527e-01,8.78748298e-02,-1.28419638e-01,-1.24778375e-01,1.76244322e-02,-1.38128832e-01,3.18605565e-02,-4.24649119e-01,2.31068537e-01,1.98596474e-02,-1.74886853e-01,5.19125462e-02,1.13704212e-01,-1.81937605e-01,-2.07778662e-02,-6.10527135e-02,-2.24443264e-02,1.41157415e-02,1.58073887e-01,-5.44840656e-02,5.27099557e-02,-8.35173801e-02,8.24278817e-02,1.90677568e-01,-2.28829049e-02,-4.11808454e-02,4.99636717e-02,-1.51186854e-01,7.80228451e-02,-2.59165019e-02,-2.21296120e-02,-1.75706148e-02,1.75413430e-01,-5.50603634e-03,4.92110057e-03,3.41934152e-02,3.39758843e-01,-2.86545277e-01,8.65025446e-03,-2.73729507e-02,-5.10509871e-02,-1.61609888e-01,-1.25423089e-01,-6.41071573e-02,-2.53685396e-02,2.46500850e-01,2.21334025e-01,5.70294075e-02,8.20412561e-02,-4.89711063e-03,-2.00642854e-01,-2.29784161e-01,-1.36031196e-01,-4.49777916e-02,-1.59134671e-01,-5.77543117e-02,1.27873600e-01,-1.59624264e-01,-7.44251683e-02,-7.42326975e-02,3.06170080e-02,-3.31390589e-01,1.77709833e-01,-3.81631367e-02,4.25384194e-03,4.77921404e-02,4.96502221e-02,4.61570621e-02,-1.80519298e-01,-5.72641827e-02,1.80440515e-01,8.53260979e-02,1.96984291e-01,4.23999019e-02,1.77780822e-01,3.02471761e-02,1.53643265e-01,1.01777419e-01,2.49682546e-01,4.77043092e-02,-1.46467254e-01,1.52710266e-02,1.23173714e-01,-1.05607793e-01,-5.73176816e-02,2.80247301e-01,
1.20453574e-01,-1.62174746e-01,4.64123627e-03,2.48176232e-01,2.83809334e-01,6.15843582e+00,3.94699275e-01,6.14881106e-02,1.14679717e-01,3.43478441e-01,8.56732354e-02,-5.87354660e-01,2.01684088e-01,-4.95009450e-03,-2.69127071e-01,1.75107762e-01,-1.79484054e-01,1.50458619e-01,-2.35738546e-01,2.98222601e-02,2.09636651e-02,3.37890100e+00,-2.58802682e-01,-1.01888932e-01,-1.81756858e-02,-2.07639918e-01,3.12825561e-01,-1.30955696e-01,1.13546275e-01,-1.30179152e-02,2.09338099e-01,1.90682545e-01,-3.84011865e-02,-3.98757488e-01,2.70563066e-01,-1.33439183e-01,1.20504029e-01,-3.92336287e-02,3.28463078e-01,-1.50614709e-01,-1.63815722e-01,1.64791301e-01,-6.73180521e-02,3.07671249e-01,2.39555880e-01,-3.20703071e-03,-5.03521264e-01,-1.39942437e-01,1.52932078e-01,7.18373358e-01,2.59662658e-01,2.49696523e-01,6.35615960e-02,-1.22950993e-01,1.98343277e-01,1.33204358e-02,3.54469307e-02,1.60661936e-01,-7.75768086e-02,-7.92670175e-02,-5.64996660e-01,-1.09748578e+00,-1.31647617e-01,3.49708945e-01,3.55659246e-01,-1.87573478e-01,-4.83893156e-02,2.67113894e-01,-5.61443381e-02,-3.26040506e-01,-1.34173837e-02,1.22922361e-01,-2.36590952e-01,7.05708638e-02,-3.63280445e-01,3.45436297e-02,1.98796988e-01,-2.20432609e-01,-3.52149248e-01,1.16049901e-01,1.42803216e+00,1.44891188e-01,-3.64344120e-01,4.22823191e-01,-2.45987579e-01,1.22865457e-02,-4.25359458e-01,7.23783299e-02,1.12078853e-01,-6.53553009e-02,5.94436266e-02,1.06820844e-01,1.55199677e-01,-6.30254149e-02,2.93538440e-02,-3.69763553e-01,1.50034738e+00,1.08934641e-01,7.55961810e-04,3.06049109e-01,-1.71359768e-03,6.76512197e-02,-2.90032357e-01,4.04819518e-01,-1.29202262e-01,1.69473320e-01,-8.81752312e-01,-1.29355252e-01,2.90639043e-01,6.15973330e+00,1.86357096e-01,1.60492025e-02,2.24815905e-01,1.39320046e-01,2.67657042e-01,4.93912846e-02,1.27315924e-01,-4.80365120e-02,3.13218869e-02,-1.17021184e-02,2.06279755e-01,5.17133027e-02,-5.38833365e-02,-1.94797009e-01,-4.16802466e-02,8.27794075e-02,8.49117219e-01,-4.44456786e-02,
4.06211168e-02,1.34353697e-01,-8.52910057e-02,4.88854945e-02,4.88892585e-01,3.91213268e-01,-3.97706389e-01,-1.01497069e-01,-5.68300262e-02,-9.80052352e-02,-2.07816791e-02,1.10071011e-01,-3.12522769e-01,-6.14438653e-02,-1.88763186e-01,-1.65239349e-01,-4.13847834e-01,1.21697259e+00,-4.27677423e-01,-7.74481654e-01,4.25249487e-02,-1.52046299e+00,4.15883601e-01,6.28515035e-02,1.11402541e-01,-8.78142640e-02,-4.66652624e-02,-5.76829873e-02,6.56109909e-03,6.95883110e-02,8.52996185e-02,-7.06163570e-02,1.09731723e-02,-2.08821401e-01,-3.13326329e-01,-1.09860115e-01,9.32369381e-02,2.62648165e-01,-4.97312509e-02,5.97906485e-03,2.26744986e-03,-4.77458090e-02,1.45397126e-03,-4.91730832e-02,5.81138693e-02,-1.94317862e-01,-9.64120850e-02,-2.15016663e-01,-2.32865602e-01,-1.29643276e-01,-1.50267720e-01,2.04282761e-01,1.28766254e-01,-3.17755677e-02,2.15453237e-01,-2.02177286e-01,-1.66227952e-01,-4.95685041e-02,2.56722048e-02,1.04842737e-01,-1.18954472e-01,-1.88336715e-01,5.95557410e-03,-6.74874336e-02,-8.09653178e-02,-3.17512065e-01,6.44050911e-02,1.44419014e-01,-1.64520517e-01,1.78454697e-01,-2.44263858e-01,9.37461108e-03,-6.89023063e-02,-1.16087787e-03,2.30645746e-01,1.57246262e-01,2.81055588e-02,-4.03979719e-02,-9.98923555e-02,1.76431686e-02,1.15817212e-01,3.63268256e-02,-1.67969301e-01,-4.34742086e-02,-6.97856396e-02,1.62134856e-01,-2.15882510e-01,3.57762538e-02,1.80492416e-01,-2.58598983e-01,1.21244542e-01,1.61885515e-01,-1.17615029e-01,1.99916869e-01,-3.69713530e-02,1.36923015e-01,-4.14776742e-01,-8.01899806e-02,3.17218065e-01,-1.45721044e-02,1.00721806e-01,-1.67728856e-01,-9.70550254e-02,7.28175393e-04,-3.61571368e-03,-4.00641076e-02,6.35282025e-02,-7.74046034e-02,-4.79456503e-03,6.08612895e-02,-4.26950186e-01,-1.52543606e-02,1.46766961e-01,7.62324706e-02,-4.17417556e-01,1.63186416e-01,-1.21682382e-03,3.37418616e-02,-1.21550761e-01,-2.34471299e-02,3.84838576e-03,9.74387452e-02,-1.10989623e-01,4.76408631e-01,-1.26534805e-01,6.20956644e-02,1.02237038e-01,-1.81074411e-01,
-3.45941931e-02,2.86721122e-02,4.39203382e-02,-1.09375022e-01,-1.08523674e-01,1.20179700e-02,1.40218019e-01,4.02711295e-02,-8.66766199e-02,-1.44931287e-01,-2.64527760e-02,3.18278349e-03,-6.84678629e-02,1.35782495e-01,3.32667530e-02,-1.51336133e-01,2.08432302e-02,-1.52426371e-02,-1.64263114e-01,-1.44999817e-01,-5.12680970e-04,-1.95549009e-03,1.19115345e-01,-1.20514855e-01,-3.05700954e-02,1.04931574e-02,9.03984085e-02,-6.69134855e-02,-3.33034992e-02,4.85631153e-02,2.05446761e-02,1.41551986e-01,1.09789684e-01,-1.69819564e-01,-1.53730914e-01,-9.07888040e-02,-8.12070537e-03,-9.21111181e-03,-1.11579053e-01,-1.14089891e-01,1.41568035e-02,-3.59595940e-02,8.27894807e-02,-1.15144430e-04,1.23900585e-02,-3.77852400e-03,2.36351211e-02,3.44012082e-02,2.77794804e-02,3.44877541e-02,8.55948403e-02,-5.07087931e-02,9.97066125e-03,6.85482025e-02,9.44554433e-02,6.21886179e-02,6.07344359e-02,-4.77588326e-02,-1.05005071e-01,-4.14383560e-02,-1.61739767e-01,4.41110879e-02,4.83682118e-02,5.13524599e-02,-3.03178169e-02,1.75306216e-01,-5.40625192e-02,7.38535151e-02,1.03560351e-01,-5.21216244e-02,4.48687337e-02,-1.52269542e-01,-5.49073033e-02,-4.35581654e-02,7.49832485e-03,9.88674164e-02,1.05335101e-01,3.90694737e-02,-1.05658481e-02,-3.74893010e-01,7.49595761e-02,-3.79369184e-02,-1.34475991e-01,-3.29249613e-02,-9.46853086e-02,2.39453446e-02,3.62435579e-02,-6.96453080e-02,2.68063024e-02,-3.12252659e-02,-4.08324739e-03,-3.49741988e-02,-1.52557522e-01,-1.24284722e-01,8.62902310e-03,4.25530635e-02,6.73093200e-02,-2.55708963e-01,4.18836400e-02,8.40361863e-02,-7.94079900e-02,9.76529047e-02,1.21022100e-02,-1.38860822e-01,-9.10775140e-02,-7.35276714e-02,-1.11387961e-01,-6.35390216e-03,-1.86682597e-01,5.88047132e-02,-1.22224860e-01,-3.18239420e-03,1.24731464e-02,-1.61699101e-01,-9.39723328e-02,7.35666463e-03,3.38732861e-02,-2.96640280e-03,-1.09342702e-01,-1.49241760e-01,-3.66011225e-02,-7.32520670e-02,-6.40622973e-02,4.27087173e-02,-6.59939088e-03,-8.97204578e-02,-1.03043601e-01,-1.62589669e-01,
1.12921022e-01,-1.70724317e-01,-9.84387621e-02,5.91816418e-02,7.30777010e-02,-8.19497943e-01,3.94527495e-01,-1.68770224e-01,-2.86317378e-01,-3.89996886e-01,-1.37793586e-01,2.13689312e-01,9.27908272e-02,1.65483087e-01,1.10262476e-01,-3.29861082e-02,4.87907305e-02,-6.16583824e-02,1.29501820e-01,-2.45493725e-01,2.65102118e-01,1.00895691e+00,3.43187153e-02,1.39183670e-01,1.70743063e-01,3.63158822e-01,1.12001725e-01,-8.82843807e-02,4.06504981e-02,-1.30258769e-01,-2.22018912e-01,-3.47019732e-01,-2.77162313e-01,1.20384894e-01,-1.68241203e-01,6.89227805e-02,2.22161412e-01,-1.02960870e-01,-1.19577140e-01,-1.31836787e-01,2.44356729e-02,2.57164896e-01,-2.32755184e-01,5.92184328e-02,-3.39556962e-01,6.51738420e-02,1.54774496e-02,1.37574837e-01,7.66447037e-02,2.51702517e-01,2.42913187e-01,1.23483026e-02,7.13973269e-02,-1.25943884e-01,2.45237514e-01,-4.34705503e-02,3.06587238e-02,2.66573280e-01,-1.44181132e-01,-3.90494168e-01,-9.46244523e-02,9.36807021e-02,2.46876881e-01,-1.10677183e-01,-2.34566018e-01,1.86022520e-01,-3.59816432e-01,1.20293833e-01,-6.10331967e-02,2.52701938e-01,-1.72431692e-02,-3.58770974e-02,4.65716630e-01,-8.93149823e-02,3.85098462e-03,-2.16796592e-01,-2.16250867e-02,2.26910159e-01,-6.68369889e-01,2.69610304e-02,-1.18865281e-01,-2.03013092e-01,-3.59284103e-01,-1.39906839e-01,1.09122552e-01,8.97683948e-03,-1.09945983e-01,-2.02484831e-01,-1.10371821e-01,8.10460076e-02,1.21060818e-01,-8.92585143e-03,-1.69122934e-01,-2.62891442e-01,-7.38056973e-02,1.60237998e-01,1.65588737e+00,-8.83324351e-03,1.44093400e-02,-5.13691641e-02,1.32544927e-04,1.02672480e-01,3.09968084e-01,2.89490819e-01,-1.73005685e-02,1.87405959e-01,-3.86014953e-02,3.96249816e-02,-4.52051386e-02,1.28541732e+00,1.50419503e-01,1.14579566e-01,-3.84134352e-01,-1.73551925e-02,1.48615733e-01,-2.40434818e-02,-1.42620906e-01,-6.03762269e-02,-7.14496970e-02,-2.25481078e-01,-2.12309957e-01,-2.13458002e-01,3.89665626e-02,2.20295146e-01,1.18031405e-01,-8.26419666e-02,2.62153566e-01,2.85196483e-01,
-1.09008104e-01,-9.87144560e-02,-9.10163373e-02,8.54183286e-02,8.00172985e-02,-6.11250782e+00,-1.05570287e-01,4.87508290e-02,-1.34129869e-02,-1.06011562e-01,3.49137783e-02,-1.29044279e-02,-9.28687584e-03,-1.54786274e-01,2.05333412e-01,5.94399050e-02,1.09622143e-01,3.56500183e-04,-2.34556887e-02,-9.53778774e-02,7.74017274e-02,-1.98149610e+00,-1.22266328e-02,9.48010981e-02,2.60767221e-01,1.20141745e-01,-1.10143401e-01,3.22924480e-02,-4.99622896e-02,4.90984768e-02,-1.14007682e-01,-6.99722916e-02,1.81427926e-01,3.00332963e-01,1.17451034e-01,1.96982831e-01,3.14224988e-01,-5.78143448e-03,-1.31694391e-01,-1.85401998e-02,-7.18864575e-02,3.80316004e-02,5.45508564e-02,1.82663910e-02,-3.57534021e-01,5.86478077e-02,6.37321249e-02,9.75792110e-02,3.22110243e-02,-1.92982718e-01,1.58338219e-01,-1.80651233e-01,9.17451158e-02,1.73714653e-01,7.42705688e-02,-3.37244347e-02,-1.32062547e-02,-2.51836423e-02,1.61788259e-02,-9.27464887e-02,-1.07895017e-01,-1.00993209e-01,3.84102343e-03,-7.95102268e-02,8.92325640e-02,-5.61267929e-03,-4.52302247e-02,-7.14508519e-02,-1.65538460e-01,-3.98461163e-01,5.34203164e-02,-8.81762132e-02,-4.42032702e-02,1.28921047e-02,5.24255149e-02,-3.30597945e-02,-1.59976620e-03,3.14791411e-01,6.14475757e-02,7.98416287e-02,-5.62621206e-02,6.84849247e-02,-2.01545265e-02,-4.89135347e-02,6.04680553e-02,4.85701337e-02,6.63170815e-02,8.86715576e-02,-1.27811894e-01,-1.03225792e-02,9.35540069e-03,-9.53176320e-02,-9.96925831e-02,-1.91048890e-01,-1.55002084e-02,-3.51076722e-02,-4.86059159e-01,1.29788145e-01,-1.16903082e-01,1.11880980e-01,1.25410318e-01,1.49658648e-02,9.01314914e-02,7.90459961e-02,-2.52618670e-01,-3.87455411e-02,-9.39416066e-02,6.43044198e-03,-8.99882168e-02,-3.54612803e+00,4.53507565e-02,-1.09031528e-01,8.15922022e-02,-1.29857138e-01,-6.78119157e-03,-8.19096118e-02,5.15133701e-02,1.54322445e-01,2.59963013e-02,2.02444140e-02,6.88709551e-03,-6.68995082e-03,-1.59102660e-02,-1.37657374e-01,1.30272910e-01,-2.26345345e-01,8.00303742e-02,9.92542133e-03,
8.91065449e-02,-9.96647403e-02,-1.02836534e-01,-4.32548746e-02,3.64221007e-01,-6.87385273e+00,-9.22542140e-02,3.57721418e-01,1.10832751e-01,-8.48619118e-02,8.76358375e-02,-6.40853792e-02,-3.22905928e-01,-1.61968499e-01,-8.08347240e-02,2.38450971e-02,-6.81508565e-04,8.07049349e-02,-2.37547942e-02,-7.87403807e-02,8.16949271e-03,2.05057478e+00,-1.30461544e-01,1.90635443e-01,2.73263931e-01,2.84925967e-01,-2.01591522e-01,-1.40578985e-01,-5.71232922e-02,2.17359617e-01,-1.88304201e-01,-1.76100776e-01,1.40525952e-01,8.32197592e-02,8.44367668e-02,7.44573623e-02,7.09494874e-02,-5.97749315e-02,-1.81366682e-01,1.28064945e-01,-9.46822688e-02,2.08329141e-01,-1.83960781e-01,7.83958882e-02,-1.69564858e-01,-1.21686675e-01,8.36184598e-04,7.99875036e-02,-2.10736051e-01,-1.72119573e-01,3.41157764e-02,-1.42938271e-01,1.13094650e-01,1.10405259e-01,2.48145536e-01,-2.93560345e-02,2.75190640e-02,1.06867261e-01,4.36814921e-03,-5.17761074e-02,-1.32297158e-01,1.30604878e-01,-1.51730515e-02,5.29249711e-03,2.20149700e-02,-8.93739704e-03,3.32367033e-01,-1.96615338e-01,2.34175742e-01,-1.92742541e-01,2.72709113e-02,-3.05192824e-02,4.02490914e-01,1.36063427e-01,-4.14446205e-01,1.64485633e-01,1.16768762e-01,4.83300053e-02,-3.55322182e-01,2.88178008e-02,-2.00571254e-01,-2.11129665e-01,1.25973418e-01,4.66168039e-02,6.33355826e-02,-1.78105801e-01,6.41532987e-02,8.08791840e-04,-2.33479530e-01,1.62289128e-01,4.33091186e-02,-8.87583047e-02,-9.86660570e-02,-7.88394958e-02,-2.06008121e-01,-5.68209767e-01,6.29065216e-01,3.69447544e-02,1.58268623e-02,-1.56354949e-01,1.36301070e-01,-1.40983090e-01,8.96090716e-02,-2.52732774e-04,8.11838880e-02,-4.69892696e-02,1.44146159e-01,-4.23882380e-02,1.22901216e-01,-2.81306529e+00,-1.04335420e-01,-4.85613681e-02,-2.90711317e-02,-5.97495735e-02,-6.91189840e-02,-6.27051070e-02,-4.59473245e-02,-1.44348785e-01,2.35792562e-01,1.91063836e-01,-6.07401170e-02,-8.65514204e-02,-2.52064946e-03,-1.97887510e-01,-1.16495028e-01,7.16429725e-02,-6.62884265e-02,4.42559496e-02,
1.51936352e-01,-1.15248904e-01,9.32774022e-02,1.13233529e-01,4.17022035e-02,1.33150446e+00,1.17560320e-01,-5.10379747e-02,9.61922947e-03,-1.13364168e-01,-8.19840953e-02,-4.41385925e-01,1.89179227e-01,9.85407606e-02,1.94306090e-01,-2.44736038e-02,1.16435941e-02,1.66056290e-01,4.87573780e-02,1.73248798e-01,-1.83132645e-02,3.68377298e-01,-1.79302886e-01,1.15620740e-01,-1.92763492e-01,2.64670309e-02,-2.21905828e-01,8.75347704e-02,2.33180150e-01,2.13616103e-01,1.54011831e-01,1.38377458e-01,2.80318081e-01,8.67948309e-02,1.07570454e-01,-5.17686233e-02,-2.36739784e-01,3.87156452e-03,4.40177470e-02,8.99558216e-02,-6.24593571e-02,-2.05910355e-01,1.62148438e-02,3.89150754e-02,1.88266560e-01,3.07766870e-02,1.47460282e-01,1.51984990e-02,1.00787826e-01,-2.41524372e-02,7.94672668e-02,2.21816972e-01,-2.07011610e-01,-1.83771729e-01,2.18828291e-01,-2.63612658e-01,5.82874939e-02,-5.56130260e-02,-1.78665165e-02,7.43921623e-02,3.11805569e-02,2.06758697e-02,-5.79598285e-02,1.55378327e-01,2.36712489e-02,1.89230829e-01,-2.14424310e-03,-8.52268748e-03,-1.36607334e-01,-3.28774154e-01,-1.19094243e-02,-1.28059715e-01,6.43748045e-02,1.67792812e-01,-2.02003811e-02,4.26109955e-02,-4.10510987e-01,-5.36062196e-02,5.05328067e-02,-4.27285358e-02,2.69795507e-01,3.07685183e-03,-1.39299696e-02,-4.70058955e-02,3.12145445e-02,6.92642480e-02,1.26169890e-01,-1.22769631e-01,1.90654963e-01,5.62369466e-01,-5.39085306e-02,-2.15957299e-01,2.20090151e-01,-1.60387203e-01,-9.65107530e-02,-1.08616509e-01,-8.27383250e-02,3.86005104e-01,-1.10218771e-01,-3.22121590e-01,-2.87476275e-03,1.80296049e-01,-9.80759189e-02,-5.23368940e-02,-5.01384139e-02,-1.42012253e-01,1.48116216e-01,1.72046751e-01,2.96160161e-01,9.51285541e-01,1.21205151e-01,-4.89240028e-02,5.87397106e-02,-1.82597324e-01,9.46056321e-02,5.42125665e-02,6.80502802e-02,-2.42382884e-02,-2.83365250e-01,1.38484061e-01,-1.99056461e-01,7.15071484e-02,-1.16110004e-01,2.39198897e-02,2.69731045e-01,-4.03902866e-02,1.37684554e-01,8.10987353e-02,
6.32665604e-02,-7.43751749e-02,-1.20413497e-01,1.88568197e-02,-3.72852273e-02,-1.44857705e-01,4.41102087e-02,-1.12638444e-01,3.20058898e-03,-1.37513593e-01,-8.67859572e-02,-1.97716117e-01,2.46714242e-02,-3.50806974e-02,1.01804463e-02,-8.94832686e-02,5.42166047e-02,-1.99406082e-03,1.62925906e-02,-1.38970420e-01,-1.60934463e-01,-5.73359728e-02,-2.50719339e-02,-1.17576413e-01,-1.18692532e-01,4.79005650e-02,-1.37836039e-01,-5.95453158e-02,1.72438826e-02,6.83562085e-02,-1.53355114e-02,-1.34796262e-01,1.89646408e-02,-4.66229767e-02,-7.57302195e-02,-9.81267467e-02,-8.88111591e-02,1.09946914e-01,-8.21292922e-02,-1.06871026e-02,4.20215465e-02,-4.30177227e-02,-4.88644727e-02,-2.33934093e-02,1.00441147e-02,9.16656777e-02,-4.77505699e-02,-3.32901888e-02,-3.92671973e-02,2.23917305e-01,-1.38868243e-01,-8.82646665e-02,-7.78786987e-02,-1.48407957e-02,3.00490689e-02,-8.96687340e-03,-1.70950845e-01,8.32795799e-02,-1.19880252e-01,4.53620814e-02,-2.46918112e-01,1.13387749e-01,-8.36709887e-02,-9.63288993e-02,1.11849152e-01,-1.13549188e-01,4.19488847e-02,2.48336315e-01,-2.25450881e-02,8.47094432e-02,1.31537681e-02,-8.73272680e-03,-1.03021689e-01,4.18518782e-02,-8.17470020e-04,-7.91671127e-02,-1.31947234e-01,6.65311068e-02,1.94504466e-02,-1.35396108e-01,1.97730237e-03,3.18992101e-02,1.68316826e-01,-3.54374945e-02,6.67132139e-02,4.03913707e-02,-2.00502407e-02,-4.64303978e-02,9.05436873e-02,-6.18291786e-03,-8.22551250e-02,6.12234809e-02,4.98562828e-02,1.15364082e-01,1.93329006e-01,5.36814705e-02,1.01805747e-01,6.11023754e-02,-6.98596984e-02,-6.71124086e-02,-8.14030170e-02,5.76285238e-04,-7.91197643e-02,-4.96626571e-02,1.59525901e-01,5.65373711e-02,-2.81404220e-02,-7.67222419e-02,2.23131035e-03,-1.05540045e-01,9.19963196e-02,-6.97076768e-02,-9.69131961e-02,-1.08013004e-02,-1.33273825e-01,-1.06229320e-01,-1.39386803e-01,-1.21361755e-01,7.23102465e-02,1.39194503e-02,-5.37838638e-02,-1.04311824e-01,-9.86205339e-02,1.40988614e-05,1.01964593e-01,-1.56882927e-01,-3.25364359e-02,-2.22734302e-01,
7.75688365e-02,1.21572353e-01,-1.02511555e-01,2.16228887e-02,-9.71421972e-03,-2.99840117e+00,7.94859603e-02,2.82108542e-02,-1.26965910e-01,2.71924250e-02,3.72270010e-02,1.08214810e-01,-1.62769303e-01,-4.55578603e-02,4.64219183e-01,5.88435084e-02,5.69873676e-02,1.21978171e-01,1.36573734e-02,-1.16316028e-01,-2.29693786e-03,3.13098252e-01,-6.14942536e-02,3.67984995e-02,2.14188531e-01,-7.78748617e-02,-3.93572263e-02,1.41540110e-01,-7.88655952e-02,-1.99399218e-02,2.76797544e-03,7.10546970e-02,4.57253382e-02,1.38000324e-01,5.40961027e-02,1.46092385e-01,4.60889414e-02,-5.27172804e-01,3.22976969e-02,2.47123152e-01,-1.25685865e-02,8.86824876e-02,-4.32421654e-01,2.34607041e-01,-2.09794473e-02,-1.88193113e-01,-6.17154352e-02,-5.07284515e-02,-1.85906924e-02,-1.74503729e-01,-5.29797077e-02,-8.15035403e-02,-1.44617837e-02,7.17533156e-02,8.29621330e-02,2.93329298e-01,2.20445752e-01,3.41351666e-02,1.16307780e-01,-9.67686251e-02,8.15295503e-02,4.50814888e-02,2.14326560e-01,-1.78548872e-01,4.83230799e-02,4.85335514e-02,-5.25348708e-02,-2.00118154e-01,-1.26979547e-02,-6.55168071e-02,2.39821777e-01,3.05198729e-02,1.04283951e-01,-4.40324321e-02,3.90109420e-02,9.27531049e-02,-4.16416936e-02,1.90838188e-01,8.38006660e-02,7.41634890e-02,8.89806226e-02,-1.14276409e-01,7.43415020e-03,4.94669948e-04,1.44818246e-01,2.59465855e-02,-4.27950174e-02,-5.21329269e-02,-3.40139091e-01,-3.58651191e-01,1.01416811e-01,1.97505027e-01,-1.52292579e-01,-4.90450263e-02,1.12249888e-01,6.48704544e-02,-2.95802057e-01,-9.35250148e-02,3.36662441e-01,-1.75637573e-01,1.05269916e-01,-9.07693058e-02,1.27647221e-01,-3.00550391e-03,3.50813731e-03,4.87588644e-02,-1.21755242e-01,7.07172006e-02,-6.85285553e-02,4.75638993e-02,-1.89641379e-02,6.50320277e-02,4.96894754e-02,1.22263618e-01,1.22669801e-01,-1.75232235e-02,-1.02061100e-01,-7.01111481e-02,3.53725739e-02,-1.05206771e-02,-1.63347781e-01,1.62777454e-01,6.82183951e-02,1.64896213e-02,6.77590668e-02,-7.66544566e-02,4.51793894e-03,-1.25626564e-01,
6.26537725e-02,1.46771222e-02,1.40838802e-01,-1.31137893e-01,-3.68321508e-01,-3.53863597e+00,-1.89296782e-01,1.43365592e-01,3.16370502e-02,-1.71295792e-01,-4.26981390e-01,-8.70925412e-02,2.21395701e-01,7.29012638e-02,-2.03982532e-01,9.68530104e-02,-1.46623813e-02,-3.56121585e-02,-1.24425396e-01,7.77177289e-02,-8.17799792e-02,-2.89050889e+00,-1.29435142e-03,1.73812777e-01,1.53559968e-01,-3.31546336e-01,-1.90379649e-01,5.02672382e-02,-1.89190209e-02,-2.03649024e-03,-1.02013797e-01,1.27132893e-01,3.00934017e-01,-2.11153001e-01,5.63631728e-02,1.22559018e-01,1.66802287e-01,-1.97932005e-01,-6.45711944e-02,-1.07067555e-01,1.12432525e-01,2.34518275e-01,1.54275447e-01,-2.09460005e-01,-2.31100135e-02,1.91007666e-02,-2.19926890e-02,-9.35106445e-03,4.58132513e-02,3.03281665e-01,-3.37272696e-02,7.21171200e-02,9.19882357e-02,-2.36466862e-02,1.50890782e-01,5.51091023e-02,1.22004621e-01,2.08619535e-01,-8.16680084e-04,2.33874559e-01,-8.34465306e-03,1.80061802e-01,8.82098377e-02,-1.12451389e-01,-3.26839834e-02,-7.26853982e-02,2.08505973e-01,-2.26951167e-01,-4.87045825e-01,-3.18076700e-01,1.39673054e-01,1.41486153e-01,-1.37861995e-02,5.69258690e-01,-2.46835172e-01,1.34004667e-01,-1.01215132e-01,3.37130241e-02,1.41263977e-01,1.53911948e-01,-8.20056424e-02,-1.61936775e-01,1.30441397e-01,-2.14957327e-01,2.83416118e-02,1.64003655e-01,3.75860855e-02,9.11847502e-02,-3.09431911e-01,-1.01078287e-01,2.49736458e-02,-1.21492535e-01,3.64388898e-02,-5.16959541e-02,-5.50188497e-02,8.13747495e-02,1.25221029e-01,5.06183282e-02,1.77593306e-01,2.20495924e-01,1.07226565e-01,-2.60101520e-02,-2.26850864e-02,-1.16763348e-02,8.86029601e-02,1.85068324e-01,-1.15604363e-01,1.58287242e-01,-1.34033395e-03,-1.17233527e+00,-2.24747002e-01,-6.66213855e-02,1.38157010e-01,9.34839547e-02,4.45804745e-02,1.32974088e-01,-1.66846327e-02,-1.11342065e-01,1.05326153e-01,-6.89568222e-02,-1.94019765e-01,6.90130666e-02,1.08095698e-01,-1.22453876e-01,3.59081030e-01,1.52499471e-02,1.45230919e-01,-2.39392176e-01,
-1.27260530e-04,7.20995143e-02,2.14988329e-02,-1.14164002e-01,2.84366719e-02,-6.05706513e-01,-1.47874534e-01,7.40528479e-02,-4.59250063e-04,-5.39329611e-02,2.67698132e-02,-6.60350695e-02,-2.56975770e-01,-6.72563463e-02,-3.40492040e-01,-7.21385330e-02,-8.94174725e-02,3.68945152e-02,-6.00508079e-02,-1.76407844e-01,-3.92440595e-02,-1.20737469e+00,-1.03787094e-01,-5.92194378e-01,-6.75051883e-02,-4.75043841e-02,-4.01659533e-02,-6.50049746e-02,-3.44434172e-01,2.30172873e-01,4.46747020e-02,-3.77518646e-02,7.68663809e-02,2.94621233e-02,6.52124360e-02,1.40012994e-01,3.36131990e-01,8.17781463e-02,-1.60487384e-01,3.95516977e-02,-7.93548748e-02,-1.93013102e-01,3.03269416e-01,-9.58632827e-02,-6.08533211e-02,-7.48455971e-02,5.24988817e-03,1.31418720e-01,1.10820439e-02,-1.04411744e-01,-2.45018673e+00,-1.80537909e-01,1.03506088e-01,-5.38067520e-02,5.99052310e-02,-1.20663963e-01,-1.10126898e-01,3.11155289e-01,1.54716773e-02,-8.35213363e-02,1.14631407e-01,-6.28996372e-01,-9.66173410e-02,1.17613681e-01,-1.48943782e-01,5.03357723e-02,-7.63530135e-02,-1.26030898e+00,7.00397566e-02,7.67926127e-02,1.30372211e-01,-3.98299173e-02,5.39547056e-02,-1.90690625e-02,-8.75517726e-02,7.92513788e-02,-8.56204033e-02,-2.48572752e-02,-6.20133877e-02,1.12139322e-01,4.95413989e-02,-3.12116772e-01,1.27054118e-02,-1.75054535e-01,6.33652583e-02,9.86835361e-02,-1.54120270e-02,1.50330346e-02,3.64372842e-02,-1.48552537e-01,7.74893910e-03,3.27436030e-02,-1.26452250e-02,1.78912580e-02,-4.39423285e-02,1.05825305e-01,3.48718204e-02,-8.49345982e-01,9.26141441e-02,-2.25467637e-01,5.60010085e-03,8.81750509e-02,1.55624524e-01,-1.24720261e-02,-8.40581767e-03,5.59054166e-02,-4.15101945e-02,2.02765632e-02,1.37211427e-01,-1.33333039e+00,-2.20094100e-02,6.67570308e-02,2.04404327e-03,7.09087029e-03,5.30814640e-02,2.76735872e-02,-2.16591507e-02,-3.28218579e-01,1.51007205e-01,3.67612615e-02,-2.96225071e-01,1.73601061e-02,-5.56777827e-02,1.33200139e-01,-7.28533685e-01,-4.81736697e-02,-1.85576186e-01,-6.65121257e-01,
-6.66435808e-02,1.10309443e-03,-6.50854707e-02,1.56871706e-01,1.67610440e-02,-4.08694077e+00,3.69985327e-02,2.06992984e-01,-2.47814521e-01,4.07289434e-03,-1.47134140e-01,-1.29306078e-01,2.50370741e-01,1.07339643e-01,4.70287539e-02,-6.99163526e-02,8.87359977e-02,-8.06848928e-02,1.20033450e-01,-4.32332695e-01,4.49922234e-02,-2.50059676e+00,-1.26474351e-01,4.12252247e-02,2.01553211e-01,-1.28664345e-01,-8.94324183e-02,-1.13984242e-01,-1.10942110e-01,-1.26729995e-01,-7.74509311e-02,-1.61173493e-01,-2.85279588e-03,4.99794856e-02,-4.41666767e-02,1.53864309e-01,2.41905883e-01,2.05536887e-01,2.72561666e-02,-5.53867929e-02,-4.25320975e-02,2.50143826e-01,-4.47899178e-02,7.66932815e-02,-1.16301663e-01,7.76177347e-02,5.36335446e-02,1.15298055e-01,1.18485652e-01,-6.34540617e-02,6.53266758e-02,-1.67107552e-01,1.51403114e-01,1.24310464e-01,1.13329776e-01,4.27770987e-02,1.26078561e-01,1.96879059e-02,3.92858218e-03,-5.78329824e-02,-1.29519418e-01,-5.53884953e-02,1.43844178e-02,9.08961371e-02,-6.92058429e-02,6.81643859e-02,7.69313276e-02,8.39571208e-02,4.05206950e-03,-2.24940851e-01,1.69346452e-01,-7.53496215e-02,-1.82353258e-01,-1.02184817e-01,1.04188435e-01,-9.92144719e-02,6.39065504e-02,-6.26435429e-02,3.08120344e-02,-6.31227568e-02,-7.03941518e-03,-4.28579841e-03,-1.98308066e-01,1.97088439e-02,1.87921956e-01,-1.24958977e-01,1.21326424e-01,8.65931809e-03,6.19083084e-02,-3.69046926e-02,2.40450352e-01,-1.88256994e-01,-1.04737088e-01,-8.44611600e-02,-2.44063243e-01,1.77484930e-01,-7.79250562e-01,-5.73793566e-03,-1.16173908e-01,1.53962709e-02,1.41271129e-01,1.55990928e-01,7.06147328e-02,-4.89029363e-02,1.88404340e-02,-9.43843201e-02,-7.12715313e-02,2.46637799e-02,-1.05542280e-01,-2.96814227e+00,2.14371040e-01,9.43823457e-02,-3.96974869e-02,-2.06398871e-02,2.77013600e-01,1.12108491e-01,-6.03323802e-02,2.72059560e-01,-3.48998904e-02,-5.94100021e-02,7.74438307e-02,4.95266207e-02,-1.39916867e-01,-4.16727699e-02,-7.70426309e-03,-1.98810939e-02,2.39748895e-01,-1.36342496e-01,
1.35728931e-02,-1.35885894e-01,-1.59460858e-01,3.38559337e-02,2.19271228e-01,-3.54417396e+00,3.15810740e-02,1.01369120e-01,1.23701476e-01,-4.20406535e-02,1.68960467e-01,1.16351917e-01,-1.18260719e-01,-2.08000056e-02,1.64702222e-01,9.38779041e-02,3.70664485e-02,-1.71912104e-01,1.18798286e-01,-1.46108270e-01,4.45743464e-02,-3.05847788e+00,-6.77064881e-02,-7.87794124e-03,-2.62518913e-01,1.47886574e-01,-1.73099980e-01,-4.55183759e-02,-1.92352876e-01,-8.01044703e-02,-5.42836674e-02,-8.13608244e-02,3.49698901e-01,9.82059017e-02,-4.05483320e-03,1.98721625e-02,1.84130773e-01,-1.78954244e-01,-1.16166361e-01,-1.32729813e-01,-3.01619563e-02,4.16258797e-02,-3.95054258e-02,1.35566741e-01,1.10887596e-02,9.64170173e-02,4.49369885e-02,6.01098128e-02,-1.32005485e-02,-1.03142425e-01,-5.20643331e-02,-2.46665757e-02,1.46980643e-01,-9.42977071e-02,9.44670960e-02,4.05597612e-02,1.27415240e-01,-9.82761532e-02,-3.73103619e-02,-1.46923885e-01,-2.17274338e-01,8.05887580e-02,2.11662516e-01,-1.46924108e-01,1.03124596e-01,-5.58526022e-04,-6.04353137e-02,-1.84253067e-01,3.00780267e-01,7.33111128e-02,1.24106392e-01,-2.86412239e-02,-2.18173251e-01,2.18768328e-01,6.59425706e-02,-2.10506812e-01,-4.33423109e-02,2.33926624e-01,2.04839423e-01,2.58149654e-01,-2.06285380e-02,-1.50859922e-01,-1.06606729e-01,5.90011664e-02,-1.20481968e-01,2.31340360e-02,3.65564879e-03,-3.44838090e-02,-2.64734596e-01,-2.35123739e-01,-5.57940565e-02,1.56834215e-01,-3.96874920e-02,-1.61589310e-01,-1.23038277e-01,-2.00353429e-01,-1.50967336e+00,6.76997518e-03,1.16173379e-01,-5.31301163e-02,1.01792313e-01,2.01214761e-01,1.09695204e-01,-2.75404662e-01,2.15671808e-01,4.23323810e-02,2.15822324e-01,-8.96296352e-02,-1.06954396e-01,-1.91269815e+00,-1.06101146e-03,9.77569818e-02,6.33680448e-03,1.76307112e-01,1.29543722e-01,-8.13643113e-02,-4.47743610e-02,-1.45744249e-01,4.24279608e-02,4.27095257e-02,1.51812315e-01,1.18706472e-01,4.70808744e-02,-1.15319818e-01,1.56954259e-01,9.89788794e-04,-3.45217586e-02,-3.40520740e-01,
4.02935594e-02,-3.40011460e-03,9.38488618e-02,-1.45325381e-02,-1.24017715e-01,1.92237169e-01,-1.74522728e-01,1.09546490e-01,-2.15933635e-03,2.47928444e-02,-1.75080106e-01,4.22984883e-02,3.39293182e-01,-1.84295699e-01,-3.34512830e-01,7.08241239e-02,-1.86304495e-01,-4.48879004e-02,1.02066956e-01,1.08438566e-01,9.36880410e-02,4.80324537e-01,1.35677513e-02,-1.48964198e-02,-3.55828032e-02,1.81691498e-01,-1.06914252e-01,2.11846888e-01,-1.12178765e-01,-1.76129326e-01,2.11563408e-01,6.69204397e-03,-3.49274725e-01,1.90302804e-01,1.78678378e-01,2.31102575e-02,-1.82367086e-01,-6.18820190e-01,1.49419799e-01,-1.30731031e-01,-1.92621544e-01,7.91571587e-02,-1.26828656e-01,1.23586044e-01,8.25435147e-02,1.18008912e-01,1.32106781e-01,-1.31488204e-01,1.95537135e-02,7.59564221e-01,-1.52556077e-01,-2.04140525e-02,1.30929366e-01,-1.46595508e-01,-1.52719304e-01,2.24429052e-02,8.08339939e-02,-1.35211974e-01,1.73032477e-01,1.36881992e-01,1.79584488e-01,-6.85642362e-01,5.33065498e-02,1.22441188e-01,1.05151184e-01,4.41663414e-02,1.28811106e-01,-1.81892037e-01,5.64912483e-02,2.33611371e-02,-1.06080011e-01,9.81109589e-02,6.06916100e-02,-3.29194576e-01,-9.86354277e-02,8.67054984e-02,-5.35071529e-02,4.45331223e-02,1.83475479e-01,-1.59135424e-02,-9.72696841e-02,-2.09819227e-01,1.79312736e-01,3.09389651e-01,-9.22637898e-03,2.30552927e-01,-1.43007440e-02,6.19738847e-02,-1.71557844e-01,2.72198617e-01,3.83985713e-02,-2.16029406e-01,-1.57726780e-01,-1.44335151e-01,-6.85335463e-03,-6.61850199e-02,-3.09245497e-01,-1.69323578e-01,-2.86817044e-01,2.77094960e-01,-1.35092344e-02,3.97862829e-02,9.51749459e-02,5.29693782e-01,-3.73287536e-02,1.94347113e-01,-2.05110326e-01,-1.19405605e-01,-6.38985122e-03,2.58022952e+00,-4.56792377e-02,9.53295901e-02,-1.86813772e-01,-2.69533575e-01,1.55000016e-01,-3.52520216e-03,2.25406587e-02,-2.11588681e-01,2.35676736e-01,-1.26734987e-01,2.80024230e-01,3.81232351e-01,2.51660030e-02,2.09002178e-02,-2.49707396e-03,1.48410305e-01,-3.22972089e-01,-1.03948176e-01,
1.05768934e-01,4.05115858e-02,-1.84918165e-01,5.30769825e-02,-1.94686696e-01,1.84079731e+00,-9.14986506e-02,1.16385952e-01,-1.21734682e-02,-1.47569254e-01,-1.01435520e-01,1.25434995e-01,-1.07122041e-01,-1.50247306e-01,1.69547349e-01,-7.47906268e-02,5.29204048e-02,7.16101527e-02,8.61184555e-04,-9.05819163e-02,1.00716382e-01,-5.99783659e-01,2.83814743e-02,-1.03050703e-02,2.47811913e-01,7.85713177e-03,-6.09526411e-03,5.55619635e-02,-3.77610885e-02,3.94179747e-02,3.04667875e-02,1.33350790e-02,-7.58451074e-02,2.94248462e-02,-3.54400538e-02,1.29107878e-01,1.45466298e-01,-2.70005882e-01,-5.67616448e-02,-2.03404818e-02,1.45936385e-01,3.14978734e-02,-1.58913940e-01,7.68246353e-02,-4.07215580e-02,1.67963386e-01,-1.45286053e-01,-5.57941385e-02,1.75815910e-01,-2.05335706e-01,-9.53624770e-02,-1.43847153e-01,7.39953443e-02,1.22142211e-01,-4.92219627e-02,2.80493665e-02,2.37982690e-01,2.01658949e-01,-1.76192641e-01,4.95831557e-02,-2.19115391e-01,-6.17532015e-01,-8.73999819e-02,-6.73602298e-02,4.30341065e-02,2.32365102e-01,2.38291949e-01,9.23900604e-02,2.63217203e-02,2.58069541e-02,4.06315327e-02,-1.99493200e-01,-1.26650900e-01,-6.43150210e-01,-1.48115829e-01,1.14866167e-01,-1.20380968e-01,1.49868771e-01,4.17912677e-02,-3.91442664e-02,-8.14493373e-02,-3.91981527e-02,-5.78526296e-02,-3.57022583e-01,3.21179777e-01,3.84055562e-02,-1.29919741e-02,1.81450993e-01,-1.13795415e-01,-3.68580997e-01,-1.68474823e-01,-2.79416088e-02,-1.70031320e-02,4.98609170e-02,8.21307823e-02,-1.91491365e-01,-7.01186597e-01,9.41957310e-02,1.76568046e-01,6.68113530e-02,5.70860654e-02,-4.72363755e-02,9.78040099e-02,-2.66336083e-01,1.06704764e-01,4.48201559e-02,-8.13044980e-03,2.79475629e-01,4.22884012e-03,3.03722292e-01,-3.93813491e-01,4.37389128e-02,-6.08086213e-02,1.25687286e-01,-8.06450099e-02,-1.15957130e-02,-1.35096446e-01,5.11795543e-02,6.10637292e-03,-3.38910595e-02,-2.89250594e-02,1.04678266e-01,-2.06530150e-02,-1.13509111e-02,1.14539504e-01,-3.50054801e-02,-1.77356631e-01,-1.46155596e-01,
-8.05243924e-02,-3.92077304e-02,7.99697414e-02,-4.21632715e-02,2.11280376e-01,-6.13441586e-01,-1.21158402e-04,4.92980719e-01,2.53417082e-02,2.16780230e-02,-1.99847277e-02,1.80473894e-01,-3.10816709e-02,-1.76103845e-01,1.30624622e-01,-3.68538536e-02,-8.60418752e-02,-1.34688601e-01,5.06075770e-02,-3.45133066e-01,5.23134358e-02,-1.65176046e+00,-1.65970907e-01,-3.82120423e-02,-4.16245311e-02,3.88785452e-01,-6.61383290e-03,8.23241547e-02,-3.02241743e-02,1.50998026e-01,-1.33353457e-01,-1.05840564e-01,-4.85512130e-02,-8.50602910e-02,-4.23000678e-02,4.22063190e-03,-4.53063808e-02,1.20336451e-01,-1.41884014e-02,-1.68481446e-03,-4.09549773e-01,-8.15234333e-02,2.75217682e-01,1.33259892e-01,-6.48258999e-02,-1.06263742e-01,2.56468445e-01,9.51542556e-02,-2.31985211e-01,5.67001283e-01,1.01187281e-01,-1.11464702e-01,4.16583978e-02,9.81191471e-02,1.81639679e-02,-1.07970916e-01,2.32348695e-01,3.21895890e-02,7.37245753e-02,-4.21680324e-02,-4.79929242e-03,-1.99866936e-01,1.87026992e-01,2.52717081e-02,1.76583119e-02,1.75357312e-02,5.44314235e-02,-2.85003990e-01,-4.25449610e-02,-1.47233635e-01,1.80596992e-01,-1.03190295e-01,9.50226709e-02,-4.92074713e-02,-1.58722937e-01,4.76843640e-02,2.31197387e-01,1.11992441e-01,-1.55810386e-01,2.21847594e-01,-7.83375278e-02,3.40344496e-02,-9.03702527e-02,7.59779215e-02,-1.76050432e-03,-6.87186643e-02,9.79828611e-02,9.81565490e-02,-6.74951673e-02,8.24857652e-02,6.53288560e-03,1.27137303e-01,-1.86582375e-02,-1.86125293e-01,4.50757928e-02,3.84329259e-02,-3.47127080e-01,1.90891623e-01,-2.31441021e-01,-5.03074788e-02,-2.93136947e-02,3.17602791e-02,2.43236367e-02,4.00247365e-01,6.52022362e-02,-1.08573362e-01,8.84654671e-02,-8.61109048e-02,5.16773015e-02,-8.21202695e-01,-9.10462439e-02,1.39756694e-01,6.66179359e-02,3.70482594e-01,4.45131026e-02,-1.09023124e-01,1.16361804e-01,3.39327343e-02,4.92500588e-02,4.50146161e-02,1.05696477e-01,1.69128627e-01,-7.42210522e-02,-4.40749340e-02,-3.03646773e-01,-2.05890201e-02,-3.40906866e-02,-3.22754942e-02,
9.26081538e-02,2.45552912e-01,1.58451557e-01,1.68692470e-01,2.74070967e-02,3.64607430e+00,-9.75731015e-02,1.11736767e-01,2.94041634e-01,2.05710381e-01,7.71771967e-02,2.89577246e-01,1.16219908e-01,2.32827514e-02,2.19704866e-01,2.71212935e-01,-1.89645626e-02,2.89066453e-02,5.06885648e-02,2.29553223e-01,2.04217985e-01,1.20345628e+00,2.37659469e-01,1.52051926e-01,9.71177891e-02,1.14892513e-01,2.65291393e-01,2.14518100e-01,3.22742701e-01,2.97950536e-01,7.84736127e-02,1.41981810e-01,1.42788485e-01,-2.19829697e-02,6.81575835e-02,-1.48846731e-02,8.58003274e-03,1.10482529e-01,1.69099063e-01,6.33205753e-03,1.98094606e-01,-2.26100162e-02,1.22670554e-01,1.16843451e-02,2.71324277e-01,1.09109528e-01,9.64971036e-02,1.74272597e-01,1.30644485e-01,-7.52292648e-02,-6.58550709e-02,1.72239736e-01,5.73148392e-03,-5.92395477e-02,1.67025715e-01,-6.56155646e-02,1.05602868e-01,1.85009092e-01,2.30954036e-01,1.36879414e-01,1.90431654e-01,8.57468396e-02,1.90776780e-01,1.78504020e-01,3.40702742e-01,-4.66493570e-04,3.38938683e-02,1.18061513e-01,1.41125485e-01,3.38044077e-01,9.99419615e-02,9.60158482e-02,1.25002816e-01,4.90789078e-02,2.76192594e-02,1.37020707e-01,1.66492894e-01,-6.36811182e-03,7.87677169e-02,1.90093040e-01,-1.62139926e-02,7.71568194e-02,6.64827898e-02,1.27563581e-01,5.99385463e-02,1.18223153e-01,1.89251557e-01,1.71201035e-01,2.14935377e-01,-3.27884443e-02,8.96933079e-02,2.10018829e-01,3.14150721e-01,1.45267606e-01,2.59866063e-02,5.57946786e-02,5.41796207e-01,-3.06871124e-02,5.23462892e-02,8.25474858e-02,2.13415325e-01,7.82625154e-02,5.79736829e-02,1.92681998e-01,6.22380003e-02,1.02122270e-01,-5.35133295e-02,-8.46917704e-02,9.71778110e-03,2.35253835e+00,1.33116558e-01,7.94615224e-02,-2.40402948e-02,2.49889508e-01,8.22655633e-02,2.00364669e-03,2.15808466e-01,-7.88764283e-03,1.90648630e-01,1.31636322e-01,-1.71976965e-02,2.50888199e-01,1.07438236e-01,1.58045739e-01,1.03074864e-01,1.36878908e-01,9.44167972e-02,6.66798875e-02,
1.34685755e-01,3.99965700e-03,-6.58863783e-02,7.80182183e-02,2.58950442e-01,6.39121151e+00,1.85400367e-01,7.61971250e-02,2.47811768e-02,-1.58886328e-01,-4.58207447e-03,7.81594813e-02,-8.58229175e-02,4.33226898e-02,-3.30297202e-01,-5.58737554e-02,2.58337677e-01,1.17113041e-02,1.15577370e-01,1.10652417e-01,1.23916306e-01,9.00722563e-01,-2.72710063e-02,-1.48607194e-01,-3.29558412e-03,1.11609977e-03,6.81710392e-02,8.48421380e-02,-1.72274768e-01,-9.16571915e-02,8.31919834e-02,-1.67098954e-01,2.82347888e-01,3.40601504e-02,4.11887988e-02,1.40869156e-01,-5.57379723e-02,1.60528392e-01,-5.44633605e-02,-8.96930322e-02,-6.06275164e-02,4.55252677e-02,1.36600614e-01,-2.72421055e-02,-1.35529816e-01,8.60683993e-02,1.00361496e-01,1.53722130e-02,5.04683554e-02,7.55885601e-01,-2.29512565e-02,-4.84472513e-02,5.17815314e-02,-3.86888087e-02,9.41946283e-02,-1.71710119e-01,1.22294322e-01,-5.20797782e-02,-1.34648085e-02,-1.78485811e-01,-1.16055168e-01,-1.31070241e-01,-1.65623836e-02,7.43240267e-02,-8.23992938e-02,8.84066150e-02,8.75151306e-02,-3.06224763e-01,1.50913462e-01,1.76205978e-01,-1.04835462e-02,3.34619544e-02,2.47165054e-01,6.73614368e-02,-4.41026613e-02,-7.38976151e-02,-1.69579566e-01,5.95379993e-02,1.33615866e-01,-1.51742741e-01,1.01093553e-01,3.17930654e-02,-1.01718098e-01,-1.20281510e-01,-1.27449363e-01,-4.93412092e-02,-7.07616508e-02,-2.53263172e-02,1.27356229e-02,-6.53294176e-02,4.15070616e-02,-2.74747293e-02,-1.29062682e-02,-1.14257231e-01,3.35920192e-02,5.70974052e-01,-1.61946490e-01,1.15298919e-01,1.42132655e-01,-2.14293674e-01,-6.70898184e-02,-3.97429951e-02,1.27646223e-01,1.21228181e-01,4.70849462e-02,1.41428828e-01,8.53665695e-02,6.02312444e-04,-1.47663310e-01,9.11712551e+00,9.73013788e-02,1.14091381e-01,1.76084235e-01,-6.12308830e-02,3.07178758e-02,9.73544493e-02,-9.64179263e-02,1.12357929e-01,-1.88357141e-02,-1.19007505e-01,-1.15566239e-01,1.57289699e-01,-4.83692102e-02,-2.87896395e-03,-2.28350349e-02,-3.16165760e-02,3.02521251e-02,2.07786620e-01,
6.70939609e-02,1.37807921e-01,7.12879077e-02,4.30242904e-02,2.19481736e-01,1.14991748e+00,1.29808068e-01,1.00432038e-01,1.15286976e-01,1.55300330e-02,1.14344716e-01,-3.03373188e-01,3.80207933e-02,3.03573281e-01,2.17953607e-01,9.27459523e-02,1.32284388e-02,-3.40240486e-02,1.82837009e-01,-2.14263558e-01,-4.56456877e-02,2.92506576e+00,7.94558749e-02,1.94392458e-01,-1.28964365e-01,1.48597844e-02,-9.58854854e-02,-6.07883967e-02,-9.92289856e-02,-6.64671957e-02,6.04665764e-02,-9.95634403e-03,1.48523524e-01,-2.58254893e-02,3.37326601e-02,-2.30527222e-01,1.04346700e-01,2.17877641e-01,-6.50524944e-02,8.69222656e-02,-7.71440417e-02,-2.50937119e-02,2.01430842e-01,-1.05000146e-01,1.63442925e-01,1.94757894e-01,-2.50846948e-02,1.24055989e-01,2.43221559e-02,7.27902412e-01,-7.09855780e-02,-2.03977346e-01,5.15935458e-02,-9.67282578e-02,2.38172710e-01,2.32248083e-02,-4.73287664e-02,1.38407618e-01,-2.93698106e-02,3.33607830e-02,-6.98108822e-02,3.37254196e-01,-2.28396595e-01,-4.40010168e-02,-2.02825010e-01,6.43945262e-02,4.53388840e-02,-1.99805915e-01,7.12820813e-02,-3.02170038e-01,-6.59462139e-02,-1.45165026e-01,6.41993061e-02,3.62500936e-01,3.84457767e-01,-4.07348685e-02,1.33230522e-01,-5.63032962e-02,2.88043432e-02,1.25172615e-01,2.37155125e-01,1.48378953e-01,1.22793220e-01,2.54852250e-02,4.10204493e-02,-5.28842174e-02,-3.06803044e-02,-5.43306284e-02,-2.36893907e-01,-1.30668953e-01,-2.48963669e-01,-1.17803328e-01,5.32214642e-02,9.82812643e-02,-1.22879140e-01,6.87013417e-02,1.77195263e+00,1.47409290e-01,1.82127729e-01,3.58561799e-02,-4.86023538e-02,8.80748928e-02,-5.63149340e-02,3.73174578e-01,8.61018077e-02,-3.50771062e-02,-1.34589270e-01,-2.21104980e-01,1.42420024e-01,1.09750724e+00,1.45574510e-01,-3.97171155e-02,7.78951272e-02,-1.16313957e-01,-3.63281160e-03,-1.05161160e-01,-2.92299520e-02,4.01972979e-02,3.79565619e-02,2.46612094e-02,1.40695512e-01,1.72252655e-01,2.92143933e-02,-1.99870184e-01,-1.96701512e-01,9.46784317e-02,5.11115156e-02,-4.06263173e-02,
1.35351032e-01,-9.89417285e-02,-2.83159912e-02,1.72749311e-01,6.17997460e-02,1.12885344e+00,-1.68059040e-02,-9.09782201e-02,1.56286493e-01,1.05679557e-01,1.15970463e-01,-5.13019562e-02,9.78827029e-02,-1.30640164e-01,-4.20395881e-01,2.60060012e-01,1.14685461e-01,-1.02971114e-01,4.12753224e-02,8.87299478e-02,-2.14843869e-01,1.01525295e+00,1.00431539e-01,-6.82278574e-02,-1.94026500e-01,2.40565121e-01,1.54891208e-01,-1.28757805e-01,-7.33705014e-02,-1.26361817e-01,4.86931391e-02,-1.55952955e-02,4.06210162e-02,4.08775732e-02,-1.73495561e-02,5.90398908e-02,3.03297732e-02,2.95024216e-01,-1.43790588e-01,1.76026255e-01,-1.19885849e-02,-1.82079077e-01,3.04580182e-01,-1.68021172e-01,-9.83149335e-02,1.36205092e-01,-7.73241073e-02,1.79199532e-01,-2.88936179e-02,1.93893567e-01,1.41765118e-01,-5.18319719e-02,-1.09945633e-01,8.55191275e-02,-9.31459293e-02,2.05473647e-01,5.55561064e-03,-4.18771580e-02,8.72245710e-03,-2.44264185e-01,-3.12996179e-01,7.79273883e-02,1.85843790e-03,-1.51392698e-01,3.98902735e-03,1.30574489e-02,-1.64269358e-01,1.26535565e-01,2.33121708e-01,4.34039608e-02,8.20642710e-02,1.94274321e-01,-6.38056174e-02,-4.78107661e-01,8.31297114e-02,-1.30026504e-01,1.43642277e-01,-5.56243993e-02,3.75475228e-01,-1.22531354e-01,3.63733202e-01,1.51668087e-01,-9.25346185e-03,2.18069464e-01,-3.46061252e-02,9.18880552e-02,-5.31175081e-03,-1.25404522e-01,1.87707320e-02,-7.69629404e-02,-2.18709989e-04,1.28074408e-01,3.03969830e-02,-9.36932638e-02,2.65436098e-02,-2.57418334e-01,5.89792192e-01,-1.10046223e-01,-1.38600096e-01,2.37846777e-01,4.58336733e-02,4.47738282e-02,3.11562836e-01,7.19901770e-02,-1.93951800e-01,1.38413459e-01,-4.28042799e-01,-8.88657719e-02,-2.39708066e-01,2.30759948e-01,-1.12489752e-01,-1.83113217e-01,3.66454899e-01,-1.57485023e-01,3.26925218e-02,-1.29561841e-01,2.16339901e-01,1.50418371e-01,3.00675392e-01,-4.38428633e-02,-1.06391251e-01,2.59420406e-02,9.21463743e-02,-1.75116956e-02,-2.97073014e-02,-1.74465686e-01,-1.75085738e-01,3.64902049e-01,
1.19306587e-01,6.68623075e-02,-7.26065412e-02,1.23618871e-01,-1.37956992e-01,2.66878748e+00,3.09805218e-02,1.92656398e-01,4.59711812e-02,8.11175480e-02,3.09216045e-02,-9.60135683e-02,9.45394412e-02,-1.76843088e-02,5.01966253e-02,-2.80486550e-02,5.28524071e-02,4.14808840e-02,-1.19811939e-02,1.95264397e-03,6.68216348e-02,1.01700914e+00,-1.17175587e-01,1.84453055e-01,1.61306649e-01,6.62470758e-02,-6.92721605e-02,4.52066101e-02,6.67844489e-02,-1.36031762e-01,-2.86941603e-02,7.30981529e-02,-2.36439649e-02,1.23196155e-01,4.02632207e-02,-2.37735044e-02,-2.14958802e-01,3.17214243e-02,-5.79585917e-02,-4.98407669e-02,1.35083735e-01,8.47115293e-02,-3.52753066e-02,-4.60457243e-03,4.61544618e-02,-1.25550807e-01,-1.26078144e-01,5.75376526e-02,-1.66409947e-02,-2.25235552e-01,-6.40237555e-02,4.86804685e-03,-1.98685825e-02,2.88518108e-02,-1.35585340e-02,1.76922441e-01,8.59524235e-02,-6.61993697e-02,1.33688137e-01,1.54436275e-01,6.66099880e-03,-1.62943438e-01,-8.55569541e-02,-4.10860665e-02,-2.22744375e-01,-3.69396843e-02,1.52846098e-01,3.10443118e-02,-1.78730711e-02,1.77702799e-01,-7.85367414e-02,6.27175672e-04,7.04323128e-02,-2.31936216e-01,-1.89711720e-01,-1.47563800e-01,1.79886192e-01,-3.21343578e-02,4.60465178e-02,-1.42950445e-01,8.71378109e-02,-1.37617914e-02,-5.13916984e-02,-1.44607201e-01,8.15257952e-02,1.56640813e-01,-2.80261151e-02,2.90244102e-01,5.63770272e-02,-3.07016335e-02,-6.77513778e-02,9.53971297e-02,4.60650474e-02,1.82020664e-02,-8.20634663e-02,-1.07750446e-01,2.31719270e-01,-2.69276164e-02,-5.73509671e-02,3.69378040e-03,3.82658355e-02,-7.65724555e-02,2.10312352e-01,1.07534803e-01,2.19921246e-02,1.05332389e-01,1.92892700e-02,-6.60853684e-02,-1.54112577e-01,1.65378094e+00,-7.63947144e-02,-5.79930702e-03,-9.45475623e-02,5.95112108e-02,2.49705538e-02,6.28521740e-02,-7.25696832e-02,1.14988558e-01,1.58590659e-01,6.77345768e-02,-5.41956574e-02,8.58351812e-02,-6.35518506e-02,1.12656787e-01,1.61357243e-02,-9.29546878e-02,-3.74931507e-02,6.04746900e-02,
-3.63843925e-02,1.23977885e-02,-3.02519910e-02,7.02507049e-02,-2.56047715e-02,3.91071391e+00,7.09899366e-02,1.48633778e-01,-7.60464370e-02,-7.97310099e-03,1.83093231e-02,4.13315505e-01,1.25619471e-01,7.06939176e-02,2.17797190e-01,-1.82905406e-01,-3.44555937e-02,1.74072459e-01,-1.02688067e-01,1.16552785e-01,2.82175750e-01,1.84929597e+00,-6.16238043e-02,-7.24315792e-02,-5.18385693e-02,-1.98403150e-01,-9.27756950e-02,-2.68238872e-01,3.79961617e-02,-7.13400468e-02,9.48380586e-03,-1.84706509e-01,1.14856526e-01,9.01963264e-02,-2.11372916e-02,6.83568940e-02,-1.37738645e-01,-2.33696878e-01,-7.83432424e-02,9.49218869e-02,-1.15571380e-01,1.02115490e-01,-3.03588420e-01,-1.28457874e-01,4.87134494e-02,5.71662374e-02,-4.81135584e-02,1.48939028e-01,-3.46469209e-02,-8.63784611e-01,1.55190974e-01,7.50812814e-02,-4.96397428e-02,-9.58821736e-03,2.19773632e-02,5.17439395e-02,7.12849498e-02,1.98592663e-01,-1.48931697e-01,-8.07808489e-02,-6.68500215e-02,-2.45551959e-01,-1.23487888e-02,8.73459578e-02,-4.35305797e-02,2.33212084e-01,1.16322093e-01,-1.69431016e-01,-1.28782079e-01,1.99336156e-01,2.44425964e-02,5.21532930e-02,-3.50873880e-02,-9.74416286e-02,-4.25275825e-02,1.41871586e-01,-4.92312498e-02,1.58439323e-01,-1.85027555e-01,-7.38459751e-02,-1.21714234e-01,1.35227874e-01,-5.17935939e-02,5.10062799e-02,9.94528607e-02,-1.79646224e-01,-2.22811829e-02,2.07180470e-01,-2.38887101e-01,-3.34696949e-01,-2.05727041e-01,7.83348978e-02,-1.30766496e-01,1.26747832e-01,5.79316728e-03,2.52059340e-01,-3.50656450e-01,1.53995544e-01,9.66703370e-02,2.49728430e-02,1.20027326e-01,7.64270276e-02,2.64277041e-01,-4.84021902e-01,-1.27626508e-01,1.15228236e-01,-7.30999261e-02,1.75507650e-01,-1.38173684e-01,5.00744629e+00,5.31598441e-02,-7.42793977e-02,-4.63141277e-02,-1.10466667e-01,-3.65615562e-02,1.24062516e-01,-1.20957889e-01,3.22332755e-02,2.98596248e-02,8.65297318e-02,-2.76187956e-01,-3.21814381e-02,-2.07913086e-01,-3.21370065e-02,-1.82960600e-01,-4.06061262e-02,2.79799327e-02,9.85985696e-02,
6.30613044e-02,-1.03574596e-01,-8.44527632e-02,-9.24022496e-02,3.33136529e-01,-1.18582356e+00,1.35985494e-01,-2.96466257e-02,-1.07499734e-01,-4.65513058e-02,2.50811712e-03,3.36558148e-02,-9.61779803e-02,-1.61941111e-01,8.93097594e-02,7.59200081e-02,3.32274660e-02,-1.28994331e-01,4.65967543e-02,-2.53040101e-02,-1.60847291e-01,-2.43529722e-01,4.60807420e-02,2.81734951e-02,2.37268344e-01,2.17684612e-01,-8.04807991e-02,-1.87104382e-02,-8.39661434e-02,2.06405535e-01,-9.13603306e-02,2.66870740e-03,1.34467781e-01,3.50333899e-02,9.79979336e-02,1.21306755e-01,-7.21471161e-02,-3.42285931e-01,2.10081022e-02,-1.07116915e-01,1.57256238e-02,-7.80592933e-02,6.80251000e-03,-1.04170434e-01,-9.57768038e-02,-1.16340797e-02,3.19729112e-02,5.00823595e-02,-1.50047448e-02,1.35408277e-02,2.00707436e-01,-1.14982776e-01,-1.11378491e-01,7.25007951e-02,3.75911519e-02,-9.40978006e-02,7.13693351e-02,4.46602106e-02,1.16185322e-01,4.33232673e-02,-1.94133013e-01,-2.41099551e-01,-8.80202744e-03,-6.50054365e-02,-6.20060712e-02,1.12122856e-02,6.65739849e-02,3.87634449e-02,7.10312724e-02,1.56939421e-02,1.31262049e-01,1.63431510e-01,9.56456829e-03,-1.13292113e-02,1.37873217e-01,6.57684654e-02,-1.35449320e-02,6.85531199e-02,1.11548178e-01,-6.38580695e-02,-1.34957619e-02,-4.59576808e-02,1.08530946e-01,-2.53155023e-01,2.24485934e-01,-1.65531952e-02,-7.89629776e-05,6.40771389e-02,-1.73771277e-01,2.75335282e-01,-1.29243031e-01,-1.62224591e-01,3.13617028e-02,-2.24149935e-02,1.05659872e-01,-1.57965586e-01,-2.42846847e-01,1.00114815e-01,-1.01452626e-01,-1.87125087e-01,6.56996891e-02,-2.29820997e-01,8.20985362e-02,1.97155237e-01,-2.64071058e-02,1.88084379e-01,8.33862871e-02,-8.82285982e-02,1.91761330e-01,-3.69524509e-01,-5.37504768e-03,2.14702651e-01,1.13740467e-01,-1.06149338e-01,-2.07665861e-02,-2.25235462e-01,-8.72852281e-02,-2.17129271e-02,8.48429799e-02,-1.28169134e-01,-1.46138921e-01,-3.53187509e-02,-2.29133479e-02,-1.69609666e-01,1.23047501e-01,1.13520339e-01,-9.26859379e-02,1.96018368e-02,
3.29628140e-02,1.47253480e-02,-2.03836337e-01,6.96435198e-03,-3.12855333e-01,-2.51534939e+00,-1.78881958e-01,1.49236619e-01,-7.62568936e-02,-6.79629594e-02,-2.39128079e-02,-8.75205733e-03,2.67608136e-01,2.34519672e-02,1.17680013e-01,-6.25861734e-02,-3.27740684e-02,1.83667868e-01,9.88860726e-02,3.57604697e-02,-5.59374318e-02,1.67928673e-02,1.07604899e-01,-4.73890491e-02,-3.94734405e-02,-1.12383209e-01,-7.80915320e-02,2.41097987e-01,1.36799619e-01,-8.85257572e-02,-1.17683552e-01,1.37230203e-01,-5.23374043e-02,1.49832204e-01,4.44165766e-02,9.62537006e-02,1.34696022e-01,-5.96832894e-02,-1.05020097e-02,-2.91885454e-02,2.21360177e-02,5.05728796e-02,6.49044365e-02,1.95979491e-01,-3.20049711e-02,-9.01958793e-02,-2.64392525e-01,3.17322388e-02,1.46506980e-01,-2.26788506e-01,-5.83550707e-02,2.52789140e-01,1.40963212e-01,1.25798777e-01,-2.81640328e-02,1.46772832e-01,9.73305106e-02,-1.50067270e-01,3.92122976e-02,6.29346222e-02,-2.02707604e-01,-7.02115476e-01,-1.22959070e-01,-2.79364109e-01,1.25562437e-02,1.64037589e-02,-2.18558252e-01,-4.20329049e-02,1.93844661e-01,-1.45689636e-01,1.43037792e-02,-2.72245351e-02,7.03209043e-02,-1.32174623e+00,-3.22202504e-01,1.43863149e-02,-5.00893928e-02,7.85626844e-02,-1.40888602e-01,1.43981859e-01,3.75954956e-02,-1.14220925e-01,3.05584818e-02,1.42695019e-02,1.06842108e-01,-2.03206152e-01,7.40425438e-02,1.02625504e-01,-1.02024540e-01,-8.05625543e-02,-1.59822121e-01,1.21674597e-01,2.54409134e-01,-3.85814197e-02,-1.39669821e-01,2.02774897e-01,6.90415502e-02,-1.73965603e-01,3.75167727e-02,1.44917145e-01,4.04584743e-02,1.30200133e-01,-1.77487507e-02,1.55993998e-02,6.43391013e-02,2.44048893e-01,-1.56875134e-01,1.02915034e-01,-1.64545644e-02,-1.29658103e+00,-2.55551547e-01,-1.01414010e-01,9.55156796e-03,5.90400845e-02,8.10703486e-02,1.40892705e-02,8.98655355e-02,1.15503490e-01,-6.76735193e-02,8.69148448e-02,-3.81966621e-01,-2.93057859e-02,-1.21015785e-02,-7.23959431e-02,2.34586112e-02,-3.25632701e-03,2.10038573e-02,4.43560444e-02,
7.02849776e-02,2.14314554e-02,1.97130851e-02,6.58146068e-02,7.23135471e-02,-6.41777277e+00,1.46741405e-01,-1.27963737e-01,-3.75252999e-02,-7.94035643e-02,5.57051878e-03,-9.65557843e-02,5.78226969e-02,4.56555486e-02,1.90290719e-01,9.94149372e-02,2.36404464e-01,4.97353449e-02,5.83798029e-02,6.45075291e-02,-1.32632121e-01,-1.12458932e+00,-6.69714808e-02,1.83395401e-01,1.02402540e-02,9.69261229e-02,-9.34142768e-02,5.09340665e-04,2.98780888e-01,-2.47541741e-01,-1.76224306e-01,-1.15704944e-03,-5.24818659e-01,8.87179971e-02,-1.59165829e-01,6.86505213e-02,1.52766749e-01,7.29741573e-01,-4.01539542e-02,8.27312749e-03,-2.04247106e-02,2.28905082e-01,-4.19906646e-01,1.08087786e-01,-8.93653780e-02,-1.76782906e-01,2.29770597e-02,-5.19354880e-01,-1.03308991e-01,-8.51726606e-02,2.38120750e-01,5.09257257e-01,1.53773665e-01,-1.35836676e-01,3.92812230e-02,-3.13773364e-01,4.28972952e-02,5.49561977e-02,2.32293431e-04,4.28699814e-02,-9.63177681e-02,5.49533255e-02,2.44757310e-01,1.07892165e-02,9.52448919e-02,-1.20459348e-01,-1.14890084e-01,-3.29383388e-02,-3.22756469e-01,-2.80299056e-02,-1.13581598e-01,-1.33813486e-01,-1.71670347e-01,1.71213076e-02,-4.08887565e-02,-1.16609469e-01,-4.00595972e-03,2.93677360e-01,-8.04828033e-02,1.36306688e-01,1.45320535e-01,-4.05263126e-01,-4.70021144e-02,-1.10280588e-01,-2.02867091e-01,1.05392911e-01,4.45071235e-02,4.81159389e-02,1.47838399e-01,-9.69548151e-02,-1.20633028e-01,-1.53538570e-01,-2.35190522e-02,1.49270326e-01,8.23327864e-04,-2.46820599e-02,3.78885686e-01,-5.47936678e-01,-1.39249891e-01,3.68253700e-02,-4.08083387e-02,7.10731372e-02,-5.69434538e-02,1.77751958e-01,2.68284470e-01,-1.05838820e-01,2.89331853e-01,-6.36118501e-02,2.61552274e-01,-4.40874481e+00,-2.16253251e-01,-1.35071605e-01,1.22821823e-01,-8.88404250e-02,1.74581647e-01,-2.94987440e-01,1.22220352e-01,-1.32332340e-01,-1.10142902e-02,-1.22526325e-01,-1.02392271e-01,3.63982134e-02,-1.23935096e-01,-1.84422448e-01,2.12652802e-01,3.57435867e-02,3.49303670e-02,-5.02765596e-01,
-6.46071136e-02,1.49568366e-02,7.21516693e-03,-8.77927542e-02,-1.71326131e-01,-7.95899332e-02,3.12404316e-02,1.09849446e-01,-2.72293743e-02,-3.15401517e-02,-1.40539438e-01,-4.13589552e-02,4.27476056e-02,-1.30994484e-01,1.11220144e-02,2.77156271e-02,-4.48791869e-02,-4.36994396e-02,-1.92450192e-02,-1.40664503e-01,-3.89736369e-02,-1.02218412e-01,-2.20599055e-01,2.09191233e-01,-4.14458215e-02,-2.34995127e-01,4.69889343e-02,8.14330876e-02,-2.33046096e-02,-7.86383972e-02,3.84095237e-02,3.24075222e-02,1.12005867e-01,-4.63068001e-02,-1.72247216e-01,1.34084791e-01,-5.05217910e-02,-1.08354054e-02,6.31836802e-02,-8.62780660e-02,-4.23747860e-02,-1.55862710e-02,-9.36283320e-02,2.51053840e-01,7.82917067e-02,1.10256433e-01,-4.86811921e-02,1.06341720e-01,4.47153114e-02,2.27723401e-02,8.39189515e-02,-9.32308733e-02,-1.30856737e-01,3.12862955e-02,7.08908364e-02,1.21934747e-03,5.66680469e-02,-4.26001586e-02,9.94054526e-02,-1.10906668e-01,2.82041430e-02,3.19269882e-03,5.67370318e-02,1.37826791e-02,8.06688145e-02,-1.39823467e-01,1.01380281e-01,5.64942025e-02,3.48792486e-02,-2.54792292e-02,-2.44761914e-01,-5.52144684e-02,3.79420668e-02,-1.82480514e-01,-1.81082916e-02,2.16487408e-01,-4.21269871e-02,-1.96408689e-01,1.07182242e-01,-1.45825580e-01,-9.56336260e-02,1.45706654e-01,-1.63350236e-02,-3.00801303e-02,-7.12798536e-02,2.33174674e-02,7.17789959e-03,-7.15178698e-02,-6.54970855e-02,1.21150173e-01,1.47455156e-01,-1.00621637e-02,-1.17575265e-01,9.44507122e-02,-8.59817639e-02,-1.24643691e-01,-1.06390730e-01,-1.68576986e-01,-1.13040887e-01,-3.72723825e-02,-3.64897549e-02,-7.41775036e-02,2.71810945e-02,1.61117576e-02,-5.09860963e-02,-7.06628487e-02,-1.08676799e-01,7.13639036e-02,-6.55741841e-02,-1.64498731e-01,2.16602944e-02,-1.24078214e-01,-2.99429536e-01,-6.67670555e-03,-1.06024265e-01,-6.63758665e-02,-1.25576988e-01,-7.43476823e-02,4.84109633e-02,-3.51397670e-04,1.97936177e-01,-1.11033782e-01,-1.11249171e-01,1.67030439e-01,-1.58997551e-02,3.60615067e-02,-1.54930511e-02,-1.00252621e-01,
-1.49681553e-01,3.32389958e-02,8.67448822e-02,-5.41049168e-02,1.90811232e-01,-3.63959098e+00,-4.44110334e-02,1.39379743e-02,-4.17241231e-02,2.35416722e-02,-1.34818748e-01,-8.43883082e-02,-1.32407144e-01,1.23052187e-02,6.65930733e-02,-1.07583202e-01,-3.80323199e-03,-1.04011567e-02,-7.68013969e-02,-9.89263654e-02,-7.34957382e-02,-2.25646925e+00,-7.41447061e-02,-6.39614789e-03,1.01974294e-01,-4.51765135e-02,-7.59137869e-02,2.38012671e-02,3.37149128e-02,-1.12662313e-03,-1.06585108e-01,2.47643366e-02,-4.48177904e-02,4.99509387e-02,-2.09893495e-01,1.85574874e-01,1.78053483e-01,-7.54826814e-02,4.25260328e-02,4.74281758e-02,-1.03368945e-01,1.39616549e-01,-3.47175561e-02,4.70372587e-02,-8.07644650e-02,-1.02285080e-01,-3.86922508e-02,-2.94650495e-01,-1.86304763e-01,1.50895327e-01,-6.22517196e-03,4.83232215e-02,1.47712827e-01,7.97412694e-02,1.34866480e-02,-1.47914048e-02,2.76290216e-02,1.07305810e-01,-9.62287411e-02,1.44806653e-01,-1.25469148e-01,-5.05718552e-02,1.71534136e-01,1.33828580e-01,-9.48340446e-02,-1.70870647e-02,-2.22344324e-01,-1.56704873e-01,-7.45229051e-03,-1.65909871e-01,-4.85751480e-02,1.12258084e-01,1.73179782e-03,1.80231571e-01,-9.43749845e-02,6.14380538e-02,-9.13944617e-02,5.50194010e-02,-1.96028799e-01,1.12684250e-01,7.95202181e-02,-9.00194496e-02,1.95368171e-01,-7.65608847e-02,9.25761014e-02,3.19007076e-02,1.33334950e-01,3.35205533e-02,-1.05954045e-02,5.93741238e-02,1.63693026e-01,5.93701228e-02,1.74841695e-02,1.50577873e-01,-4.20160517e-02,1.78443313e-01,8.86269629e-01,1.87947080e-01,3.08390819e-02,-2.42835321e-02,1.13057852e-01,3.87472250e-02,-2.19395999e-02,-4.47992265e-01,2.39048153e-02,-3.16842832e-02,1.72655076e-01,1.80273000e-02,-2.52085701e-02,-3.01025367e+00,-5.20728901e-02,-9.64751169e-02,1.28940463e-01,-7.90357664e-02,1.22986350e-03,2.67547555e-02,-7.86220729e-02,-3.10175031e-01,4.47068289e-02,2.07435004e-02,-1.00749433e-02,2.29816139e-01,-1.88674740e-02,4.06483822e-02,-1.43715158e-01,-1.57252371e-01,-1.41015917e-01,2.30621919e-01,
-1.16764948e-01,1.68116093e-02,-1.13146782e-01,9.87689868e-02,8.15246776e-02,1.35952687e+00,-5.40434383e-02,-1.02214500e-01,-1.74751077e-02,2.01403722e-02,-1.19586341e-01,5.39924800e-02,-6.67150840e-02,-6.58968389e-02,-2.34056130e-01,-1.86530903e-01,-1.60192981e-01,-1.93741202e-01,-3.41552719e-02,-2.50219088e-02,1.42365843e-01,5.05511045e-01,-1.06241539e-01,2.42294237e-01,2.05894426e-01,-4.82781082e-02,5.57032414e-02,-2.15280615e-02,-7.44535178e-02,-2.12499738e-01,1.50497900e-02,-2.74431542e-03,-2.22812906e-01,1.70957334e-02,5.91506809e-02,5.34354746e-02,-4.17855456e-02,-1.52385890e-01,-9.61556360e-02,1.10006645e-01,1.35352477e-01,1.29539281e-01,-3.42459679e-01,-2.12680295e-01,7.79435039e-02,2.84408070e-02,1.23867877e-01,-4.82520051e-02,7.00892136e-03,-4.33256269e-01,-5.02127171e-01,-8.16828534e-02,4.20023538e-02,7.28597715e-02,8.21655169e-02,2.82738656e-02,1.33755123e-02,-5.70964999e-02,1.82122946e-01,-1.49279144e-02,-2.53820390e-01,-2.08599001e-01,6.32306412e-02,4.40321304e-02,2.53401130e-01,-3.35086770e-02,9.97226536e-02,-1.08637728e-01,-1.08786881e-01,1.08744517e-01,7.65764266e-02,8.52005905e-04,-2.00588703e-02,6.68044984e-02,7.20169544e-02,1.06413536e-01,9.99987274e-02,1.40159160e-01,-1.20254949e-01,-6.03515357e-02,5.22345640e-02,-1.18029885e-01,1.22643011e-02,1.14273513e-02,1.77443624e-01,-4.72694188e-02,-1.13090277e-01,1.34059161e-01,6.93715513e-02,-2.96530008e-01,-6.80564344e-02,1.35400400e-01,-1.58541873e-01,7.78206065e-02,1.09125622e-01,3.44468772e-01,8.48538280e-02,-1.24885224e-01,-4.14936692e-02,1.90078318e-01,7.87738860e-02,7.38292038e-02,1.07233770e-01,-1.81752555e-02,-1.39247803e-02,2.35247854e-02,9.90278739e-03,8.61649588e-03,-1.47129059e-01,6.50620610e-02,3.34417336e-02,4.55668196e-02,-8.59960169e-02,-2.93813273e-02,1.34650365e-01,-7.37548620e-02,5.50423935e-02,1.43840522e-01,-8.00494999e-02,-2.90842298e-02,-4.24522102e-01,-3.43949407e-01,-1.60929322e-01,9.07605812e-02,1.03077970e-01,-2.49236301e-02,1.29387766e-01,-1.73567727e-01,
-8.50889906e-02,-2.06273377e-01,-8.82112384e-02,-1.06472149e-01,1.14946783e-01,-4.42169040e-01,-7.97132216e-03,3.15728113e-02,-2.37701535e-01,1.55967297e-02,-6.45102700e-03,1.45245731e-01,2.22144902e-01,-1.00468554e-01,8.78960416e-02,3.58337492e-01,-1.63841378e-02,-2.31394637e-02,-5.49311042e-02,-2.45717034e-01,2.31083155e-01,-2.95841289e+00,-1.16266347e-01,-7.70987496e-02,1.01827107e-01,4.21892330e-02,-1.68193251e-01,-4.78304885e-02,3.40119936e-02,-1.08418101e-02,6.42668009e-02,-6.44486099e-02,-5.56445755e-02,2.58591268e-02,6.38214052e-02,1.28877461e-01,5.42333797e-02,1.39829069e-02,-1.46052435e-01,1.04362451e-01,1.15565322e-02,3.34106125e-02,3.88261979e-03,1.30738616e-01,-2.25928798e-01,7.70766810e-02,-9.59099829e-03,-2.73794821e-03,-2.94188187e-02,1.06297389e-01,-6.69087619e-02,-7.38142431e-02,2.44683295e-01,2.72574518e-02,4.11857218e-02,7.11424872e-02,1.05507605e-01,2.48443440e-01,7.91319683e-02,-2.99702495e-01,-2.81335115e-02,4.30931747e-01,5.79387434e-02,-1.40031084e-01,-5.16331159e-02,-1.09712891e-01,6.57100976e-02,3.84067595e-02,-4.00668718e-02,-1.75570399e-01,-1.94272861e-01,1.33162200e-01,-8.75098556e-02,2.43553370e-01,-3.57647449e-01,1.40897408e-01,-1.14698052e-01,2.07707226e-01,-1.07696190e-01,2.62134820e-02,-2.16535538e-01,1.53836995e-01,-6.93454444e-02,2.38387093e-01,1.29622430e-01,-8.47927481e-02,-6.64592162e-02,2.52733994e-02,-3.85049656e-02,4.53496381e-04,1.23232663e-01,-6.48707002e-02,1.11848809e-01,1.01510234e-01,1.26950275e-02,4.29256782e-02,-1.49313021e+00,3.41446400e-02,7.80996978e-02,3.13031137e-01,2.08144020e-02,3.06626707e-02,1.52261794e-01,1.00984514e-01,1.50086898e-02,1.42696127e-01,-9.37837139e-02,2.03783400e-02,-1.03931077e-01,2.43264341e+00,-1.46297604e-01,-7.93752447e-02,-1.34350896e-01,3.59619446e-02,-3.10646474e-01,2.21153479e-02,-8.68761688e-02,-8.08419809e-02,3.42154503e-02,-3.11465561e-02,1.84069201e-02,4.99300361e-02,6.11718930e-02,4.43018749e-02,1.11069046e-02,7.80203193e-02,-3.42983991e-01,-1.66769847e-01,
5.36312647e-02,-2.25740671e-01,4.44816872e-02,-2.24708885e-01,-1.16096139e-01,-6.90359890e-01,-4.89206575e-02,-9.28918086e-03,-2.69520711e-02,1.19919330e-01,1.42148152e-01,-8.59051868e-02,-1.55194297e-01,1.93813047e-03,-4.87314373e-01,-3.99578124e-01,-2.58140117e-02,-8.25064033e-02,3.57877389e-02,1.74248636e-01,3.75171602e-02,3.94560957e+00,1.17968120e-01,-2.24998325e-01,-1.39660954e-01,3.30096096e-01,1.75066963e-01,3.14572036e-01,-1.40335754e-01,-8.95255655e-02,-4.80030254e-02,5.35615869e-02,-2.73456991e-01,2.45416611e-01,-9.56752747e-02,1.95367947e-01,-7.74366334e-02,1.11842483e-01,-3.26891840e-01,-9.80654731e-02,-4.88136739e-01,-1.00634001e-01,1.77543014e-01,2.66892940e-01,2.54493117e-01,2.71936566e-01,2.30165161e-02,-3.20986807e-01,-1.22552305e-01,1.52969778e-01,5.06726280e-02,-2.60569248e-02,-5.28141558e-02,1.03162527e-01,2.40667239e-01,-2.46658713e-01,3.02189160e-02,1.23645194e-01,2.80988179e-02,1.23146810e-01,-1.16777144e-01,1.94252003e-02,-6.63952157e-02,-4.44135927e-02,-1.86559334e-02,3.26649360e-02,1.19759806e-01,-1.25227988e-01,-2.06692174e-01,8.54918137e-02,-8.82138908e-02,5.71988486e-02,4.86107841e-02,-1.04700536e-01,1.03125893e-01,-2.61428044e-03,1.58493165e-02,-2.86713592e-03,-1.09560415e-02,-1.29154734e-02,2.22242862e-01,3.66053253e-01,-6.39172047e-02,2.82816410e-01,-8.92186686e-02,1.86145395e-01,-1.19749822e-01,-1.74038008e-01,-7.80117437e-02,2.67657399e-01,-3.77467066e-01,-7.09241629e-02,3.61582160e-01,7.05259442e-02,-1.13617117e-02,-8.79587680e-02,7.58341789e-01,-2.58738518e-01,-1.84297651e-01,-4.93514717e-01,1.69826522e-01,3.23005952e-02,1.40217528e-01,2.05734283e-01,-2.33714148e-01,1.79872364e-01,-1.13277115e-01,-8.83280784e-02,3.79279613e-01,2.50502920e+00,-9.63711925e-03,6.74375221e-02,-6.92081079e-02,-2.89211441e-02,1.95991933e-01,-1.01473613e-03,5.50813638e-02,7.40769356e-02,-1.49010401e-02,-1.19226605e-01,2.56422937e-01,1.33745089e-01,1.36845866e-02,8.22710320e-02,-7.82117844e-02,-7.25457072e-03,2.89034635e-01,-4.54412967e-01,
1.31730273e-01,5.49367331e-02,4.24756974e-01,-1.24991080e-02,-2.51449016e-03,6.59045839e+00,2.61762105e-02,5.41228950e-02,-6.40546530e-02,-6.86585577e-03,5.93093932e-02,1.73284281e-02,-2.90545169e-02,-6.35450780e-02,5.33701599e-01,-2.84179538e-01,-3.77996087e-01,1.71200186e-01,-5.00176013e-01,8.13237309e-01,3.84645402e-01,3.76461864e-01,-1.22703120e-01,8.15985911e-03,2.15592444e-01,-1.23221911e-01,1.02817059e-01,5.35906292e-02,1.36019021e-01,1.38526008e-01,4.97579128e-02,-1.01553470e-01,2.74777529e-03,-2.48836294e-01,1.43031910e-01,2.38733470e-01,3.14520329e-01,-3.03594708e-01,-1.17527708e-01,1.22320786e-01,8.94179195e-02,1.27284557e-01,8.69732350e-02,2.35534504e-01,-3.66804423e-03,6.34578615e-02,1.18888207e-01,1.73306838e-01,-2.23084837e-01,3.11029345e-01,1.50213972e-01,1.26926467e-01,2.22220406e-01,8.03737268e-02,-2.36272037e-01,-2.37229124e-01,-2.75685638e-02,1.09734610e-01,1.76417325e-02,-7.61684701e-02,-4.21064585e-01,-1.32453367e-01,-1.48420932e-03,-2.90425450e-01,-2.63174456e-02,-4.19159114e-01,2.73907892e-02,1.66641369e-01,4.80142534e-02,2.89500356e-01,-5.95195033e-02,1.36116818e-01,8.85145180e-03,1.59378856e-01,-4.43025738e-01,7.50153884e-02,-2.52424806e-01,8.80012587e-02,-9.49670970e-02,8.61964673e-02,-6.72384620e-01,-1.40955791e-01,-1.45672217e-01,1.44131288e-01,2.19122782e-01,-1.57336378e-03,-1.74735606e-01,1.47677019e-01,-4.16882038e-02,-9.19305012e-02,6.43156096e-02,-8.77721831e-02,1.00868136e-01,7.13555291e-02,-1.50885120e-01,-4.87634875e-02,-4.17130858e-01,7.49492273e-02,-1.02085680e-01,1.93977714e-01,-7.20476285e-02,-9.10311937e-02,3.71881425e-02,-8.29563260e-01,5.83860986e-02,5.32211065e-02,-2.62783729e-02,-2.25900505e-02,-1.69633418e-01,2.26653814e+00,-1.52698606e-01,2.80429260e-03,-1.16203517e-01,7.72170648e-02,-1.77021936e-01,6.15894571e-02,-1.22856021e-01,1.95974499e-01,-5.78763522e-02,1.20827638e-01,-2.09278110e-02,-6.26046211e-02,1.53843343e-01,2.47602552e-01,-5.37578464e-02,-1.07562125e-01,-5.52491665e-01,1.16041705e-01,
1.49177566e-01,-1.53021470e-01,2.26613477e-01,3.94169912e-02,3.69573325e-01,-7.26781547e-01,-1.37106627e-01,5.98650277e-02,-2.25603804e-01,-4.57515530e-02,1.05070747e-01,-1.69807971e-01,-9.29461122e-02,6.53008595e-02,-2.16137737e-01,-1.18118450e-01,2.81977266e-01,7.59579334e-03,-8.24204981e-02,-2.85976261e-01,1.62337035e-01,2.02286214e-01,-6.70518279e-02,1.96166664e-01,-2.80285239e-01,3.10287833e-01,3.28157358e-02,-6.41000196e-02,2.95402884e-01,3.10508341e-01,1.14128133e-02,-9.65055823e-02,-4.41066958e-02,-2.26457402e-01,-1.85066283e-01,-1.02467142e-01,8.82442817e-02,4.39983159e-01,3.09382863e-02,-2.65137963e-02,-3.62500668e-01,1.18488893e-01,5.59122562e-01,-1.48299798e-01,1.05010726e-01,1.94693238e-01,3.05898726e-01,2.90207684e-01,-2.18779132e-01,1.24611890e+00,-1.86722074e-02,-2.28840694e-01,1.82706475e-01,-8.86613280e-02,2.90405989e-01,1.27592400e-01,-2.78511822e-01,-4.89973985e-02,-9.92077067e-02,-2.15686411e-02,9.57911462e-02,3.33075374e-01,8.39074776e-02,-7.03072548e-02,1.59552153e-02,8.39487929e-03,-9.79766599e-04,2.27132544e-01,3.40844393e-01,-4.02799875e-01,-7.03280151e-01,-2.13031411e-01,-1.94782466e-01,4.78326172e-01,-1.36484861e-01,-2.48030433e-03,3.48207384e-01,-9.88473073e-02,-6.97049797e-02,4.03323621e-02,6.90691769e-02,5.83383478e-02,1.79361805e-01,2.16141596e-01,-1.90104887e-01,-1.05582431e-01,-2.12702975e-02,-8.15060288e-02,6.78396076e-02,-9.86242816e-02,9.01273340e-02,-8.65826085e-02,2.54325747e-01,-8.20809007e-02,-4.25034575e-02,-9.69656464e-03,-1.83451965e-01,1.96811154e-01,-9.63633135e-02,-2.70534039e-01,-2.63180345e-01,1.02952302e-01,-4.93190251e-02,2.90785283e-01,-1.47318631e-01,-1.63846854e-02,-1.25362888e-01,-2.40446717e-01,-1.83735386e-01,-1.42498279e+00,1.54794484e-01,-4.24567349e-02,2.22412162e-02,2.84105465e-02,-2.82865260e-02,-1.20442353e-01,2.86199898e-01,-1.47658065e-01,1.91529877e-02,-1.25066355e-01,-2.04397455e-01,-2.50007480e-01,-1.34022072e-01,1.54468998e-01,-2.77567208e-01,-3.11342329e-01,-8.99689868e-02,-3.52257304e-02,
-3.77040245e-02,7.57114291e-02,2.00743377e-01,-9.21108723e-02,-2.31893614e-01,1.10377595e-01,-2.23468110e-01,3.13248076e-02,1.67222962e-01,2.76334938e-02,1.30790055e-01,2.18234658e-01,1.84389770e-01,-8.68170634e-02,2.99847871e-01,-6.74483404e-02,2.64453087e-02,-3.73595692e-02,4.59925979e-02,-1.32486429e-02,-9.34719220e-02,7.00847328e-01,-1.03535894e-02,-9.05571133e-02,2.55784780e-01,-1.30627111e-01,-3.32404822e-02,2.60730945e-02,-5.09875789e-02,-3.49404663e-02,2.01615855e-01,2.33763903e-01,-2.48772874e-01,6.51988685e-02,-9.72298756e-02,1.49534538e-01,7.18017146e-02,-1.17491975e-01,2.18549997e-01,2.25377828e-01,-2.06934568e-02,4.69680354e-02,-2.53119785e-02,1.41121209e-01,1.59089670e-01,-1.14390023e-01,-1.77669555e-01,-3.43683027e-02,-1.05286054e-01,2.94984937e-01,-4.04036105e-01,1.04764231e-01,1.53502733e-01,3.86904150e-01,1.02206573e-01,2.11203307e-01,-2.96438113e-02,-5.33277094e-02,-1.03800975e-01,4.67355549e-02,2.47860759e-01,2.96159685e-01,-2.36064792e-01,-8.96347389e-02,-6.27138317e-02,-8.26605875e-03,-1.78846754e-02,1.47444820e-02,-1.14638358e-01,1.62768140e-01,-1.12499379e-01,1.12665191e-01,-1.54718906e-02,-2.11193666e-01,-1.57026336e-01,1.79795250e-01,-1.08719945e-01,-1.06546551e-01,-3.30223367e-02,-2.09969897e-02,8.54590535e-02,-5.87442331e-02,-8.75314027e-02,2.82010324e-02,3.46621983e-02,1.58746191e-03,9.48369056e-02,3.73390108e-01,-1.28010020e-01,3.33300829e-02,-4.83458340e-02,7.07017854e-02,-2.75328681e-02,-6.16726168e-02,4.43321355e-02,1.49058387e-01,4.72686701e-02,-1.92072410e-02,-1.26497477e-01,1.48479536e-01,-1.08888827e-01,-1.17227837e-01,-3.94449115e-01,-1.48716390e-01,-5.39133372e-03,1.22644104e-01,-2.26244375e-01,-3.81110758e-02,3.84954736e-02,5.36162853e-01,-2.24579901e-01,4.06256355e-02,-3.04752514e-02,-1.36699900e-01,-3.65885794e-01,-3.23063657e-02,-1.33893654e-01,4.38514128e-02,4.46815975e-02,1.58197269e-01,-1.19623616e-02,9.50320512e-02,1.67253658e-01,-8.79973695e-02,-1.08386047e-01,1.86424538e-01,-1.76505834e-01,-2.54445016e-01,
2.24528443e-02,-1.69300124e-01,-2.79373792e-03,-3.43374275e-02,-2.03276891e-03,-2.64479423e+00,-5.89769818e-02,2.96306074e-01,-2.94407398e-01,-7.39519149e-02,-1.37508690e-01,-1.53482392e-01,7.40354657e-02,8.60586241e-02,-6.54598251e-02,-4.88037802e-02,1.48750618e-01,3.81213993e-01,-2.33789207e-03,-1.69826090e-01,-6.60602674e-02,-3.31036472e+00,8.81941170e-02,-1.02026604e-01,2.15218067e-01,1.95526198e-01,-6.63351193e-02,2.73489524e-02,3.45642827e-02,1.56075880e-01,-1.10796593e-01,-2.01281577e-01,5.39804474e-02,-1.70850046e-02,-2.14981623e-02,1.38536915e-01,1.11042500e-01,7.12017417e-02,1.83883965e-01,-2.09551886e-01,-1.14373021e-01,3.18251178e-02,-2.57651638e-02,-7.13744983e-02,-2.19985500e-01,-7.66039267e-02,-5.60137108e-02,1.91373695e-02,-1.00776166e-01,1.58533558e-01,-2.07228586e-02,-1.59390345e-01,-2.61237640e-02,3.64539593e-01,8.36808160e-02,-1.03824742e-01,2.14155391e-01,5.74324876e-02,2.93415654e-02,-2.16623664e-01,-2.24776000e-01,-4.22931790e-01,8.60252231e-02,-2.05283961e-03,-1.36500476e-02,5.60670681e-02,1.67614564e-01,1.69606619e-02,9.08600241e-02,-6.15794659e-01,1.36764636e-02,-1.31361097e-01,-7.02961683e-02,-4.43176806e-01,1.49710193e-01,1.10016115e-01,6.51701316e-02,3.50785367e-02,3.77465449e-02,8.55932664e-03,-1.84554443e-01,-1.45137668e-01,-4.78359982e-02,2.28078932e-01,-7.13080317e-02,-2.69151628e-02,1.05267584e-01,1.86145157e-01,3.45951840e-02,-7.57104158e-02,-1.16153419e-01,-6.74886629e-02,1.34823276e-02,-3.82895507e-02,4.37930375e-02,-2.25985080e-01,-8.23319376e-01,1.28170893e-01,-5.71282022e-02,1.50890470e-01,1.37938529e-01,-9.97380316e-02,8.22389871e-02,1.82124183e-01,-6.59851506e-02,1.20666839e-01,-6.05448745e-02,-1.01303093e-01,2.17660427e-01,-1.86754429e+00,-2.66024083e-01,7.33810058e-03,-1.08951151e-01,1.30708173e-01,-4.97848429e-02,-2.82043051e-02,2.90594585e-02,6.19263016e-02,-5.10788374e-02,-7.05426261e-02,5.16103581e-02,8.31187144e-02,-1.06553011e-01,-4.58627976e-02,-1.00866839e-01,-7.51271984e-03,1.87382787e-01,7.91835412e-02,
-1.51869431e-01,-9.71333385e-02,-3.22291069e-02,-9.79308188e-02,2.94397324e-01,-1.57745647e+00,-1.75164312e-01,-8.18100944e-02,4.45322767e-02,5.75487316e-02,1.41874393e-02,5.53170405e-02,-2.22515270e-01,1.17193848e-01,-7.83919543e-02,1.00456454e-01,-1.92261040e-01,6.28524739e-03,-9.39192399e-02,-2.42058888e-01,-2.35200390e-01,-2.02249622e+00,1.45669401e-01,1.78472668e-01,9.71040949e-02,1.61632106e-01,-2.24867657e-01,2.80634966e-02,-4.42026854e-02,-9.90624204e-02,-4.55882289e-02,-1.40496239e-01,-1.06029622e-01,-1.77157089e-01,-1.48048148e-01,3.09010208e-01,6.84645474e-02,-1.24643981e-01,-3.12388539e-02,-1.65938750e-01,1.69998422e-01,1.91995442e-01,-2.25549981e-01,1.03249133e-01,-1.32255733e-01,-7.92317688e-02,-3.24067250e-02,1.07477317e-02,-8.53733197e-02,6.68831825e-01,-2.28918418e-01,-1.08817210e-02,1.11959390e-01,3.17972302e-01,1.17939599e-01,5.39109930e-02,1.50369808e-01,1.05062060e-01,-4.39138673e-02,1.60773754e-01,-1.00446660e-02,1.57069862e-01,4.81290706e-02,2.18394876e-01,1.39732054e-02,-1.77418202e-01,-5.57616092e-02,1.42845839e-01,-2.43199077e-02,-3.17202568e-01,2.00957075e-01,1.88214734e-01,1.63671240e-01,1.11434385e-02,2.10291779e-04,-2.43243705e-02,6.23978600e-02,4.78426293e-02,-2.18831778e-01,2.95583129e-01,-2.87241757e-01,-1.04311623e-01,1.05434261e-01,-1.40777707e-01,1.65210187e-01,-7.05611184e-02,-1.35207713e-01,5.70693538e-02,1.19384639e-01,-1.02216437e-01,9.36547816e-02,-7.00291097e-02,-2.80294530e-02,-1.01121560e-01,-1.26848161e-01,-1.06404193e-01,-6.81863010e-01,6.81913749e-04,1.65830404e-01,1.27877399e-01,1.63140118e-01,-1.39235079e-01,8.42119083e-02,1.66288584e-01,1.13740183e-01,4.32533361e-02,1.39092892e-01,6.19634278e-02,-8.62890705e-02,-1.64725494e+00,-6.56680688e-02,-1.31202210e-02,-6.80428818e-02,1.91012651e-01,-1.09557964e-01,-8.89610499e-02,-9.88895074e-02,-1.25946745e-01,-2.79961884e-01,-3.16510387e-02,2.01369226e-01,4.46674377e-02,1.16906568e-01,1.42840654e-01,-2.05108047e-01,-1.52081966e-01,-3.21786433e-01,-5.17263375e-02,
3.61823477e-02,1.23394802e-02,-1.39791109e-02,6.48148060e-02,4.90314029e-02,-2.39926434e+00,1.49824033e-02,7.48316050e-02,-4.38595451e-02,1.17989987e-01,-1.41668990e-01,-5.60625941e-02,9.02281627e-02,-1.56716213e-01,-3.45484495e-01,-1.69345945e-01,1.39300048e-01,-5.36903478e-02,-1.55322447e-01,-1.38007432e-01,-9.13410261e-03,-1.72419918e+00,-1.84333220e-01,-5.75079322e-02,1.18372507e-01,1.14491940e-01,3.03805359e-02,1.89267129e-01,-1.39757916e-01,-1.96028993e-01,1.43089825e-02,1.07396580e-01,-1.07566506e-01,-5.56290150e-02,-9.79274511e-02,-1.67271812e-02,1.05653420e-01,-1.64523914e-01,1.92956328e-01,1.30168110e-01,-2.59006582e-03,4.20596786e-02,-2.01606303e-01,1.12342332e-02,-1.14493044e-02,-2.34446488e-02,-2.17345834e-01,-9.65696126e-02,-6.94483817e-02,3.05590928e-01,-4.84564364e-01,-1.76147461e-01,2.65151143e-01,3.59117165e-02,8.97042602e-02,-6.61656186e-02,3.39970030e-02,4.41675857e-02,7.85344318e-02,3.57102603e-02,-1.49487630e-01,4.88769487e-02,7.94202238e-02,1.65861517e-01,5.32933623e-02,3.59228961e-02,-5.47738820e-02,-1.98108077e-01,2.23973952e-03,-8.02291781e-02,7.57183209e-02,6.35415986e-02,5.00032157e-02,7.14017525e-02,-9.80463326e-02,-1.31190959e-02,-1.91048381e-03,2.59974360e-01,-9.60623026e-02,2.23778725e-01,2.86151707e-01,-8.24556798e-02,1.23475179e-01,-1.61738515e-01,-9.99337286e-02,-2.18630269e-01,1.31002575e-01,2.59384904e-02,-2.12011501e-01,2.66502220e-02,2.48879924e-01,1.45885155e-01,-5.48541285e-02,-6.80190250e-02,6.37620613e-02,1.63219857e-03,-4.20964509e-02,5.68919815e-02,1.82455167e-01,-5.57721555e-01,1.46065995e-01,-3.76812220e-02,-8.08237493e-02,-1.04843274e-01,-7.13065267e-02,-2.16051102e-01,5.12806140e-02,1.46348491e-01,-1.55081198e-01,-3.30937624e+00,-2.35383645e-01,-7.17331246e-02,-2.23643100e-03,1.26148522e-01,3.32627743e-02,5.73860034e-02,9.61165428e-02,-2.40822043e-03,7.33111203e-02,1.26761809e-01,3.26538920e-01,4.75763753e-02,-1.91630453e-01,-1.02431871e-01,-1.67615488e-01,3.44728958e-03,2.00773068e-02,-3.25564414e-01,
8.07274431e-02,-2.73309331e-02,-5.06167449e-02,-1.39635190e-01,2.26778924e-01,-1.00499642e+00,1.94012582e-01,3.02557945e-01,-1.31765828e-01,2.64299512e-01,6.58975765e-02,3.59733813e-02,4.82809171e-02,1.45336390e-01,-1.02234527e-01,-2.18307495e-01,-1.12365574e-01,-1.31427437e-01,1.42270848e-01,6.10060573e-01,4.49330397e-02,-3.34666824e+00,-2.12677568e-02,1.18727706e-01,5.57259060e-02,7.55921602e-02,3.42659540e-02,-1.53190613e-01,-1.32587880e-01,-1.19713768e-01,1.52311072e-01,1.67186975e-01,-1.77243516e-01,-2.26252645e-01,1.29217818e-01,2.08871007e-01,8.67290869e-02,-6.03700336e-03,-5.65153621e-02,-1.13117844e-01,1.23356096e-01,5.52912056e-02,-7.49579966e-02,-1.19600862e-01,-3.21001709e-02,1.16529256e-01,-9.42547098e-02,-9.08959210e-02,4.83915694e-02,-3.50604683e-01,3.23802233e-02,-7.43360352e-03,-9.17839818e-03,-2.14290246e-02,3.01261127e-01,1.34522319e-01,3.50690782e-02,3.58576030e-02,-4.41158097e-03,-1.28780171e-01,-2.09902190e-02,-4.61833388e-01,-7.20177516e-02,5.71803115e-02,1.37786016e-01,1.59249604e-01,-6.27272651e-02,-1.26032978e-01,-4.14874777e-02,-1.47637557e-02,-1.27111450e-01,7.35536218e-03,-1.34401247e-01,-2.74292640e-02,3.18679437e-02,7.90372863e-02,3.60731431e-03,-5.73493764e-02,-3.83038484e-02,1.40402876e-02,1.97690263e-01,-2.86148451e-02,-9.02210772e-02,-5.49608655e-02,-4.36086915e-02,-3.07423007e-02,-1.45055577e-01,1.38144016e-01,-6.27644081e-03,-1.81671068e-01,-1.00197330e-01,1.70477703e-02,-1.33792654e-01,-1.29834330e-02,1.15188301e-01,4.61913913e-01,4.67640340e-01,-3.92760597e-02,9.89784226e-02,-7.84685984e-02,1.58498704e-01,4.72868718e-02,1.54377431e-01,-3.53425592e-01,1.12138540e-01,-5.06022312e-02,1.31488740e-01,3.63835581e-02,-1.62801608e-01,-2.25689173e+00,-9.15060192e-02,-1.15975685e-01,3.78125645e-02,1.15722520e-02,-1.64983105e-02,3.76237333e-02,-2.79498190e-01,2.59357095e-02,-2.61022508e-01,5.40885516e-02,-1.89628839e-01,-1.03049189e-01,1.65405869e-01,-3.10877949e-01,-5.65481000e-02,6.41300976e-02,-1.30117368e-02,-3.29661816e-02,
-8.56191963e-02,-1.60036683e-02,1.25140458e-01,-6.90006316e-02,-1.21683627e-01,-9.14350078e-02,5.48477061e-02,6.43512085e-02,-1.55310214e-01,-1.28043175e-01,-1.14407949e-01,-3.11010927e-02,-1.64430384e-02,1.00985490e-01,8.18262435e-03,8.85383114e-02,-5.74560463e-02,7.10080564e-02,-1.22627102e-01,8.96898061e-02,-6.60312325e-02,-1.67307109e-01,-9.05342475e-02,2.71409154e-01,-6.99675456e-02,-1.40339777e-01,-5.07282466e-03,-1.33510530e-01,2.08735585e-01,-1.25476435e-01,-5.92153780e-02,-1.27597094e-01,7.56332949e-02,-2.62264274e-02,-5.01477756e-02,-4.58621681e-02,-4.65183593e-02,1.08804464e-01,8.16433206e-02,5.72470389e-02,-1.79528013e-01,2.37982310e-02,-6.20917194e-02,-1.13846309e-01,-5.85649274e-02,1.00072488e-01,8.40265602e-02,4.15496062e-03,3.42178717e-02,-7.84683786e-03,-1.57668501e-01,-5.77066094e-02,-6.85965270e-02,-4.99044880e-02,3.12698632e-03,9.41719040e-02,-7.48074800e-02,-1.29076004e-01,-4.87925150e-02,-6.63253739e-02,7.24261329e-02,-1.35143250e-01,-1.41212875e-02,-9.38445255e-02,-7.10310116e-02,-5.45595363e-02,-3.50161679e-02,-5.97408712e-02,5.35553247e-02,-1.96903907e-02,1.15122376e-02,-4.66854759e-02,-5.53199947e-02,-6.35810122e-02,8.34260806e-02,9.57919285e-02,1.08706113e-02,-5.14832027e-02,-3.11489254e-02,6.85753450e-02,-4.84672710e-02,-1.96024582e-01,9.11521353e-03,1.10491149e-01,-1.20026588e-01,2.95250192e-02,3.27185169e-02,1.22132353e-01,-2.78754253e-02,6.70365915e-02,1.09887861e-01,-7.80631835e-03,-3.12879562e-01,-6.14714064e-02,-1.75908074e-01,3.60312089e-02,4.12439778e-02,1.36666283e-01,2.49373000e-02,3.05426028e-02,-1.67916641e-01,1.06824553e-02,6.46103770e-02,-6.73114806e-02,-3.62205319e-02,3.31802778e-02,1.06492832e-01,-1.03196137e-01,-8.59396234e-02,6.99661970e-02,1.67401493e-01,8.32331851e-02,-4.47924919e-02,-3.73561271e-02,-4.83831316e-02,-9.05225053e-02,-5.67612723e-02,1.33050280e-02,-4.00819145e-02,-1.65588677e-01,5.08664623e-02,7.79903829e-02,-1.53807819e-01,9.67951640e-02,5.53423502e-02,2.67259106e-02,-2.55866908e-02,-1.51227146e-01,
1.27568468e-01,1.59494001e-02,-1.31816044e-01,1.00656366e-03,1.02380782e-01,1.26709402e+00,9.24637988e-02,1.06387384e-01,-7.49162510e-02,-3.48356664e-02,-6.63189963e-02,4.87870835e-02,-7.16914684e-02,3.85961905e-02,4.51462530e-02,3.06970775e-02,-8.29025432e-02,1.15063630e-01,2.19340716e-02,-8.46258029e-02,1.06996544e-01,-7.46160328e-01,-1.10000148e-01,-1.92465469e-01,3.06856394e-01,-1.03704698e-01,1.09775878e-01,-1.65172797e-02,-1.67882025e-01,-2.48571467e-02,-7.29471445e-02,2.53276643e-03,1.02205956e-02,-1.03045262e-01,7.68353939e-02,1.74171895e-01,-9.36358050e-03,-3.58354002e-01,1.47385985e-01,-1.23863421e-01,4.69924472e-02,7.67168626e-02,4.98502031e-02,1.09076440e-01,5.02012484e-02,2.10211590e-01,1.23855658e-01,1.77830681e-01,1.19420134e-01,-6.97322428e-01,4.96288724e-02,-4.65547256e-02,-2.27683499e-01,5.66430390e-02,7.98944533e-02,1.23995319e-02,8.99890512e-02,1.86100319e-01,-9.54736173e-02,-1.82803184e-01,-6.24386594e-02,-1.07339382e-01,7.50724750e-04,-1.42171502e-01,-8.51608515e-02,-1.33834764e-01,2.09960081e-02,-2.08349869e-01,1.00654803e-01,8.37199762e-02,-1.11903720e-01,-1.24314107e-01,-1.54383192e-02,-1.84525564e-01,-1.12934910e-01,5.94840273e-02,-2.01840684e-01,7.70025712e-04,-6.80377930e-02,1.13488279e-01,9.11147296e-02,1.61146708e-02,3.05152908e-02,9.84805375e-02,1.81869090e-01,1.08877279e-01,8.39713588e-02,9.94427428e-02,5.44169284e-02,-5.76172248e-02,1.21447928e-02,-3.44900344e-03,-1.41123205e-01,-4.46877033e-02,-1.20528571e-01,5.93710542e-02,-4.49068338e-01,-9.94481221e-02,-1.51403561e-01,-1.34087965e-01,4.95207459e-02,-7.74683803e-02,-6.86168671e-03,1.01681940e-01,-4.67074588e-02,8.15600008e-02,5.32947890e-02,2.32642349e-02,2.32925024e-02,-1.82237595e-01,3.61573580e-03,-2.30435193e-01,9.55611914e-02,9.47518423e-02,-9.36444923e-02,1.83316618e-01,6.68639392e-02,3.43896449e-01,-2.16253608e-01,4.90044206e-02,-3.25646549e-01,1.98370531e-01,-3.66712920e-02,-3.24730319e-03,-9.27707180e-02,2.97518889e-03,-4.25063185e-02,9.11836550e-02,
-2.83285137e-02,8.94615501e-02,-2.42251068e-01,-6.59428015e-02,5.51341809e-02,4.11698103e+00,4.99584004e-02,-1.33570015e-01,1.93406269e-01,-1.40119880e-01,-1.00418225e-01,-4.40269746e-02,-9.98563692e-03,8.80931169e-02,-1.34718448e-01,-2.05045771e-02,1.11417405e-01,-2.86048260e-02,-7.32104555e-02,6.76827878e-02,-1.43546298e-01,-1.61188507e+00,-1.78228453e-01,-5.08191921e-02,8.68444890e-02,-5.07542398e-03,9.22850370e-02,-2.05405384e-01,2.28287112e-02,-7.50771984e-02,4.15835083e-02,-1.16048880e-01,4.45648544e-02,-2.93366145e-02,2.06980884e-01,3.24760415e-02,-2.55227182e-02,4.16434817e-02,1.82082146e-01,-3.19066122e-02,-2.40358263e-02,-1.05195500e-01,1.12507783e-01,8.28389078e-02,7.78541341e-02,-9.46293473e-02,-7.12064505e-02,5.39724668e-03,-2.79231608e-04,-1.90613583e-01,1.38408467e-01,2.17566863e-01,3.65650505e-02,1.10519767e-01,-1.34162262e-01,-3.13095264e-02,3.08575165e-02,-1.66296139e-01,-6.00040071e-02,9.53363180e-02,-1.95108190e-01,1.62596211e-01,-5.66688851e-02,2.55762599e-02,3.47166397e-02,1.53835982e-01,-1.50996327e-01,2.49642506e-02,5.58623821e-02,-4.45786044e-02,1.27748102e-01,-1.80326402e-01,-2.34076262e-01,3.96722853e-01,-2.36641482e-01,-5.16707264e-02,-1.13787372e-02,1.04275323e-01,5.48106611e-01,-9.73519981e-02,1.22970998e-01,-5.59909493e-02,1.49292707e-01,-7.84309730e-02,2.67157942e-01,-1.53517008e-01,-7.85599872e-02,-5.95956072e-02,6.29444942e-02,-3.71607840e-02,1.45858139e-01,2.21954241e-01,5.18287718e-02,-1.04904138e-01,6.31683916e-02,1.84766442e-01,5.94050169e-01,1.51860386e-01,4.44063395e-02,-2.28620961e-01,-1.27199842e-02,2.74702907e-01,2.16422558e-01,-2.38463521e-01,-6.58157989e-02,-1.52699113e-01,1.36225283e-01,-9.17087942e-02,-4.72264029e-02,-1.39857781e+00,1.70965567e-01,5.36266714e-02,1.36033043e-01,9.15758386e-02,5.24844229e-01,-5.46962954e-02,-4.82963994e-02,1.46275565e-01,9.03736204e-02,-7.56164566e-02,7.22646574e-03,-2.88416892e-01,-2.42536977e-01,-4.66498993e-02,1.52634472e-01,8.03670660e-02,3.84835541e-01,1.28966898e-01,
