{
    "class_name": "Functional",
    "config": {
        "name": "model_4",
        "trainable": true,
        "layers": [
            {
                "class_name": "InputLayer",
                "config": {
                    "batch_input_shape": [
                        null,
                        10,
                        10,
                        3
                    ],
                    "dtype": "float32",
                    "sparse": false,
                    "ragged": false,
                    "name": "input_5",
                    "idx": 0,
                    "size": 300,
                    "input_shape": [
                        null,
                        3,
                        10,
                        10
                    ],
                    "output_shape": [
                        null,
                        3,
                        10,
                        10
                    ],
                    "prev_layer_idx": [
                        -1
                    ]
                },
                "name": "input_5",
                "inbound_nodes": []
            },
            {
                "class_name": "Conv2D",
                "config": {
                    "name": "conv2d_1",
                    "trainable": true,
                    "dtype": "float32",
                    "filters": 3,
                    "kernel_size": [
                        3,
                        3
                    ],
                    "strides": [
                        1,
                        1
                    ],
                    "padding": "same",
                    "data_format": "channels_last",
                    "dilation_rate": [
                        1,
                        1
                    ],
                    "groups": 1,
                    "activation": "linear",
                    "use_bias": true,
                    "kernel_initializer": {
                        "class_name": "GlorotUniform",
                        "config": {
                            "seed": null
                        }
                    },
                    "bias_initializer": {
                        "class_name": "HeNormal",
                        "config": {
                            "seed": null
                        }
                    },
                    "kernel_regularizer": null,
                    "bias_regularizer": null,
                    "activity_regularizer": null,
                    "kernel_constraint": null,
                    "bias_constraint": null,
                    "idx": 1,
                    "size": 300,
                    "input_shape": [
                        null,
                        3,
                        10,
                        10
                    ],
                    "output_shape": [
                        null,
                        3,
                        10,
                        10
                    ],
                    "prev_layer_idx": [
                        0
                    ]
                },
                "name": "conv2d_1",
                "inbound_nodes": [
                    [
                        [
                            "input_5",
                            0,
                            0,
                            {}
                        ]
                    ]
                ],
                "weights": [
                    [
                        [
                            [
                                -0.08911077678203583,
                                -0.00843086838722229,
                                0.024115651845932007
                            ],
                            [
                                0.2126261293888092,
                                -0.06238451600074768,
                                0.24655470252037048
                            ],
                            [
                                0.31472423672676086,
                                -0.2149297446012497,
                                -0.3139440417289734
                            ]
                        ],
                        [
                            [
                                -0.01173749566078186,
                                0.09020623564720154,
                                -0.29782724380493164
                            ],
                            [
                                0.16955819725990295,
                                -0.01292523741722107,
                                -0.2987840175628662
                            ],
                            [
                                0.26776137948036194,
                                -0.06790509819984436,
                                0.14972224831581116
                            ]
                        ],
                        [
                            [
                                -0.24815082550048828,
                                -0.005535215139389038,
                                -0.10217246413230896
                            ],
                            [
                                0.028681278228759766,
                                -0.22999653220176697,
                                -0.28716492652893066
                            ],
                            [
                                0.22060194611549377,
                                0.03390058875083923,
                                -0.05901893973350525
                            ]
                        ]
                    ],
                    [
                        [
                            [
                                -0.19728264212608337,
                                0.0849970281124115,
                                -0.2007211148738861
                            ],
                            [
                                0.14048686623573303,
                                -0.006187766790390015,
                                -0.3094260096549988
                            ],
                            [
                                0.2866068184375763,
                                -0.15036606788635254,
                                -0.29901427030563354
                            ]
                        ],
                        [
                            [
                                0.23173263669013977,
                                0.2060728371143341,
                                0.04841136932373047
                            ],
                            [
                                0.19863876700401306,
                                -0.10105745494365692,
                                0.05472254753112793
                            ],
                            [
                                0.2808874547481537,
                                -0.01896008849143982,
                                0.25514164566993713
                            ]
                        ],
                        [
                            [
                                -0.19611868262290955,
                                0.1651236116886139,
                                0.1722906529903412
                            ],
                            [
                                0.10760894417762756,
                                0.04804912209510803,
                                -0.1357038915157318
                            ],
                            [
                                0.2165023386478424,
                                -0.32000836730003357,
                                -0.08124390244483948
                            ]
                        ]
                    ],
                    [
                        [
                            [
                                -0.1421525478363037,
                                0.012610912322998047,
                                -0.12838976085186005
                            ],
                            [
                                0.29206326603889465,
                                -0.2996353507041931,
                                0.009123891592025757
                            ],
                            [
                                -0.10022282600402832,
                                0.06791806221008301,
                                0.1515304148197174
                            ]
                        ],
                        [
                            [
                                0.0010055005550384521,
                                0.31696799397468567,
                                -0.1645306795835495
                            ],
                            [
                                0.1496593952178955,
                                0.19476351141929626,
                                -0.15123391151428223
                            ],
                            [
                                -0.14742812514305115,
                                0.03160548210144043,
                                0.04247346520423889
                            ]
                        ],
                        [
                            [
                                -0.2671995162963867,
                                0.27804628014564514,
                                0.21267852187156677
                            ],
                            [
                                0.0863044261932373,
                                -0.1394767016172409,
                                -0.14027738571166992
                            ],
                            [
                                0.28900304436683655,
                                0.22887983918190002,
                                -0.1148730218410492
                            ]
                        ]
                    ]
                ],
                "biases": [
                    -0.966182291507721,
                    -0.21053671836853027,
                    0.9376962184906006
                ]
            },
            {
                "class_name": "Conv2D",
                "config": {
                    "name": "conv2d_2",
                    "trainable": true,
                    "dtype": "float32",
                    "filters": 3,
                    "kernel_size": [
                        3,
                        3
                    ],
                    "strides": [
                        1,
                        1
                    ],
                    "padding": "same",
                    "data_format": "channels_last",
                    "dilation_rate": [
                        1,
                        1
                    ],
                    "groups": 1,
                    "activation": "linear",
                    "use_bias": true,
                    "kernel_initializer": {
                        "class_name": "GlorotUniform",
                        "config": {
                            "seed": null
                        }
                    },
                    "bias_initializer": {
                        "class_name": "HeNormal",
                        "config": {
                            "seed": null
                        }
                    },
                    "kernel_regularizer": null,
                    "bias_regularizer": null,
                    "activity_regularizer": null,
                    "kernel_constraint": null,
                    "bias_constraint": null,
                    "idx": 2,
                    "size": 300,
                    "input_shape": [
                        null,
                        3,
                        10,
                        10
                    ],
                    "output_shape": [
                        null,
                        3,
                        10,
                        10
                    ],
                    "prev_layer_idx": [
                        0
                    ]
                },
                "name": "conv2d_2",
                "inbound_nodes": [
                    [
                        [
                            "input_5",
                            0,
                            0,
                            {}
                        ]
                    ]
                ],
                "weights": [
                    [
                        [
                            [
                                0.1629098355770111,
                                0.10638323426246643,
                                0.262851744890213
                            ],
                            [
                                -0.052988141775131226,
                                0.17296507954597473,
                                -0.17242185771465302
                            ],
                            [
                                -0.024887651205062866,
                                -0.052305132150650024,
                                0.05178952217102051
                            ]
                        ],
                        [
                            [
                                -0.24029922485351562,
                                0.12739205360412598,
                                -0.22473089396953583
                            ],
                            [
                                0.02823987603187561,
                                0.09403428435325623,
                                -0.037773460149765015
                            ],
                            [
                                0.21108964085578918,
                                0.17929783463478088,
                                0.3123995363712311
                            ]
                        ],
                        [
                            [
                                0.2964407503604889,
                                0.0823276937007904,
                                -0.20493817329406738
                            ],
                            [
                                0.006812006235122681,
                                0.025410175323486328,
                                -0.3182141184806824
                            ],
                            [
                                0.1597306728363037,
                                0.014827162027359009,
                                -0.28263992071151733
                            ]
                        ]
                    ],
                    [
                        [
                            [
                                -0.288163423538208,
                                0.09845772385597229,
                                0.3314110338687897
                            ],
                            [
                                0.16120100021362305,
                                0.3097224533557892,
                                -0.1551610678434372
                            ],
                            [
                                0.3087102472782135,
                                -0.1356259286403656,
                                -0.06978440284729004
                            ]
                        ],
                        [
                            [
                                -0.19857820868492126,
                                -0.2890634536743164,
                                0.17075112462043762
                            ],
                            [
                                0.01920899748802185,
                                -0.17595498263835907,
                                0.04694142937660217
                            ],
                            [
                                -0.3011710047721863,
                                0.14234495162963867,
                                0.04751601815223694
                            ]
                        ],
                        [
                            [
                                -0.03431186079978943,
                                0.07016023993492126,
                                -0.3068334460258484
                            ],
                            [
                                -0.026924043893814087,
                                -0.2695774435997009,
                                0.15381622314453125
                            ],
                            [
                                0.27252867817878723,
                                -0.06928619742393494,
                                -0.2515547275543213
                            ]
                        ]
                    ],
                    [
                        [
                            [
                                0.04093638062477112,
                                0.2811409533023834,
                                0.11375132203102112
                            ],
                            [
                                0.009027332067489624,
                                0.1427469253540039,
                                -0.09354822337627411
                            ],
                            [
                                -0.3165229260921478,
                                -0.29096055030822754,
                                -0.019411712884902954
                            ]
                        ],
                        [
                            [
                                -0.1346932351589203,
                                -0.19597458839416504,
                                -0.09639725089073181
                            ],
                            [
                                0.29560068249702454,
                                -0.1484757363796234,
                                -0.24297603964805603
                            ],
                            [
                                -0.0071395933628082275,
                                -0.23318156599998474,
                                0.07761311531066895
                            ]
                        ],
                        [
                            [
                                -0.10811114311218262,
                                0.2910228669643402,
                                0.17425569891929626
                            ],
                            [
                                -0.05627712607383728,
                                -0.30960750579833984,
                                -0.03015342354774475
                            ],
                            [
                                0.11723247170448303,
                                0.07632908225059509,
                                0.11218079924583435
                            ]
                        ]
                    ]
                ],
                "biases": [
                    -0.028115438297390938,
                    1.2873337268829346,
                    0.15390218794345856
                ]
            },
            {
                "class_name": "Concatenate",
                "config": {
                    "name": "concatenate",
                    "trainable": true,
                    "dtype": "float32",
                    "axis": 3,
                    "idx": 3,
                    "size": 600,
                    "input_shape": [
                        [
                            null,
                            3,
                            10,
                            10
                        ],
                        [
                            null,
                            3,
                            10,
                            10
                        ]
                    ],
                    "output_shape": [
                        null,
                        6,
                        10,
                        10
                    ],
                    "prev_layer_idx": [
                        1,
                        2
                    ]
                },
                "name": "concatenate",
                "inbound_nodes": [
                    [
                        [
                            "conv2d_1",
                            0,
                            0,
                            {}
                        ],
                        [
                            "conv2d_2",
                            0,
                            0,
                            {}
                        ]
                    ]
                ]
            }
        ],
        "input_layers": [
            [
                "input_5",
                0,
                0
            ]
        ],
        "output_layers": [
            [
                "concatenate",
                0,
                0
            ]
        ],
        "data_format": "channels_last"
    },
    "keras_version": "2.12.0",
    "backend": "tensorflow"
}