{
    "class_name": "Functional",
    "config": {
        "name": "model_3",
        "trainable": true,
        "layers": [
            {
                "class_name": "InputLayer",
                "config": {
                    "batch_input_shape": [
                        null,
                        10,
                        10,
                        3
                    ],
                    "dtype": "float32",
                    "sparse": false,
                    "ragged": false,
                    "name": "input_4",
                    "idx": 0,
                    "size": 300,
                    "input_shape": [
                        null,
                        3,
                        10,
                        10
                    ],
                    "output_shape": [
                        null,
                        3,
                        10,
                        10
                    ],
                    "prev_layer_idx": [
                        -1
                    ]
                },
                "name": "input_4",
                "inbound_nodes": []
            },
            {
                "class_name": "Conv2D",
                "config": {
                    "name": "conv2d",
                    "trainable": true,
                    "dtype": "float32",
                    "filters": 3,
                    "kernel_size": [
                        3,
                        3
                    ],
                    "strides": [
                        1,
                        1
                    ],
                    "padding": "same",
                    "data_format": "channels_last",
                    "dilation_rate": [
                        1,
                        1
                    ],
                    "groups": 1,
                    "activation": "linear",
                    "use_bias": true,
                    "kernel_initializer": {
                        "class_name": "GlorotUniform",
                        "config": {
                            "seed": null
                        }
                    },
                    "bias_initializer": {
                        "class_name": "HeNormal",
                        "config": {
                            "seed": null
                        }
                    },
                    "kernel_regularizer": null,
                    "bias_regularizer": null,
                    "activity_regularizer": null,
                    "kernel_constraint": null,
                    "bias_constraint": null,
                    "idx": 1,
                    "size": 300,
                    "input_shape": [
                        null,
                        3,
                        10,
                        10
                    ],
                    "output_shape": [
                        null,
                        3,
                        10,
                        10
                    ],
                    "prev_layer_idx": [
                        0
                    ]
                },
                "name": "conv2d",
                "inbound_nodes": [
                    [
                        [
                            "input_4",
                            0,
                            0,
                            {}
                        ]
                    ]
                ],
                "weights": [
                    [
                        [
                            [
                                -0.23738448321819305,
                                0.11489763855934143,
                                0.0634465217590332
                            ],
                            [
                                0.2767193615436554,
                                -0.07494997978210449,
                                -0.24496349692344666
                            ],
                            [
                                -0.20367908477783203,
                                -0.1522057056427002,
                                -0.08143138885498047
                            ]
                        ],
                        [
                            [
                                -0.31758421659469604,
                                0.08474525809288025,
                                0.26931455731391907
                            ],
                            [
                                -0.00788077712059021,
                                -0.2306937426328659,
                                0.2417672574520111
                            ],
                            [
                                -0.30025529861450195,
                                -0.04423132538795471,
                                -0.18197958171367645
                            ]
                        ],
                        [
                            [
                                0.14947709441184998,
                                0.017970949411392212,
                                0.10757073760032654
                            ],
                            [
                                -0.2683374285697937,
                                -0.12032485008239746,
                                0.06810355186462402
                            ],
                            [
                                -0.16063222289085388,
                                0.07391944527626038,
                                -0.3278685510158539
                            ]
                        ]
                    ],
                    [
                        [
                            [
                                0.11972507834434509,
                                -0.030550330877304077,
                                -0.05063548684120178
                            ],
                            [
                                -0.26489806175231934,
                                0.18187490105628967,
                                -0.07297816872596741
                            ],
                            [
                                0.03096899390220642,
                                0.11177611351013184,
                                -0.050492286682128906
                            ]
                        ],
                        [
                            [
                                0.025666236877441406,
                                0.14760875701904297,
                                -0.06372776627540588
                            ],
                            [
                                -0.09568533301353455,
                                0.09098267555236816,
                                0.28513041138648987
                            ],
                            [
                                0.1767784059047699,
                                -0.17233499884605408,
                                -0.22304844856262207
                            ]
                        ],
                        [
                            [
                                0.22683104872703552,
                                -0.18149623274803162,
                                -0.27594003081321716
                            ],
                            [
                                -0.17064151167869568,
                                0.1968388855457306,
                                -0.3287394046783447
                            ],
                            [
                                0.21062782406806946,
                                0.11407199501991272,
                                -0.25356802344322205
                            ]
                        ]
                    ],
                    [
                        [
                            [
                                -0.11251378059387207,
                                -0.04506310820579529,
                                -0.15301847457885742
                            ],
                            [
                                0.2577679455280304,
                                -0.23691360652446747,
                                -0.09738080203533173
                            ],
                            [
                                -0.19564740359783173,
                                -0.20657674968242645,
                                0.18939271569252014
                            ]
                        ],
                        [
                            [
                                -0.07929602265357971,
                                -0.16391460597515106,
                                0.04115518927574158
                            ],
                            [
                                -0.16373929381370544,
                                0.07173380255699158,
                                -0.25033754110336304
                            ],
                            [
                                -0.19619354605674744,
                                -0.3274196982383728,
                                -0.24079656600952148
                            ]
                        ],
                        [
                            [
                                0.11211594939231873,
                                -0.008067041635513306,
                                0.06756234169006348
                            ],
                            [
                                0.009555190801620483,
                                0.1600862443447113,
                                -0.13999676704406738
                            ],
                            [
                                0.1842757761478424,
                                0.21223291754722595,
                                -0.3286099433898926
                            ]
                        ]
                    ]
                ],
                "biases": [
                    -0.29391372203826904,
                    -0.5218281745910645,
                    -0.8305351734161377
                ]
            },
            {
                "class_name": "Conv2D",
                "config": {
                    "name": "conv2d_1",
                    "trainable": true,
                    "dtype": "float32",
                    "filters": 3,
                    "kernel_size": [
                        3,
                        3
                    ],
                    "strides": [
                        1,
                        1
                    ],
                    "padding": "same",
                    "data_format": "channels_last",
                    "dilation_rate": [
                        1,
                        1
                    ],
                    "groups": 1,
                    "activation": "linear",
                    "use_bias": true,
                    "kernel_initializer": {
                        "class_name": "GlorotUniform",
                        "config": {
                            "seed": null
                        }
                    },
                    "bias_initializer": {
                        "class_name": "HeNormal",
                        "config": {
                            "seed": null
                        }
                    },
                    "kernel_regularizer": null,
                    "bias_regularizer": null,
                    "activity_regularizer": null,
                    "kernel_constraint": null,
                    "bias_constraint": null,
                    "idx": 2,
                    "size": 300,
                    "input_shape": [
                        null,
                        3,
                        10,
                        10
                    ],
                    "output_shape": [
                        null,
                        3,
                        10,
                        10
                    ],
                    "prev_layer_idx": [
                        0
                    ]
                },
                "name": "conv2d_1",
                "inbound_nodes": [
                    [
                        [
                            "input_4",
                            0,
                            0,
                            {}
                        ]
                    ]
                ],
                "weights": [
                    [
                        [
                            [
                                0.044451236724853516,
                                -0.13035249710083008,
                                -0.2659992575645447
                            ],
                            [
                                -0.3166760802268982,
                                -0.08005204796791077,
                                0.2078188955783844
                            ],
                            [
                                -0.02717757225036621,
                                0.11760726571083069,
                                -0.10255448520183563
                            ]
                        ],
                        [
                            [
                                0.09379768371582031,
                                -0.2268812656402588,
                                -0.08572635054588318
                            ],
                            [
                                0.06938815116882324,
                                0.13873767852783203,
                                -0.09125201404094696
                            ],
                            [
                                -0.20335674285888672,
                                0.01552233099937439,
                                -0.002569347620010376
                            ]
                        ],
                        [
                            [
                                -0.14345455169677734,
                                -0.23353919386863708,
                                0.3170970380306244
                            ],
                            [
                                0.13352885842323303,
                                -0.2734300494194031,
                                -0.2047038972377777
                            ],
                            [
                                -0.31946367025375366,
                                0.02481064200401306,
                                -0.21902728080749512
                            ]
                        ]
                    ],
                    [
                        [
                            [
                                0.3046840727329254,
                                0.291433721780777,
                                -0.2064685821533203
                            ],
                            [
                                -0.3080483376979828,
                                -0.004517465829849243,
                                -0.09863750636577606
                            ],
                            [
                                0.21505454182624817,
                                0.32825222611427307,
                                -0.04802146553993225
                            ]
                        ],
                        [
                            [
                                -0.03553548455238342,
                                -0.23036012053489685,
                                0.23075976967811584
                            ],
                            [
                                -0.04247903823852539,
                                -0.12642526626586914,
                                -0.1544688642024994
                            ],
                            [
                                0.02706637978553772,
                                -0.2970357835292816,
                                0.177011638879776
                            ]
                        ],
                        [
                            [
                                -0.06952333450317383,
                                -0.039024025201797485,
                                -0.25683945417404175
                            ],
                            [
                                0.29372552037239075,
                                -0.008591890335083008,
                                -0.17897073924541473
                            ],
                            [
                                -0.23622004687786102,
                                0.049978017807006836,
                                0.2412225306034088
                            ]
                        ]
                    ],
                    [
                        [
                            [
                                0.291860967874527,
                                0.20808091759681702,
                                -0.20754878222942352
                            ],
                            [
                                -0.13962817192077637,
                                0.06560230255126953,
                                0.01785174012184143
                            ],
                            [
                                0.06957325339317322,
                                -0.07776585221290588,
                                0.057770490646362305
                            ]
                        ],
                        [
                            [
                                0.23600128293037415,
                                0.06991147994995117,
                                -0.25990724563598633
                            ],
                            [
                                -0.15827345848083496,
                                0.2131117284297943,
                                0.20031681656837463
                            ],
                            [
                                -0.20998382568359375,
                                -0.23818986117839813,
                                0.31578829884529114
                            ]
                        ],
                        [
                            [
                                0.16233143210411072,
                                0.16523638367652893,
                                0.2692383825778961
                            ],
                            [
                                0.2443341314792633,
                                0.27556195855140686,
                                -0.15565547347068787
                            ],
                            [
                                0.29799017310142517,
                                -0.2681121230125427,
                                -0.11960062384605408
                            ]
                        ]
                    ]
                ],
                "biases": [
                    0.9432896971702576,
                    0.15485073626041412,
                    1.4942928552627563
                ]
            },
            {
                "class_name": "Minimum",
                "config": {
                    "name": "minimum",
                    "trainable": true,
                    "dtype": "float32",
                    "idx": 3,
                    "size": 300,
                    "input_shape": [
                        [
                            null,
                            3,
                            10,
                            10
                        ],
                        [
                            null,
                            3,
                            10,
                            10
                        ]
                    ],
                    "output_shape": [
                        null,
                        3,
                        10,
                        10
                    ],
                    "prev_layer_idx": [
                        1,
                        2
                    ]
                },
                "name": "minimum",
                "inbound_nodes": [
                    [
                        [
                            "conv2d",
                            0,
                            0,
                            {}
                        ],
                        [
                            "conv2d_1",
                            0,
                            0,
                            {}
                        ]
                    ]
                ]
            }
        ],
        "input_layers": [
            [
                "input_4",
                0,
                0
            ]
        ],
        "output_layers": [
            [
                "minimum",
                0,
                0
            ]
        ],
        "data_format": "channels_last"
    },
    "keras_version": "2.12.0",
    "backend": "tensorflow"
}