{
    "class_name": "Functional",
    "config": {
        "name": "model_6",
        "trainable": true,
        "layers": [
            {
                "class_name": "InputLayer",
                "config": {
                    "batch_input_shape": [
                        null,
                        10,
                        10,
                        3
                    ],
                    "dtype": "float32",
                    "sparse": false,
                    "ragged": false,
                    "name": "input_7",
                    "idx": 0,
                    "size": 300,
                    "input_shape": [
                        null,
                        3,
                        10,
                        10
                    ],
                    "output_shape": [
                        null,
                        3,
                        10,
                        10
                    ],
                    "prev_layer_idx": [
                        -1
                    ]
                },
                "name": "input_7",
                "inbound_nodes": []
            },
            {
                "class_name": "Conv2D",
                "config": {
                    "name": "conv2d_5",
                    "trainable": true,
                    "dtype": "float32",
                    "filters": 3,
                    "kernel_size": [
                        3,
                        3
                    ],
                    "strides": [
                        1,
                        1
                    ],
                    "padding": "same",
                    "data_format": "channels_last",
                    "dilation_rate": [
                        1,
                        1
                    ],
                    "groups": 1,
                    "activation": "linear",
                    "use_bias": true,
                    "kernel_initializer": {
                        "class_name": "GlorotUniform",
                        "config": {
                            "seed": null
                        }
                    },
                    "bias_initializer": {
                        "class_name": "HeNormal",
                        "config": {
                            "seed": null
                        }
                    },
                    "kernel_regularizer": null,
                    "bias_regularizer": null,
                    "activity_regularizer": null,
                    "kernel_constraint": null,
                    "bias_constraint": null,
                    "idx": 1,
                    "size": 300,
                    "input_shape": [
                        null,
                        3,
                        10,
                        10
                    ],
                    "output_shape": [
                        null,
                        3,
                        10,
                        10
                    ],
                    "prev_layer_idx": [
                        0
                    ]
                },
                "name": "conv2d_5",
                "inbound_nodes": [
                    [
                        [
                            "input_7",
                            0,
                            0,
                            {}
                        ]
                    ]
                ],
                "weights": [
                    [
                        [
                            [
                                0.0675860345363617,
                                -0.25417155027389526,
                                0.29575762152671814
                            ],
                            [
                                0.031069904565811157,
                                -0.15299734473228455,
                                -0.26949867606163025
                            ],
                            [
                                0.3233354985713959,
                                0.08516311645507812,
                                -0.13869540393352509
                            ]
                        ],
                        [
                            [
                                -0.1464456021785736,
                                0.11533084511756897,
                                0.17965129017829895
                            ],
                            [
                                -0.2645479142665863,
                                -0.3063701093196869,
                                0.10138320922851562
                            ],
                            [
                                -0.09551732242107391,
                                0.14560088515281677,
                                0.23214206099510193
                            ]
                        ],
                        [
                            [
                                -0.2803192138671875,
                                0.3067157566547394,
                                0.15838226675987244
                            ],
                            [
                                -0.21689264476299286,
                                -0.13101236522197723,
                                -0.23153719305992126
                            ],
                            [
                                0.19046929478645325,
                                -0.330915629863739,
                                -0.21282196044921875
                            ]
                        ]
                    ],
                    [
                        [
                            [
                                -0.31987351179122925,
                                -0.12303678691387177,
                                0.24160465598106384
                            ],
                            [
                                -0.16119050979614258,
                                0.2233429253101349,
                                0.31138548254966736
                            ],
                            [
                                -0.18953347206115723,
                                -0.049199819564819336,
                                0.2525315582752228
                            ]
                        ],
                        [
                            [
                                0.11699071526527405,
                                -0.2910495698451996,
                                -0.25202450156211853
                            ],
                            [
                                -0.08837485313415527,
                                -0.2277672290802002,
                                0.22862353920936584
                            ],
                            [
                                -0.07661595940589905,
                                -0.2234501838684082,
                                -0.2458643913269043
                            ]
                        ],
                        [
                            [
                                0.31977012753486633,
                                0.011826127767562866,
                                0.07370352745056152
                            ],
                            [
                                0.22495785355567932,
                                0.33157578110694885,
                                -0.2366601675748825
                            ],
                            [
                                -0.1594020575284958,
                                -0.256946325302124,
                                0.1749366819858551
                            ]
                        ]
                    ],
                    [
                        [
                            [
                                -0.13826784491539001,
                                0.011264711618423462,
                                0.16527080535888672
                            ],
                            [
                                -0.24886147677898407,
                                0.07541528344154358,
                                0.2592727243900299
                            ],
                            [
                                -0.02561935782432556,
                                0.24596348404884338,
                                -0.1280878484249115
                            ]
                        ],
                        [
                            [
                                -0.22578661143779755,
                                0.16065764427185059,
                                -0.3182191848754883
                            ],
                            [
                                0.09657898545265198,
                                0.1702333390712738,
                                -0.06564974784851074
                            ],
                            [
                                -0.04924997687339783,
                                0.11632657051086426,
                                -0.305037260055542
                            ]
                        ],
                        [
                            [
                                -0.06874147057533264,
                                0.32067742943763733,
                                -0.22154498100280762
                            ],
                            [
                                -0.17242512106895447,
                                0.026733070611953735,
                                0.010866552591323853
                            ],
                            [
                                0.15801158547401428,
                                0.18079164624214172,
                                -0.09041842818260193
                            ]
                        ]
                    ]
                ],
                "biases": [
                    -0.024039119482040405,
                    0.24963895976543427,
                    -0.5946205854415894
                ]
            },
            {
                "class_name": "Conv2D",
                "config": {
                    "name": "conv2d_6",
                    "trainable": true,
                    "dtype": "float32",
                    "filters": 3,
                    "kernel_size": [
                        3,
                        3
                    ],
                    "strides": [
                        1,
                        1
                    ],
                    "padding": "same",
                    "data_format": "channels_last",
                    "dilation_rate": [
                        1,
                        1
                    ],
                    "groups": 1,
                    "activation": "linear",
                    "use_bias": true,
                    "kernel_initializer": {
                        "class_name": "GlorotUniform",
                        "config": {
                            "seed": null
                        }
                    },
                    "bias_initializer": {
                        "class_name": "HeNormal",
                        "config": {
                            "seed": null
                        }
                    },
                    "kernel_regularizer": null,
                    "bias_regularizer": null,
                    "activity_regularizer": null,
                    "kernel_constraint": null,
                    "bias_constraint": null,
                    "idx": 2,
                    "size": 300,
                    "input_shape": [
                        null,
                        3,
                        10,
                        10
                    ],
                    "output_shape": [
                        null,
                        3,
                        10,
                        10
                    ],
                    "prev_layer_idx": [
                        0
                    ]
                },
                "name": "conv2d_6",
                "inbound_nodes": [
                    [
                        [
                            "input_7",
                            0,
                            0,
                            {}
                        ]
                    ]
                ],
                "weights": [
                    [
                        [
                            [
                                0.3188702166080475,
                                0.19922098517417908,
                                -0.18613123893737793
                            ],
                            [
                                0.10715547204017639,
                                0.02775779366493225,
                                -0.15930390357971191
                            ],
                            [
                                0.06153154373168945,
                                -0.18397840857505798,
                                -0.23291358351707458
                            ]
                        ],
                        [
                            [
                                -0.31177449226379395,
                                -0.07341256737709045,
                                -0.3132828176021576
                            ],
                            [
                                -0.17714159190654755,
                                -0.12237724661827087,
                                -0.11809396743774414
                            ],
                            [
                                -0.029103755950927734,
                                0.22268661856651306,
                                0.31751808524131775
                            ]
                        ],
                        [
                            [
                                0.1397850513458252,
                                -0.06400313973426819,
                                0.20793399214744568
                            ],
                            [
                                0.20542535185813904,
                                0.17787542939186096,
                                0.32136115431785583
                            ],
                            [
                                -0.29630956053733826,
                                0.049776703119277954,
                                0.058413416147232056
                            ]
                        ]
                    ],
                    [
                        [
                            [
                                -0.07698211073875427,
                                0.037653207778930664,
                                0.01658177375793457
                            ],
                            [
                                -0.0032380521297454834,
                                0.15821519494056702,
                                -0.03352236747741699
                            ],
                            [
                                -0.2623661458492279,
                                0.2193836271762848,
                                -0.07561135292053223
                            ]
                        ],
                        [
                            [
                                0.288451224565506,
                                -0.003802776336669922,
                                0.22452786564826965
                            ],
                            [
                                0.22076687216758728,
                                -0.1795705258846283,
                                0.12257322669029236
                            ],
                            [
                                0.3255132734775543,
                                0.28719910979270935,
                                -0.09097656607627869
                            ]
                        ],
                        [
                            [
                                0.004698663949966431,
                                0.0628863275051117,
                                -0.06256017088890076
                            ],
                            [
                                -0.1144418716430664,
                                -0.04366469383239746,
                                0.2510755956172943
                            ],
                            [
                                -0.03479042649269104,
                                0.004431486129760742,
                                0.3088437616825104
                            ]
                        ]
                    ],
                    [
                        [
                            [
                                -0.214219331741333,
                                -0.05728450417518616,
                                -0.09445779025554657
                            ],
                            [
                                -0.08738932013511658,
                                0.310520201921463,
                                -0.045676857233047485
                            ],
                            [
                                0.26839855313301086,
                                -0.11309599876403809,
                                0.27888110280036926
                            ]
                        ],
                        [
                            [
                                -0.2824833393096924,
                                -0.11936704814434052,
                                -0.07173570990562439
                            ],
                            [
                                0.06107553839683533,
                                -0.17940442264080048,
                                0.28229770064353943
                            ],
                            [
                                -0.1611143797636032,
                                0.26140525937080383,
                                0.003857135772705078
                            ]
                        ],
                        [
                            [
                                -0.2756039500236511,
                                -0.32447680830955505,
                                -0.22189760208129883
                            ],
                            [
                                0.23985722661018372,
                                0.0259760320186615,
                                0.179142564535141
                            ],
                            [
                                -0.3102841377258301,
                                0.27399978041648865,
                                0.21217277646064758
                            ]
                        ]
                    ]
                ],
                "biases": [
                    1.6400370597839355,
                    -1.5295990705490112,
                    1.05079984664917
                ]
            },
            {
                "class_name": "Maximum",
                "config": {
                    "name": "maximum",
                    "trainable": true,
                    "dtype": "float32",
                    "idx": 3,
                    "size": 300,
                    "input_shape": [
                        [
                            null,
                            3,
                            10,
                            10
                        ],
                        [
                            null,
                            3,
                            10,
                            10
                        ]
                    ],
                    "output_shape": [
                        null,
                        3,
                        10,
                        10
                    ],
                    "prev_layer_idx": [
                        1,
                        2
                    ]
                },
                "name": "maximum",
                "inbound_nodes": [
                    [
                        [
                            "conv2d_5",
                            0,
                            0,
                            {}
                        ],
                        [
                            "conv2d_6",
                            0,
                            0,
                            {}
                        ]
                    ]
                ]
            }
        ],
        "input_layers": [
            [
                "input_7",
                0,
                0
            ]
        ],
        "output_layers": [
            [
                "maximum",
                0,
                0
            ]
        ],
        "data_format": "channels_last"
    },
    "keras_version": "2.12.0",
    "backend": "tensorflow"
}